<?xml version="1.0"?>
<opencv_storage>
<opencv_ml_svm>
  <format>3</format>
  <svmType>C_SVC</svmType>
  <kernel>
    <type>LINEAR</type></kernel>
  <C>1.</C>
  <term_criteria><epsilon>1.0000000000000000e-03</epsilon></term_criteria>
  <var_count>180</var_count>
  <class_count>2</class_count>
  <class_labels type_id="opencv-matrix">
    <rows>2</rows>
    <cols>1</cols>
    <dt>i</dt>
    <data>
      0 1</data></class_labels>
  <sv_total>1</sv_total>
  <support_vectors>
    <_>
      1.18912756e+00 1.96128190e+00 2.19766235e+00 8.79995763e-01
      1.45643997e+00 8.25518966e-02 -1.31086737e-01 -8.68179202e-02
      1.64439845e+00 -2.06542224e-01 1.93198040e-01 -1.89379841e-01
      -1.18169332e+00 -2.63714701e-01 2.11185980e+00 -1.84515154e+00
      -8.63330245e-01 -1.53318071e+00 5.37695467e-01 8.96433927e-03
      2.20822215e+00 1.31499970e+00 -5.97738206e-01 -9.22048211e-01
      5.03402531e-01 -2.34265551e-01 4.07818854e-01 2.05445498e-01
      8.77657458e-02 9.09622192e-01 -5.20300269e-01 -5.41136146e-01
      9.53533947e-01 1.12641335e+00 1.08514535e+00 -1.17223091e-01
      -1.75979769e+00 -6.89673722e-01 2.71400750e-01 5.84241033e-01
      -3.23580217e+00 -1.06073689e+00 -8.15789580e-01 -3.42431992e-01
      -2.41899085e+00 -1.02648509e+00 -1.49658072e+00 2.68147874e+00
      1.70407340e-01 -2.96968293e+00 -9.04799044e-01 -4.11445975e-01
      4.96427536e-01 -7.68201411e-01 -1.39266562e+00 -2.01220080e-01
      -5.85945435e-02 9.81691703e-02 -3.17651606e+00 -7.44038403e-01
      -9.93848443e-01 7.95930326e-02 -2.48584151e+00 -4.10721809e-01
      -1.35754979e+00 5.80583572e-01 -1.03001463e+00 -1.03136051e+00
      -1.96782899e+00 2.71673948e-01 7.84721017e-01 -7.33587623e-01
      -1.34961510e+00 -4.09313977e-01 -1.15245128e+00 -1.14353871e+00
      -2.11308312e+00 -7.65645862e-01 -8.51367831e-01 1.43106818e+00
      -2.93491662e-01 -1.04434109e+00 -1.71805227e+00 -1.21822214e+00
      1.02108943e+00 -7.11316705e-01 -4.26315963e-01 -3.98284614e-01
      1.40217745e+00 3.86567771e-01 -4.37357873e-01 1.27923489e+00
      -7.83301413e-01 1.50458559e-01 -9.76402342e-01 -6.33489966e-01
      -1.53588736e+00 1.09027350e+00 -3.86169851e-01 -7.11205661e-01
      -6.60236716e-01 -3.78426313e-01 7.08867684e-02 3.35386485e-01
      3.01856160e-01 -3.03990543e-01 5.80093503e-01 -8.72380257e-01
      -2.12378353e-01 1.17611766e+00 -6.75554052e-02 -4.75341618e-01
      5.02290547e-01 1.08255184e+00 -9.11902368e-01 -6.53247178e-01
      1.22181757e-03 1.96173623e-01 8.08463871e-01 -5.71075737e-01
      -6.52782097e-02 -4.54040438e-01 9.22732949e-01 -3.78943771e-01
      8.29303384e-01 6.31442904e-01 -4.56001639e-01 -2.19699204e-01
      -1.18095815e+00 -1.75032485e+00 -9.37334001e-02 -9.80225801e-01
      1.44576347e+00 2.60294259e-01 -1.21218026e+00 5.22001565e-01
      1.65269744e+00 -1.93330929e-01 -1.38873053e+00 1.01007044e+00
      4.49921757e-01 4.01904166e-01 7.29585826e-01 7.77150765e-02
      8.85710299e-01 3.16938579e-01 1.81658077e+00 1.44920921e+00
      -1.76602006e+00 1.88089445e-01 1.86865330e+00 2.14614630e+00
      3.93470347e-01 7.07799911e-01 4.00129646e-01 -1.56876063e+00
      4.38620299e-02 -1.06598461e+00 -6.61955103e-02 1.72709441e+00
      3.16869766e-01 -3.04388881e-01 -2.70454317e-01 1.71911731e-01
      -7.09013283e-01 5.87414503e-01 1.15223384e+00 -1.18018675e+00
      -5.41417360e-01 7.34672189e-01 1.50931346e+00 -3.50795150e-01
      -3.28692049e-01 -9.50706422e-01 -2.23370218e+00 3.07072490e-01
      1.55238235e+00 1.02699161e+00 -1.48845232e+00 -1.18331516e+00</_></support_vectors>
  <uncompressed_sv_total>832</uncompressed_sv_total>
  <uncompressed_support_vectors>
    <_>
      2.34814305e-02 8.74415189e-02 2.87118882e-01 2.87118882e-01
      1.73920467e-01 2.86175646e-02 3.82373313e-04 1.67481452e-02
      5.00916410e-03 5.15817851e-02 1.98829561e-01 2.87118882e-01
      2.04206035e-01 2.80110449e-01 1.49772048e-01 9.18721315e-04
      1.83661524e-02 9.71156731e-03 5.83116487e-02 1.17504649e-01
      2.87118882e-01 2.87118882e-01 2.50986874e-01 1.07677452e-01
      1.26880050e-01 7.21822158e-02 4.62472141e-02 6.82910532e-02
      2.62756050e-01 2.87118882e-01 1.79150328e-01 1.40398279e-01
      7.54916966e-02 1.21078879e-01 1.24108277e-01 3.46408971e-02
      6.97671473e-02 4.21224982e-02 9.25055742e-02 2.01975167e-01
      2.70969659e-01 1.04733393e-01 2.63767451e-01 2.72520036e-01
      1.01981774e-01 4.30927575e-02 5.85690290e-02 9.77051482e-02
      7.44242892e-02 9.76140499e-02 1.44663692e-01 2.72520036e-01
      2.72520036e-01 1.01227887e-01 3.92655134e-02 3.20477486e-02
      1.98580269e-02 1.28516749e-01 2.72520036e-01 6.58697709e-02
      1.52360380e-01 2.60889053e-01 7.89224282e-02 1.88219529e-02
      1.46709029e-02 5.15122572e-03 9.28462073e-02 2.42659003e-01
      2.72520036e-01 2.72520036e-01 2.72520036e-01 8.09110925e-02
      2.42315661e-02 3.30316238e-02 3.44758444e-02 1.29409343e-01
      3.38409662e-01 8.22263360e-02 6.58021718e-02 5.31298928e-02
      2.59842519e-02 2.14600600e-02 3.20790447e-02 1.29640400e-01
      3.38409662e-01 3.38409662e-01 2.35125631e-01 1.14115700e-01
      1.09316431e-01 2.20423862e-02 1.02201186e-01 1.68385848e-01
      2.03383595e-01 1.93765163e-01 2.62573361e-01 1.22386724e-01
      3.91677134e-02 6.21498609e-03 2.15162635e-02 7.23554865e-02
      1.58049121e-01 3.38409662e-01 3.38409662e-01 2.37565532e-01
      9.20167100e-03 8.22299346e-03 2.12263153e-03 1.71795860e-02
      6.63364828e-02 1.29193157e-01 1.84891611e-01 1.53722137e-01
      1.46259591e-01 1.87196195e-01 9.88486633e-02 7.99141452e-03
      1.42557118e-02 3.24199237e-02 1.26199320e-01 3.14825296e-01
      3.14825296e-01 2.16667533e-01 2.03283038e-02 1.94293074e-03
      4.08490072e-04 6.85610063e-03 5.07991351e-02 3.70350592e-02
      8.01979974e-02 1.81329474e-01 2.97491640e-01 3.14825296e-01
      3.14825296e-01 7.28997365e-02 4.49348167e-02 3.05303410e-02
      5.35278618e-02 2.10839555e-01 3.14825296e-01 3.14825296e-01
      6.05024211e-02 2.48408187e-02 1.68128945e-02 2.21108589e-02
      1.67690217e-01 5.95034882e-02 6.30755201e-02 1.39412537e-01
      1.24095090e-01 1.50904462e-01 2.60200828e-01 2.05851302e-01
      1.54272303e-01 1.55129194e-01 1.04407161e-01 2.27366045e-01
      2.60200828e-01 2.59301603e-01 2.16466747e-02 3.00064236e-02
      5.38118556e-02 8.02548081e-02 2.60200828e-01 1.74261242e-01
      8.50289389e-02 4.74593900e-02 3.37851308e-02 2.97183171e-02
      1.55547306e-01 1.75106347e-01 2.42552489e-01 2.60200828e-01
      2.60200828e-01 2.10510269e-01 2.24413887e-01 5.41244410e-02
      1.09637156e-03 2.48957332e-02 1.15576625e-01 2.60200828e-01</_>
    <_>
      2.07775664e-02 1.51535511e-01 3.10226798e-01 2.35808387e-01
      1.26178190e-01 4.93102893e-02 1.23658525e-02 1.02398479e-02
      2.11465321e-02 3.07403915e-02 9.77712870e-02 1.98406577e-01
      1.47576407e-01 3.10226798e-01 3.10226798e-01 7.53479600e-02
      2.23021694e-02 2.22193580e-02 4.02051881e-02 1.55072689e-01
      3.10226798e-01 2.86044359e-01 1.90288976e-01 3.84928398e-02
      3.99797177e-03 7.62779545e-03 1.92952137e-02 2.93495022e-02
      1.42141506e-01 2.25277185e-01 1.49261802e-01 3.10226798e-01
      3.10226798e-01 5.66252433e-02 2.52104783e-03 1.22907236e-02
      6.05568513e-02 1.88879699e-01 2.60572165e-01 2.15936929e-01
      2.10744798e-01 8.99106637e-02 7.36087039e-02 7.98111781e-02
      4.25805822e-02 8.66578370e-02 2.47277662e-01 2.60572165e-01
      1.17584281e-01 2.43573889e-01 1.17673695e-01 5.84831536e-02
      6.47570193e-02 8.23644400e-02 6.37934729e-02 9.18974355e-02
      1.17724441e-01 7.31297657e-02 1.20277509e-01 1.44596100e-01
      2.56994933e-01 2.60572165e-01 2.05615908e-01 8.72128606e-02
      8.07197392e-02 1.03044204e-01 2.71191914e-02 1.30437911e-01
      2.23548576e-01 2.60572165e-01 2.60572165e-01 2.60572165e-01
      4.98033166e-02 3.66182588e-02 3.25430445e-02 7.03131184e-02
      1.09298266e-01 9.07777697e-02 1.64988160e-01 2.87248194e-01
      1.49862483e-01 2.26247944e-02 5.50834183e-03 1.88573617e-02
      8.03037137e-02 2.87248194e-01 2.87248194e-01 2.87248194e-01
      2.87248194e-01 1.38082698e-01 2.99291667e-02 4.10259105e-02
      2.46587500e-01 2.08244637e-01 1.58903182e-01 5.23760878e-02
      3.46368365e-02 6.09041788e-02 2.64378767e-02 1.80343147e-02
      1.45665361e-02 2.87248194e-01 2.87248194e-01 2.87248194e-01
      2.85480320e-01 7.87764117e-02 4.58963029e-02 1.52606014e-02
      2.23364849e-02 6.04002215e-02 3.28945965e-01 2.34656900e-01
      5.18176965e-02 8.48957524e-03 8.92672315e-03 6.78435201e-03
      8.36423319e-03 9.95483529e-03 1.73405334e-02 3.28945965e-01
      3.28945965e-01 7.67424926e-02 1.10263731e-02 2.36093794e-04
      8.69384501e-04 7.09181651e-03 2.13983450e-02 4.61677462e-02
      2.86904067e-01 3.28945965e-01 2.61106670e-01 9.08463299e-02
      7.00090230e-02 3.25004533e-02 2.13535074e-02 5.83195174e-03
      2.08985116e-02 3.28945965e-01 3.28945965e-01 3.28945965e-01
      4.88041341e-02 3.46084475e-03 6.42308092e-04 6.15941873e-03
      6.42792955e-02 9.69731361e-02 9.45088938e-02 2.52467036e-01
      2.63340771e-01 1.01033747e-01 1.19301125e-01 2.01190591e-01
      6.67945296e-02 3.25916260e-02 7.84382001e-02 2.02989772e-01
      2.63340771e-01 2.63340771e-01 5.87596819e-02 6.22614939e-03
      1.02371499e-02 1.25644691e-02 2.63340771e-01 2.63340771e-01
      1.20982297e-01 1.44440308e-01 1.06980719e-01 2.32007708e-02
      7.41345063e-02 2.63340771e-01 1.71898469e-01 2.63340771e-01
      2.63340771e-01 1.93501517e-01 2.63340771e-01 1.61486074e-01
      1.43125979e-02 6.31436333e-03 3.34620290e-02 1.34386018e-01</_>
    <_>
      1.26159219e-02 1.26395404e-01 2.92266905e-01 2.92266905e-01
      1.40723214e-01 1.31580429e-02 7.60750193e-03 2.16756668e-03
      8.05317983e-03 2.04286557e-02 6.31717891e-02 2.92266905e-01
      2.92266905e-01 2.92266905e-01 1.84987828e-01 3.03963479e-02
      6.61441498e-03 1.96780488e-02 7.16286013e-03 4.80708741e-02
      2.92266905e-01 2.92266905e-01 2.48275474e-01 5.73648065e-02
      1.06456526e-01 5.43022119e-02 1.26954792e-02 1.16915489e-02
      3.49352211e-02 2.92266905e-01 2.26378649e-01 1.86318919e-01
      8.71219933e-02 1.69779256e-01 1.75954893e-01 3.26644704e-02
      1.35098137e-02 7.69113675e-02 1.92573249e-01 2.74988562e-01
      2.42284402e-01 5.97645603e-02 2.25596771e-01 1.96779445e-01
      6.91936538e-02 1.68155693e-02 2.89481338e-02 8.30703154e-02
      5.21092042e-02 9.97232422e-02 1.13699511e-01 2.74988562e-01
      2.74988562e-01 1.65128514e-01 3.06189898e-02 4.73431274e-02
      1.00520492e-01 2.74988562e-01 2.74988562e-01 2.37220358e-02
      7.88733810e-02 1.62061483e-01 9.58928391e-02 2.87788715e-02
      2.88849641e-02 6.79904968e-02 1.50683612e-01 2.74988562e-01
      1.38584986e-01 2.58644938e-01 2.74988562e-01 1.91218689e-01
      2.66063623e-02 2.20564455e-02 8.12257454e-02 2.61398554e-01
      3.32405895e-01 3.05899978e-02 2.79933736e-02 2.94665694e-02
      3.87569778e-02 2.63644867e-02 5.03426008e-02 3.00766885e-01
      3.32405895e-01 3.32405895e-01 5.25945537e-02 3.91812623e-02
      5.46265021e-02 5.05336635e-02 3.75465602e-02 7.54278451e-02
      3.19521874e-01 2.57898629e-01 1.54976279e-01 1.01430938e-01
      4.88212109e-02 3.12884040e-02 3.08671743e-02 2.78985407e-02
      1.62912965e-01 3.32405895e-01 3.32405895e-01 1.34783685e-01
      7.99837813e-04 5.53618371e-03 2.53826892e-03 2.49116030e-02
      4.26714085e-02 6.22490048e-02 2.69673735e-01 1.67957366e-01
      1.21202476e-01 1.52918428e-01 7.99597874e-02 5.36346808e-02
      2.29621846e-02 1.49159813e-02 7.06534311e-02 3.22957844e-01
      3.22957844e-01 2.73066312e-01 1.51407963e-04 8.54070648e-04
      2.93845148e-03 8.59765802e-03 5.19589931e-02 2.94625796e-02
      9.85736698e-02 1.88016087e-01 3.22957844e-01 1.91514939e-01
      3.22957844e-01 9.73389968e-02 3.80850844e-02 2.56350543e-02
      1.51239950e-02 1.96633875e-01 3.22957844e-01 3.22957844e-01
      3.93697963e-04 1.86082441e-02 1.52328508e-02 1.52165378e-02
      1.57487348e-01 6.21419512e-02 6.71338737e-02 1.35715976e-01
      1.95455000e-01 1.14061080e-01 2.70226568e-01 1.43904358e-01
      1.34873182e-01 1.33003235e-01 8.98089036e-02 1.59204185e-01
      2.70226568e-01 2.70226568e-01 2.35895067e-03 3.14885005e-02
      3.46302092e-02 6.91165403e-02 2.70226568e-01 2.35796869e-01
      9.38231722e-02 5.38525395e-02 7.25281388e-02 4.43241373e-02
      1.64047763e-01 1.21991813e-01 2.06980795e-01 2.70226568e-01
      2.70226568e-01 1.60041720e-01 2.53869474e-01 1.54881194e-01
      8.12532287e-03 1.83084570e-02 1.12920605e-01 2.70226568e-01</_>
    <_>
      5.46709709e-02 1.97463647e-01 2.99254298e-01 2.39003375e-01
      3.26910242e-02 6.26274720e-02 7.24992156e-02 4.02439386e-02
      6.90872893e-02 6.40030578e-02 1.26347244e-01 1.30596459e-01
      2.20060460e-02 8.09276700e-02 2.99254298e-01 2.99254298e-01
      1.19914278e-01 9.45024341e-02 2.77433097e-02 1.59377232e-01
      2.99254298e-01 2.99254298e-01 2.33072340e-01 1.24877997e-01
      6.11172765e-02 8.09597783e-03 3.13886032e-02 2.96016298e-02
      8.93699080e-02 1.16396740e-01 1.81059435e-01 2.99254298e-01
      2.99254298e-01 1.69572651e-01 2.44555846e-02 3.89161929e-02
      1.23872356e-02 5.58454022e-02 1.75434068e-01 2.93345422e-01
      2.62697399e-01 1.11350477e-01 7.18609244e-02 2.33148243e-02
      4.64984914e-03 7.22860219e-03 1.89447217e-02 2.46472936e-02
      2.13623419e-01 2.93345422e-01 2.93345422e-01 1.43891931e-01
      6.00964017e-02 7.31457910e-03 3.46191749e-02 7.61260465e-02
      1.29456550e-01 2.93345422e-01 2.63685346e-01 1.09893493e-01
      1.77548915e-01 2.48051539e-01 6.49843216e-02 1.99756231e-02
      1.75000057e-02 1.25817368e-02 5.99636324e-02 1.25144228e-01
      2.23845899e-01 2.93345422e-01 2.93345422e-01 1.25244036e-01
      3.18681486e-02 5.30792400e-02 8.52920488e-02 3.07382941e-01
      3.07382941e-01 3.64068002e-02 8.58597681e-02 2.53279328e-01
      1.23979829e-01 2.89298203e-02 1.52182439e-02 1.53618967e-02
      2.68571973e-02 5.61512299e-02 1.94460943e-01 3.07382941e-01
      3.07382941e-01 2.02084348e-01 9.37317591e-03 1.20720342e-02
      2.66606770e-02 2.94471741e-01 3.07382941e-01 1.86562091e-01
      1.96525250e-02 3.27589847e-02 3.70768756e-02 1.82895623e-02
      7.85967987e-03 6.68759570e-02 2.24109873e-01 2.33767509e-01
      2.64214158e-01 1.36501968e-01 1.20916553e-01 5.69861084e-02
      9.40016191e-03 2.16892250e-02 4.20780964e-02 9.08176452e-02
      3.09174538e-01 3.09174538e-01 6.81259409e-02 1.74651947e-02
      7.01694144e-03 2.60636024e-02 3.07239629e-02 3.09174538e-01
      3.09174538e-01 1.33721292e-01 9.24752355e-02 3.40464152e-02
      1.04094334e-02 2.14420967e-02 2.28960477e-02 4.70896438e-02
      1.01188928e-01 8.05504322e-02 3.09174538e-01 3.09174538e-01
      2.28824288e-01 6.58855513e-02 4.18467559e-02 3.40330973e-02
      7.01286420e-02 3.09174538e-01 3.09174538e-01 2.94959247e-01
      9.45859626e-02 6.18605390e-02 3.37758549e-02 4.39333543e-02
      1.37946671e-02 1.66484565e-02 5.71327731e-02 4.83992696e-02
      2.61459231e-01 2.69904554e-01 2.51964688e-01 6.98772445e-02
      3.96528803e-02 1.38598075e-02 2.82598007e-02 1.80038333e-01
      2.69904554e-01 2.69904554e-01 2.00810224e-01 5.68181537e-02
      4.03006598e-02 3.52841467e-02 4.95390594e-02 2.28689574e-02
      1.62584241e-02 1.56902969e-02 1.32485181e-01 2.69904554e-01
      2.69904554e-01 2.69904554e-01 1.67463422e-01 1.35918528e-01
      1.43435150e-01 1.29818976e-01 2.49780074e-01 2.69904554e-01
      1.16971105e-01 6.88431561e-02 1.89988539e-01 2.03147262e-01</_>
    <_>
      3.16741131e-02 6.04582280e-02 3.04565102e-01 3.04565102e-01
      9.81313437e-02 3.45699526e-02 5.40910028e-02 1.54936304e-02
      1.12459399e-02 3.46525423e-02 5.03225625e-02 1.88347265e-01
      1.99415043e-01 3.04565102e-01 3.04565102e-01 1.20165117e-01
      2.43095569e-02 1.80502925e-02 1.06766000e-02 3.36041674e-02
      3.04565102e-01 3.04565102e-01 1.80058777e-01 7.42402598e-02
      5.87904602e-02 1.95635930e-02 7.49373110e-03 1.49093717e-02
      7.77750602e-03 1.31061599e-01 3.04565102e-01 3.04565102e-01
      2.48254418e-01 1.31369457e-01 4.45852466e-02 1.90813188e-02
      1.87552292e-02 4.30164449e-02 1.36799678e-01 2.79648483e-01
      2.61610001e-01 1.54921696e-01 2.38368601e-01 8.51297304e-02
      4.10378948e-02 3.24021727e-02 6.24239864e-03 6.41686544e-02
      1.62052348e-01 1.55715570e-01 2.31215551e-01 2.79648483e-01
      2.69015849e-01 8.28926116e-02 1.87881626e-02 1.62082296e-02
      2.30462495e-02 2.79648483e-01 2.79648483e-01 5.84132448e-02
      2.52458006e-01 1.44293502e-01 6.54938519e-02 2.40979716e-02
      5.82705205e-03 4.63686557e-03 2.62949225e-02 1.58349276e-01
      1.82311848e-01 2.79648483e-01 2.79648483e-01 8.61298516e-02
      2.23896019e-02 2.41196156e-02 2.87669692e-02 1.77091941e-01
      3.18784326e-01 2.08340138e-02 7.53817037e-02 6.32479042e-02
      2.85309684e-02 2.75238547e-02 3.38697806e-02 1.25213638e-01
      2.77903140e-01 3.18784326e-01 1.50780797e-01 3.17890942e-01
      1.45786837e-01 2.70186383e-02 6.96358979e-02 1.46512434e-01
      2.45145127e-01 9.58149359e-02 3.18784326e-01 6.24440424e-02
      1.76953766e-02 2.52187978e-02 1.84043031e-02 5.72444834e-02
      2.44015113e-01 3.18784326e-01 3.18784326e-01 1.96020827e-01
      3.08910143e-02 2.14502867e-02 1.37275560e-02 1.67901628e-02
      4.91113141e-02 1.28065899e-01 2.62597471e-01 1.44780636e-01
      2.04904586e-01 9.60159153e-02 2.85263844e-02 2.36448813e-02
      1.10579580e-02 2.61056498e-02 1.95519567e-01 3.05849910e-01
      3.05849910e-01 1.10542417e-01 1.22420527e-02 1.11673505e-03
      1.88776152e-03 6.81351125e-03 2.48507150e-02 5.27362823e-02
      1.16968058e-01 2.36819461e-01 2.85023659e-01 3.05849910e-01
      2.24160239e-01 6.34068400e-02 1.65040027e-02 1.44877238e-02
      7.81215578e-02 2.78606683e-01 3.05849910e-01 3.05849910e-01
      1.51913211e-01 1.95707344e-02 6.89717522e-03 8.69818591e-03
      5.68831377e-02 6.18504956e-02 7.19873235e-02 2.08141834e-01
      1.99721515e-01 2.45527923e-01 2.57809371e-01 1.33504033e-01
      6.84347227e-02 4.20009978e-02 6.76373169e-02 1.21479049e-01
      2.57809371e-01 2.57809371e-01 1.23411126e-01 4.13500629e-02
      3.70944701e-02 3.28811668e-02 2.57809371e-01 1.51414126e-01
      1.14368170e-01 1.05865836e-01 7.98737630e-02 5.13840243e-02
      1.90460294e-01 1.59571663e-01 2.57809371e-01 2.25631177e-01
      1.21292368e-01 1.77912593e-01 2.57809371e-01 2.43100554e-01
      4.55364548e-02 9.46974531e-02 1.88429043e-01 2.42898151e-01</_>
    <_>
      1.36746699e-02 2.01124270e-02 1.72756072e-02 7.74343982e-02
      3.22386742e-01 3.22386742e-01 1.00776941e-01 1.06392885e-02
      1.09801078e-02 1.10924512e-03 0. 1.40352160e-04 2.77293450e-03
      2.76310146e-01 3.22386742e-01 1.82618529e-01 3.81220202e-03
      1.13117299e-03 3.72622884e-03 1.53213125e-02 8.09827968e-02
      1.54095888e-01 3.22386742e-01 3.22386742e-01 7.63647705e-02
      1.27483523e-02 5.38247544e-03 3.86330392e-03 4.41706041e-04
      3.48089053e-03 7.56525248e-03 3.22386742e-01 3.22386742e-01
      3.22386742e-01 4.03180458e-02 5.48651675e-03 3.74038750e-03
      7.61132827e-03 5.95763661e-02 7.73286074e-02 1.99000925e-01
      2.24842787e-01 1.98824137e-01 2.61087060e-01 3.09322905e-02
      7.09591620e-03 5.40234149e-04 3.24420584e-03 4.12183721e-03
      1.94294289e-01 3.03421557e-01 3.03421557e-01 1.50446489e-01
      1.60348043e-02 5.75411785e-03 1.56067661e-04 2.02295603e-03
      1.62169952e-02 9.13428590e-02 1.71610728e-01 3.03421557e-01
      3.03421557e-01 1.06096886e-01 5.14144823e-03 3.60156155e-05
      1.93285741e-04 2.75976732e-02 3.03421557e-01 3.03421557e-01
      3.03421557e-01 1.80951238e-01 2.24317014e-02 4.72023245e-03
      4.25544189e-04 3.11165880e-02 1.45377949e-01 2.16657579e-01
      1.16734371e-01 1.38024449e-01 1.36006907e-01 4.96627092e-02
      1.60484842e-03 0. 3.87161374e-02 3.04604828e-01 3.04604828e-01
      3.04604828e-01 1.75330684e-01 4.28042449e-02 6.61193859e-03
      4.39966619e-02 2.44886011e-01 3.04604828e-01 3.04604828e-01
      1.65931478e-01 1.77992154e-02 9.43547487e-03 8.03952478e-03
      1.13504343e-02 9.21275932e-03 8.54816586e-02 3.04604828e-01
      3.04604828e-01 3.04604828e-01 2.04192922e-02 2.20795372e-03
      2.80154200e-04 2.45984970e-03 1.00525543e-01 2.88528889e-01
      2.88528889e-01 1.58198789e-01 5.60370944e-02 4.37834747e-02
      7.23228138e-03 2.97756097e-03 1.20324725e-02 2.38064639e-02
      2.23523200e-01 2.88528889e-01 2.88528889e-01 1.75804257e-01
      1.37884598e-02 6.84737635e-04 0. 4.05597547e-03 5.19283973e-02
      2.38263860e-01 2.19826654e-01 1.81664959e-01 2.27694795e-01
      2.88528889e-01 1.10654436e-01 1.90415047e-02 1.59799177e-02
      3.10790949e-02 1.91195354e-01 2.88528889e-01 2.88528889e-01
      1.99825644e-01 9.62162614e-02 8.73276033e-03 0. 7.10717728e-03
      1.55245746e-02 1.21428575e-02 4.97262664e-02 2.88230509e-01
      2.88230509e-01 2.88230509e-01 1.29977733e-01 3.79713960e-02
      2.31342390e-02 3.74671184e-02 7.37682357e-02 1.83042854e-01
      2.88230509e-01 2.88230509e-01 9.11979005e-02 1.02090612e-02
      1.37901676e-04 1.26269059e-02 1.35677159e-01 1.66523501e-01
      1.22943424e-01 2.88230509e-01 2.88230509e-01 1.70563504e-01
      6.84692338e-02 1.19951658e-01 1.40767038e-01 2.66096424e-02
      5.24052642e-02 8.33334997e-02 2.88230509e-01 2.88230509e-01
      1.47457719e-01 1.20972678e-01 5.04796244e-02 1.42395739e-02</_>
    <_>
      1.56863760e-02 1.55004328e-02 2.95359213e-02 5.66953458e-02
      3.26969564e-01 3.26969564e-01 6.17803559e-02 2.32527661e-03
      1.05777429e-02 1.53188291e-03 0. 2.49323575e-03 1.23353377e-02
      2.91102529e-01 3.26969564e-01 2.08247319e-01 2.98545812e-03
      1.55526923e-03 4.46261093e-03 7.99544435e-03 8.08085650e-02
      2.26620361e-01 3.26969564e-01 2.81585395e-01 6.63308278e-02
      2.88277827e-02 2.04655482e-03 5.72757330e-03 0. 1.41359037e-02
      5.77806495e-02 3.26969564e-01 3.26969564e-01 2.64993101e-01
      4.63818163e-02 7.20162503e-03 3.75717529e-03 2.86472403e-03
      3.52146141e-02 1.16163209e-01 2.19002828e-01 1.45150363e-01
      2.40534067e-01 2.85350680e-01 3.22143734e-02 6.54546497e-03 0.
      7.13691488e-03 2.82482896e-02 1.91053048e-01 2.85350680e-01
      2.85350680e-01 2.18804061e-01 9.20831505e-03 8.80977605e-03
      4.10513632e-04 1.23318983e-03 9.81454458e-03 1.32382840e-01
      1.38645113e-01 2.85350680e-01 2.85350680e-01 8.41629133e-02
      3.18244705e-03 0. 0. 5.39343022e-02 2.85350680e-01 2.85350680e-01
      2.85350680e-01 2.65964955e-01 7.12451013e-03 1.49153443e-02
      1.06819738e-02 5.41313738e-02 1.44378856e-01 2.49735653e-01
      8.97889212e-02 1.19114146e-01 1.02913089e-01 3.76539417e-02
      2.51711509e-03 5.84398629e-04 4.44382355e-02 3.08528066e-01
      3.08528066e-01 2.52982080e-01 1.37452528e-01 4.72617075e-02
      3.74187483e-03 3.62028442e-02 3.08528066e-01 3.08528066e-01
      2.94834197e-01 1.31255165e-01 9.65414476e-03 1.19327353e-02
      4.76372847e-03 9.02331248e-03 8.45321268e-03 1.26331851e-01
      3.08528066e-01 3.08528066e-01 3.08528066e-01 2.95393728e-02
      1.06289727e-03 2.35249216e-04 4.28626314e-03 5.17953038e-02
      2.79327989e-01 2.79327989e-01 1.40025526e-01 3.63467298e-02
      9.41185933e-03 2.02419218e-02 1.06859300e-02 9.28650983e-03
      3.40678170e-02 2.79327989e-01 2.79327989e-01 2.79327989e-01
      7.09099323e-02 1.23779001e-02 8.19823798e-03 2.61592260e-03
      4.54384740e-03 3.52958627e-02 2.64609873e-01 2.31039315e-01
      1.42621860e-01 2.51772940e-01 1.49514943e-01 1.60585135e-01
      1.53806090e-01 7.25969672e-02 5.88653535e-02 2.50831693e-01
      2.79327989e-01 2.37371996e-01 2.78841853e-01 9.06742290e-02
      5.96830770e-02 2.36375574e-02 7.20430864e-03 2.54721493e-02
      1.89601015e-02 5.09874634e-02 2.57320881e-01 2.94091076e-01
      1.95120081e-01 1.34291098e-01 1.34899169e-01 7.96438158e-02
      3.43931131e-02 6.79897591e-02 1.45530343e-01 2.94091076e-01
      2.94091076e-01 8.18778872e-02 3.17982063e-02 1.31308073e-02
      5.31669660e-03 2.09062621e-01 1.88368604e-01 2.31630251e-01
      2.94091076e-01 2.94091076e-01 7.93117359e-02 3.86616923e-02
      7.34071210e-02 1.63562208e-01 3.51521261e-02 6.02896549e-02
      1.54332191e-01 2.94091076e-01 2.94091076e-01 6.00065961e-02
      2.89276168e-02 7.68646644e-03 1.76256821e-02</_>
    <_>
      3.45347486e-02 1.86510444e-01 2.79552668e-01 2.79552668e-01
      2.79552668e-01 9.07910168e-02 4.32490073e-02 9.49380733e-03
      1.33887026e-02 5.26372194e-02 1.17425315e-01 2.35505268e-01
      1.59508362e-01 2.79552668e-01 2.58526325e-01 7.60968700e-02
      2.10564956e-02 4.24719416e-02 4.80859354e-02 3.11691165e-02
      1.06684603e-01 2.79552668e-01 2.79552668e-01 1.27675310e-01
      1.25699177e-01 5.91849759e-02 4.46611866e-02 8.14130604e-02
      7.74203837e-02 1.01374112e-01 1.47600442e-01 2.21080095e-01
      1.98208347e-01 2.79552668e-01 1.94631606e-01 9.20038074e-02
      7.65981004e-02 1.92592442e-02 1.87108979e-01 2.86266714e-01
      2.43483275e-01 7.12811947e-02 1.74780786e-01 1.57364964e-01
      7.52554238e-02 5.47354370e-02 1.55204963e-02 2.17027683e-02
      4.13512252e-02 1.11184865e-01 2.26940170e-01 2.86266714e-01
      2.86266714e-01 1.05687514e-01 5.05260490e-02 9.38636996e-03
      8.53842720e-02 2.46484175e-01 2.86266714e-01 6.17123470e-02
      7.03170896e-02 1.10003322e-01 6.13800324e-02 3.24608162e-02
      5.81589388e-03 2.16318611e-02 1.09713532e-01 2.86266714e-01
      2.86266714e-01 2.86266714e-01 2.54164726e-01 5.44019081e-02
      3.87858786e-02 5.48358262e-02 5.18944785e-02 8.97142068e-02
      3.22933167e-01 7.93369114e-02 3.83844748e-02 3.51730138e-02
      3.69039066e-02 4.10031565e-02 8.24382529e-02 3.17255467e-01
      3.22933167e-01 3.18987757e-01 1.17458537e-01 3.94823663e-02
      2.71516796e-02 3.14400829e-02 6.64712787e-02 1.60553217e-01
      2.32561052e-01 9.77371112e-02 3.22933167e-01 2.02668607e-01
      3.77793051e-02 4.79643233e-02 7.77457058e-02 5.67387044e-02
      2.46500880e-01 3.22933167e-01 3.22933167e-01 1.10068485e-01
      5.07335924e-03 5.89755736e-03 7.31071224e-03 2.95145698e-02
      3.41938399e-02 6.79524541e-02 1.55081034e-01 1.54281631e-01
      2.21779823e-01 2.15975940e-01 1.16938166e-01 6.32833689e-02
      5.88320568e-02 1.80574171e-02 8.70720148e-02 3.14921737e-01
      3.14921737e-01 3.14921737e-01 1.15269385e-02 5.05629228e-03
      8.74466542e-03 1.39187640e-02 6.98114336e-02 4.47944626e-02
      7.34014064e-02 2.00918496e-01 1.91684112e-01 1.62216142e-01
      3.14921737e-01 2.39505976e-01 9.33670551e-02 6.19936250e-02
      6.02678657e-02 1.64429605e-01 3.14921737e-01 3.14921737e-01
      1.67627651e-02 3.25954594e-02 5.51087111e-02 4.67362441e-02
      1.52878165e-01 8.76618847e-02 6.82632178e-02 8.52529407e-02
      3.74435484e-02 3.00031658e-02 2.65043676e-01 2.65043676e-01
      1.95090979e-01 2.01815829e-01 1.50724530e-01 1.85309872e-01
      2.65043676e-01 2.20107526e-01 8.21514148e-03 2.58284286e-02
      9.59756002e-02 1.61001414e-01 2.65043676e-01 2.65043676e-01
      4.98009771e-02 7.07759708e-03 3.59245092e-02 2.78829620e-03
      5.78447133e-02 1.52563363e-01 2.23706916e-01 2.65043676e-01
      2.65043676e-01 1.99458867e-01 7.72447437e-02 1.05160922e-01
      4.16305289e-02 2.66084522e-02 1.73700318e-01 2.65043676e-01</_>
    <_>
      2.86812168e-02 9.60465744e-02 1.30063951e-01 4.40506078e-02
      2.89049953e-01 2.89049953e-01 1.39102772e-01 1.67140681e-02
      2.28209775e-02 4.37425170e-03 5.45510417e-03 2.19892673e-02
      1.34169171e-02 2.29446605e-01 2.89049953e-01 2.89049953e-01
      7.42900446e-02 6.52405014e-03 2.86325552e-02 6.95606917e-02
      1.58716172e-01 4.81564552e-02 1.63244113e-01 1.38996914e-01
      2.09179491e-01 2.89049953e-01 2.08024889e-01 1.44267930e-02
      8.88659898e-03 4.23924364e-02 3.33873220e-02 2.33703673e-01
      2.89049953e-01 2.89049953e-01 2.47377202e-01 1.38235167e-01
      6.88597709e-02 2.41572633e-02 2.73460522e-02 9.37552378e-03
      2.33720466e-02 2.46712714e-02 1.51297808e-01 2.80039519e-01
      2.80039519e-01 2.25561373e-02 2.11315043e-03 7.87849724e-03
      7.95521867e-03 5.49410060e-02 2.47915983e-01 2.80039519e-01
      2.80039519e-01 2.80039519e-01 8.85969847e-02 3.05152349e-02
      2.09640767e-02 3.04485001e-02 4.37821411e-02 6.20061383e-02
      1.29599586e-01 2.16649920e-01 2.80039519e-01 2.51770448e-02
      4.23502224e-03 2.07942910e-02 1.07371487e-01 2.80039519e-01
      2.80039519e-01 2.80039519e-01 2.66079068e-01 1.81722373e-01
      5.26227131e-02 3.85292061e-02 8.22739899e-02 8.72615576e-02
      7.10510686e-02 7.28661940e-02 1.43694773e-01 8.55676830e-02
      5.65398745e-02 3.01519036e-02 2.59909630e-02 2.38562703e-01
      3.57684940e-01 3.57684940e-01 3.05686563e-01 1.20015934e-01
      4.28394340e-02 3.29243243e-02 1.23459332e-01 2.24880770e-01
      2.81779796e-01 1.40234083e-01 3.86677571e-02 2.76569426e-02
      9.17567983e-02 5.39095588e-02 3.78280133e-02 6.82127997e-02
      2.00398386e-01 3.57684940e-01 3.57684940e-01 1.72641516e-01
      1.00420378e-02 8.19917675e-03 1.08272480e-02 2.11601108e-02
      7.08211809e-02 1.82227373e-01 2.72924393e-01 1.94606215e-01
      7.39326254e-02 5.26025891e-02 4.63830493e-02 3.92546691e-02
      3.69225033e-02 2.67932974e-02 1.40692085e-01 3.08434844e-01
      3.08434844e-01 2.44703695e-01 8.30073059e-02 9.46797244e-03
      2.34553940e-03 5.97479800e-03 7.07675293e-02 8.72402862e-02
      1.17473714e-01 1.29978165e-01 1.77979663e-01 1.27178058e-01
      1.30304381e-01 3.08434844e-01 1.57351717e-01 2.77789067e-02
      4.85075824e-02 1.77545294e-01 3.08434844e-01 3.08434844e-01
      3.08434844e-01 3.34621929e-02 7.17014149e-02 3.21143009e-02
      7.37501383e-02 5.63156307e-02 3.91103216e-02 1.48083689e-02
      5.98288029e-02 4.60826531e-02 1.24661446e-01 2.95501351e-01
      2.00834453e-01 1.00553937e-01 1.36324525e-01 1.67890117e-01
      1.78395629e-01 2.95501351e-01 2.25630194e-01 3.35681848e-02
      2.29574636e-01 1.31533161e-01 6.09453358e-02 5.89322597e-02
      7.51877129e-02 1.91038195e-02 6.04284890e-02 3.79180722e-03
      8.82783756e-02 2.95501351e-01 1.97004154e-01 2.46829823e-01
      2.30665207e-01 2.95501351e-01 1.48814768e-01 1.61794096e-01
      2.72652637e-02 6.41455650e-02 2.95501351e-01 2.16720581e-01</_>
    <_>
      5.11568598e-03 4.01961766e-02 3.03018034e-01 3.03018034e-01
      1.42637193e-01 5.37785031e-02 7.45248869e-02 2.59116776e-02
      5.33042569e-03 1.58212669e-02 7.40600005e-02 3.03018034e-01
      2.08175346e-01 2.44128227e-01 1.36036873e-01 1.11508116e-01
      1.81489997e-02 1.65318921e-02 8.03303812e-03 6.12123124e-02
      2.93105245e-01 3.03018034e-01 1.23815291e-01 9.95883048e-02
      2.52445132e-01 1.32916868e-01 3.82984206e-02 3.41091715e-02
      4.60639000e-02 1.51754707e-01 6.56435788e-02 6.96108341e-02
      1.83506623e-01 3.03018034e-01 3.03018034e-01 8.79157186e-02
      1.86730400e-02 4.84548025e-02 1.57137081e-01 2.91671753e-01
      2.91671753e-01 8.87016207e-02 1.94069654e-01 1.79136351e-01
      7.37732723e-02 2.82515809e-02 1.53814591e-02 1.94312837e-02
      2.25332193e-02 1.43823192e-01 2.82200336e-01 2.91671753e-01
      2.91671753e-01 1.06689945e-01 1.85792483e-02 3.10263578e-02
      3.58611122e-02 1.40061244e-01 2.91671753e-01 1.54484466e-01
      5.09677865e-02 4.50064838e-02 2.84679774e-02 1.71678029e-02
      5.21850437e-02 1.15679592e-01 2.91671753e-01 2.91671753e-01
      2.62615770e-01 1.70084178e-01 1.05022654e-01 2.58126538e-02
      3.51876542e-02 1.43833533e-01 7.39463195e-02 9.16027203e-02
      3.00768793e-01 7.86404982e-02 1.87351983e-02 7.02037057e-03
      1.67432856e-02 2.56986357e-02 2.27817029e-01 3.00768793e-01
      3.00768793e-01 1.83665380e-01 2.96887159e-02 8.07899982e-03
      4.83068964e-03 1.33825131e-02 6.82450086e-02 3.00768793e-01
      2.29247570e-01 1.21891335e-01 2.82207519e-01 2.33619481e-01
      7.24919438e-02 1.64948143e-02 2.99991705e-02 3.79211381e-02
      3.00768793e-01 3.00768793e-01 3.00768793e-01 1.27275825e-01
      5.29720783e-02 1.54559184e-02 6.69270102e-03 1.50198760e-02
      3.32747847e-02 9.52395424e-02 9.52946618e-02 1.45019546e-01
      1.69903755e-01 2.96989828e-01 2.38790452e-01 6.37788102e-02
      4.30350788e-02 1.48890270e-02 9.15027112e-02 2.14139968e-01
      2.96989828e-01 2.96989828e-01 1.05117835e-01 4.40136530e-02
      2.13022344e-02 2.17329469e-02 3.70785147e-02 4.50551212e-02
      6.56499714e-02 2.05652177e-01 1.26084566e-01 2.11090654e-01
      2.96989828e-01 2.63551801e-01 1.72806546e-01 3.50200422e-02
      6.44382313e-02 1.44588336e-01 2.96989828e-01 2.96989828e-01
      5.31741604e-02 8.03071931e-02 7.94379488e-02 1.25285819e-01
      1.39692351e-01 1.32146165e-01 9.47885290e-02 8.93004686e-02
      3.87084670e-02 4.05755490e-02 2.26306498e-01 2.42526338e-01
      2.16041148e-01 2.22819537e-01 1.48105890e-01 1.54433712e-01
      2.42526338e-01 1.35984123e-01 5.76076331e-03 4.36051190e-02
      1.18930258e-01 2.42526338e-01 2.42526338e-01 2.42526338e-01
      2.42526338e-01 1.00644961e-01 5.06546199e-02 2.15561744e-02
      2.82436684e-02 9.18190032e-02 2.01305166e-01 2.42526338e-01
      2.21740603e-01 2.42526338e-01 1.75344691e-01 1.24602139e-01
      3.58580761e-02 5.36423996e-02 1.43929437e-01 2.42526338e-01</_>
    <_>
      1.29265031e-02 3.23075429e-02 9.17706341e-02 1.72465190e-01
      2.84153581e-01 2.84153581e-01 1.58252791e-01 4.87391464e-02
      1.69279110e-02 3.87887983e-03 1.89469033e-03 1.63236335e-02
      2.95533016e-02 2.62798697e-01 2.84153581e-01 2.84153581e-01
      1.81776837e-01 1.48953749e-02 1.00888601e-02 1.68447029e-02
      1.93166137e-01 2.84153581e-01 2.84153581e-01 1.65744543e-01
      1.38022438e-01 5.96736856e-02 2.52002440e-02 1.54443616e-02
      7.18042115e-03 5.24515547e-02 6.47178143e-02 2.52054274e-01
      2.47793943e-01 2.84153581e-01 1.97644487e-01 4.17859033e-02
      1.58373322e-02 5.45060029e-03 6.13013357e-02 9.54995453e-02
      1.59072310e-01 8.74183849e-02 1.93081647e-01 2.83569485e-01
      2.00004503e-01 2.18676645e-02 2.87812506e-03 2.14672294e-02
      2.21672710e-02 2.05017194e-01 1.64048985e-01 2.83569485e-01
      2.37951994e-01 1.52596727e-01 2.47915927e-02 3.81757505e-03
      4.46951622e-03 6.61447132e-03 3.78142036e-02 6.31394237e-02
      2.29101434e-01 2.83569485e-01 2.83569485e-01 1.29334163e-02
      7.80242408e-05 1.37012685e-03 2.05028020e-02 2.35861748e-01
      2.83569485e-01 2.83569485e-01 2.83569485e-01 2.13988468e-01
      1.87476650e-02 1.23573830e-02 5.12060374e-02 8.45141187e-02
      1.12299487e-01 5.20150661e-02 9.78954807e-02 2.18132213e-01
      1.59333840e-01 5.36891446e-03 8.59624299e-04 3.65487598e-02
      3.12153786e-01 3.12153786e-01 3.12153786e-01 3.12153786e-01
      1.70357868e-01 5.84432967e-02 1.20526394e-02 1.01214953e-01
      3.12153786e-01 2.21020505e-01 1.01388335e-01 1.05429860e-02
      1.22686680e-02 1.06155407e-02 1.29049327e-02 5.89476200e-03
      4.68244702e-02 3.12153786e-01 3.12153786e-01 3.12153786e-01
      5.23217693e-02 1.81948412e-02 2.82228342e-03 7.47986231e-03
      2.45196801e-02 1.41483158e-01 3.13715190e-01 1.87256798e-01
      6.20148703e-02 1.78820770e-02 1.20152412e-02 2.36968067e-03
      1.18736550e-02 5.26244566e-03 8.36528987e-02 3.13715190e-01
      3.13715190e-01 1.64745167e-01 2.63214633e-02 8.17960035e-03
      1.94471271e-04 5.25213778e-03 3.41732539e-02 5.68460189e-02
      2.61854142e-01 1.59428895e-01 2.75579393e-01 1.90916240e-01
      1.73550308e-01 4.38102745e-02 3.80557999e-02 5.44598699e-03
      3.91895212e-02 3.13715190e-01 3.13715190e-01 3.13715190e-01
      2.43302718e-01 7.86691457e-02 4.39952826e-03 5.76609001e-03
      8.38050544e-02 2.97329128e-02 5.02074696e-02 6.15506247e-02
      2.64718503e-01 1.13811791e-01 1.79846495e-01 1.93320200e-01
      1.15665101e-01 5.62021099e-02 3.75594348e-02 9.53812227e-02
      2.84173399e-01 2.84173399e-01 1.26048580e-01 3.95359024e-02
      1.27266403e-02 2.80841887e-02 2.84173399e-01 9.41295326e-02
      6.40700683e-02 5.65379746e-02 1.15067020e-01 9.45653394e-03
      9.64653715e-02 2.84173399e-01 2.84173399e-01 2.84173399e-01
      1.79279268e-01 1.71611503e-01 2.69753605e-01 2.84173399e-01
      1.06442338e-02 8.54576193e-03 3.08902338e-02 2.12536559e-01</_>
    <_>
      2.16828547e-02 1.27926379e-01 2.93228358e-01 2.93228358e-01
      1.99575558e-01 1.81169938e-02 1.23498887e-02 2.96890712e-03
      6.61996519e-03 7.16705946e-03 4.94798571e-02 1.53445944e-01
      2.79900938e-01 2.93228358e-01 2.72124112e-01 2.78900247e-02
      4.39104065e-03 1.05659710e-02 2.05090810e-02 4.94090952e-02
      2.93228358e-01 2.93228358e-01 2.78495669e-01 2.41415519e-02
      1.36856586e-02 4.84718243e-03 1.01565020e-02 7.66704464e-03
      3.77436392e-02 2.04467177e-01 2.82627910e-01 2.93228358e-01
      1.96564451e-01 3.53763551e-02 1.38180507e-02 7.50264991e-03
      7.06609860e-02 3.30848955e-02 2.12060466e-01 2.62828380e-01
      2.62828380e-01 8.27117413e-02 1.53372288e-01 1.29653171e-01
      5.04907779e-02 1.21127963e-02 2.26341952e-02 1.18905522e-01
      1.71480209e-01 2.62828380e-01 1.83918387e-01 2.30945885e-01
      2.62828380e-01 5.65827042e-02 7.23085776e-02 1.77707132e-02
      5.97629212e-02 9.09570977e-02 2.62828380e-01 9.24316645e-02
      2.62828380e-01 2.62828380e-01 9.32075158e-02 1.03893643e-02
      9.18148668e-04 1.17312577e-02 2.73456778e-02 1.59910753e-01
      2.62828380e-01 2.62828380e-01 2.62828380e-01 1.00261793e-01
      2.07503084e-02 2.29477864e-02 5.29366918e-02 1.13590382e-01
      2.76114613e-01 1.09365143e-01 1.53157517e-01 1.25816464e-01
      4.40200493e-02 1.36964908e-02 3.03480886e-02 1.33658007e-01
      2.10275650e-01 3.04370195e-01 2.85084754e-01 3.04370195e-01
      2.06134126e-01 4.19898033e-02 2.97515355e-02 1.47791445e-01
      2.52744436e-01 1.27730519e-01 1.83594331e-01 1.28300950e-01
      5.81339449e-02 3.64538208e-02 2.51641348e-02 2.21565850e-02
      1.68050200e-01 3.04370195e-01 3.04370195e-01 3.04370195e-01
      7.91682005e-02 7.16258138e-02 1.27231283e-02 1.50155472e-02
      2.89634075e-02 1.24769799e-01 2.68707365e-01 9.81188565e-02
      1.09204128e-01 1.86131001e-01 8.40358436e-02 2.92226691e-02
      2.46426295e-02 1.16217788e-02 1.09178193e-01 3.12342197e-01
      3.12342197e-01 1.56325683e-01 5.33959605e-02 1.40865175e-02
      3.06132832e-03 7.80179724e-03 2.24942882e-02 3.65178064e-02
      1.16830468e-01 1.03384458e-01 1.66343167e-01 3.12342197e-01
      3.12342197e-01 6.32882342e-02 2.20720265e-02 1.41529655e-02
      2.79188138e-02 2.53247321e-01 3.12342197e-01 3.12342197e-01
      2.61972815e-01 1.56556219e-01 4.32796665e-02 1.10984705e-02
      6.74879923e-02 3.65121067e-02 4.60371710e-02 6.18213527e-02
      8.47531259e-02 2.05468193e-01 2.56576002e-01 2.33573616e-01
      5.85644357e-02 8.09487328e-02 7.60773644e-02 1.54718384e-01
      2.56576002e-01 2.56576002e-01 1.32767662e-01 1.26037657e-01
      1.16586402e-01 3.86007577e-02 1.97147742e-01 1.20643251e-01
      7.16257691e-02 3.50190923e-02 4.09354456e-02 3.40318084e-02
      2.47226179e-01 2.56576002e-01 2.23763838e-01 2.56576002e-01
      2.56576002e-01 2.31007352e-01 2.56576002e-01 1.74638480e-01
      1.98691506e-02 3.56316976e-02 1.77116558e-01 2.04516381e-01</_>
    <_>
      3.26723568e-02 7.91934282e-02 2.97093928e-01 2.97093928e-01
      2.97093928e-01 6.40229285e-02 1.70192588e-02 1.61203928e-02
      1.84385162e-02 1.29374806e-02 3.30516361e-02 8.94461945e-02
      1.71797067e-01 2.97093928e-01 2.97093928e-01 8.40958059e-02
      2.03093160e-02 8.16781074e-03 3.71375270e-02 1.94223493e-01
      2.97093928e-01 2.30339274e-01 1.69510901e-01 6.71171919e-02
      4.75040562e-02 2.88594570e-02 2.52793171e-02 2.12208424e-02
      9.47230309e-02 1.99001774e-01 1.28401294e-01 2.97093928e-01
      2.97093928e-01 1.77657858e-01 7.57733881e-02 1.78541038e-02
      4.00067903e-02 1.34081751e-01 1.49548948e-01 1.28868595e-01
      1.17498606e-01 1.58367008e-01 2.72879571e-01 2.49849811e-01
      6.42534196e-02 4.03260067e-02 8.45665038e-02 1.20672084e-01
      5.85393533e-02 2.45387465e-01 1.92730919e-01 2.27900192e-01
      2.23474383e-01 6.49945587e-02 1.95198879e-02 2.43634786e-02
      1.44409910e-02 2.01436616e-02 7.65467063e-02 2.00106621e-01
      2.72879571e-01 2.72879571e-01 1.02659084e-01 1.84605047e-02
      2.02836413e-02 1.54514918e-02 1.33144468e-01 2.72879571e-01
      2.72879571e-01 2.72879571e-01 2.72879571e-01 7.11470842e-02
      5.02550974e-03 1.23149576e-02 3.85080092e-02 1.13669500e-01
      1.60635695e-01 1.32208943e-01 1.69352427e-01 1.30661115e-01
      3.85387652e-02 2.55190604e-03 6.94053248e-04 2.93256491e-02
      3.31324667e-01 3.31324667e-01 2.62768179e-01 1.29367724e-01
      7.03796223e-02 1.25734285e-02 6.85036043e-03 6.83465376e-02
      3.31324667e-01 3.31324667e-01 1.48489639e-01 3.89430821e-02
      2.35479679e-02 3.13225784e-03 7.16900034e-03 3.40553327e-03
      1.50614521e-02 3.31324667e-01 3.31324667e-01 3.31324667e-01
      4.66467887e-02 8.18083528e-03 9.00227285e-04 3.54153244e-03
      6.77723065e-03 5.23537435e-02 3.33912462e-01 3.33912462e-01
      8.11167359e-02 4.29234514e-03 3.60617996e-03 2.31680390e-03
      4.31346102e-03 2.60889810e-03 1.67525224e-02 3.33912462e-01
      3.33912462e-01 7.52007738e-02 2.29376587e-04 0. 0. 2.58798501e-03
      2.06212737e-02 2.14099921e-02 2.02039763e-01 3.33912462e-01
      3.33912462e-01 3.94689031e-02 2.44175177e-02 2.25033741e-02
      1.98378116e-02 6.95583597e-03 2.68897787e-02 3.33912462e-01
      3.33912462e-01 2.09147781e-01 5.36928885e-03 0. 0. 3.34259612e-03
      8.28959495e-02 9.09934118e-02 2.07672060e-01 2.63202161e-01
      2.63202161e-01 3.77659053e-02 5.02974689e-02 1.11085646e-01
      1.04992688e-01 1.30565856e-02 4.59486917e-02 2.23264396e-01
      2.63202161e-01 2.61063159e-01 3.02534141e-02 1.54272793e-02
      6.06697099e-03 9.65592545e-03 2.63202161e-01 2.63202161e-01
      2.10752904e-01 2.29328364e-01 9.72629786e-02 1.22880768e-02
      3.78035195e-02 1.76266298e-01 2.63202161e-01 1.07062168e-01
      8.09443593e-02 1.20884284e-01 2.45186567e-01 1.55977026e-01
      9.70785841e-02 1.23593159e-01 1.87731177e-01 2.41700619e-01</_>
    <_>
      3.34714614e-02 7.78727382e-02 2.35374361e-01 1.57114848e-01
      2.98231870e-01 2.98231870e-01 1.22183755e-01 1.80333722e-02
      4.26611602e-02 3.90287163e-03 2.44056154e-03 1.41984336e-02
      2.37037744e-02 2.98231870e-01 2.98231870e-01 2.98231870e-01
      2.82322355e-02 5.42997243e-03 1.27162589e-02 1.19063938e-02
      1.01822533e-01 2.42998794e-01 2.56995440e-01 2.30070263e-01
      2.11884931e-01 6.20959066e-02 1.74064375e-02 6.01266185e-03
      3.69321741e-03 3.62996161e-02 4.12211195e-02 1.46823108e-01
      2.98231870e-01 2.98231870e-01 7.75395557e-02 8.90484080e-03
      1.82325598e-02 4.30036010e-03 2.70250794e-02 7.95880258e-02
      8.83792192e-02 1.08427308e-01 2.82802016e-01 2.82802016e-01
      8.41026530e-02 9.59279109e-03 2.04313756e-03 1.37075698e-02
      1.36346593e-02 8.56908783e-02 2.82802016e-01 2.82802016e-01
      2.28125647e-01 4.59112078e-02 4.39379960e-02 1.31868413e-02
      2.74958126e-02 5.37293442e-02 8.96683931e-02 1.23937435e-01
      2.82802016e-01 2.82802016e-01 1.75718978e-01 1.14272237e-02
      2.12562759e-03 1.08232405e-02 2.14960322e-01 2.82802016e-01
      2.82802016e-01 2.82802016e-01 2.65518069e-01 6.61630407e-02
      3.07039302e-02 3.01597826e-02 1.49716794e-01 2.29372397e-01
      1.42992407e-01 7.12595806e-02 7.10167289e-02 6.16214983e-02
      5.64106815e-02 7.16821989e-03 8.53844825e-03 1.48620784e-01
      3.38564754e-01 3.38564754e-01 2.55508929e-01 9.22978520e-02
      4.28092629e-02 1.72502026e-02 7.23583028e-02 1.19117618e-01
      3.38564754e-01 3.38564754e-01 5.56373522e-02 2.13554129e-03
      5.61267231e-03 3.46328528e-03 1.33073749e-02 1.31382868e-02
      8.73475894e-02 3.38564754e-01 3.38564754e-01 2.56368399e-01
      3.31234140e-03 2.98737141e-04 4.10345929e-05 2.04620487e-03
      7.48415440e-02 1.20817669e-01 3.01141351e-01 3.01141351e-01
      1.19307876e-01 6.32842183e-02 6.06983975e-02 1.47455735e-02
      1.15153128e-02 2.69384384e-02 1.44510388e-01 3.01141351e-01
      3.01141351e-01 1.44262418e-01 2.28232592e-02 8.07405729e-03
      3.24691122e-04 4.05186648e-03 4.08796035e-02 4.72504273e-02
      1.28052920e-01 3.01141351e-01 3.01141351e-01 1.95614338e-01
      2.19599649e-01 6.31279349e-02 4.81737778e-02 4.24448028e-02
      1.14977613e-01 2.24932626e-01 3.01141351e-01 3.01141351e-01
      7.70381466e-02 2.64082737e-02 2.42788997e-03 2.56221034e-02
      1.63792551e-01 1.22918285e-01 1.29744425e-01 2.61758596e-01
      2.61758596e-01 8.69027227e-02 1.37337252e-01 7.78437629e-02
      1.54820681e-01 5.98771051e-02 7.08383471e-02 1.08079091e-01
      2.61758596e-01 2.61758596e-01 6.68257400e-02 4.33660038e-02
      4.31012809e-02 6.70151636e-02 2.61758596e-01 2.61758596e-01
      1.71895131e-01 1.22776940e-01 1.16331704e-01 1.82326771e-02
      3.73599641e-02 7.23101348e-02 2.34942272e-01 2.61758596e-01
      2.02177256e-01 1.25990480e-01 1.63857862e-01 2.12313443e-01
      9.35665965e-02 1.08251035e-01 1.77741826e-01 2.61758596e-01</_>
    <_>
      3.52176018e-02 5.08863330e-02 3.02852124e-01 3.02852124e-01
      1.73891127e-01 3.67075466e-02 1.59163717e-02 8.13321397e-03
      1.08279688e-02 5.49858138e-02 4.59026061e-02 1.16222948e-01
      2.64610678e-01 3.02852124e-01 3.02852124e-01 8.87208283e-02
      2.22124308e-02 3.22162993e-02 2.08963007e-02 7.58918300e-02
      3.02852124e-01 3.02852124e-01 2.66755402e-01 6.96546733e-02
      3.77185605e-02 3.85264470e-03 1.25043129e-03 2.23764647e-02
      3.85467522e-02 9.99553129e-02 2.57673055e-01 3.02852124e-01
      2.25004703e-01 9.04808342e-02 8.87199026e-03 1.07211946e-02
      2.20645983e-02 4.73343693e-02 1.86537087e-01 2.96574801e-01
      2.96574801e-01 1.44779727e-01 8.16348866e-02 6.32618070e-02
      2.92073451e-02 3.46051939e-02 3.80154103e-02 3.62408459e-02
      1.11410923e-01 2.65282273e-01 2.17399970e-01 2.12339595e-01
      2.47379288e-01 1.42234519e-01 4.08135466e-02 5.33580296e-02
      7.27837533e-02 2.96574801e-01 2.96574801e-01 6.12059981e-02
      5.73071353e-02 1.13390841e-01 9.00565535e-02 5.56045473e-02
      3.92794982e-02 2.89494935e-02 2.21365765e-02 6.14434332e-02
      1.05229005e-01 2.83111244e-01 2.96574801e-01 2.96574801e-01
      2.38278471e-02 4.16254066e-02 7.42951632e-02 3.24312657e-01
      3.73886049e-01 7.03558102e-02 1.14320042e-02 4.51648533e-02
      4.55534048e-02 3.76124084e-02 5.03040105e-02 6.73639700e-02
      4.34966534e-02 1.33628994e-01 5.97079545e-02 1.93137497e-01
      3.02496880e-01 1.45874202e-01 1.77049730e-02 1.21017992e-02
      3.55646685e-02 1.23943985e-01 3.73886049e-01 3.73886049e-01
      4.37714532e-02 1.92603953e-02 1.73413008e-02 4.70107310e-02
      1.05042852e-01 3.73886049e-01 2.10262179e-01 2.03876436e-01
      6.47117123e-02 7.13252425e-02 5.35320975e-02 4.67934869e-02
      2.98213586e-02 3.18325683e-02 5.62312678e-02 1.93559080e-02
      3.07737887e-01 3.07737887e-01 1.46725327e-01 5.30673377e-02
      2.73979828e-02 5.17465062e-02 8.92916918e-02 3.07737887e-01
      2.62175649e-01 6.59673735e-02 5.06523810e-02 5.10121807e-02
      3.74011919e-02 4.01468575e-02 3.04974467e-02 5.17544262e-02
      6.35148510e-02 2.50906050e-02 2.89944738e-01 3.07737887e-01
      3.07737887e-01 9.88856480e-02 3.61495391e-02 4.56672423e-02
      9.33812857e-02 3.07737887e-01 2.66475648e-01 1.84452146e-01
      1.92083970e-01 2.04220116e-01 8.28426778e-02 3.91180031e-02
      1.13512790e-02 1.83167253e-02 1.71819460e-02 1.57882646e-02
      1.28300846e-01 2.87442297e-01 2.87442297e-01 7.64785707e-02
      2.21821070e-02 4.41291854e-02 6.48689866e-02 1.08054206e-01
      1.22475185e-01 1.41568795e-01 2.87442297e-01 2.87442297e-01
      1.27211839e-01 5.83452098e-02 3.56643386e-02 1.65931694e-02
      1.85800027e-02 1.96153149e-02 8.51155668e-02 2.87442297e-01
      2.87442297e-01 9.31322128e-02 7.46301785e-02 2.87442297e-01
      1.87155351e-01 1.41819686e-01 7.72237629e-02 5.27121425e-02
      1.70103788e-01 2.87442297e-01 2.01659337e-01 2.87442297e-01</_>
    <_>
      9.58001986e-03 3.71571481e-02 3.06708694e-01 3.06708694e-01
      6.27015084e-02 2.18872298e-02 6.92386320e-03 9.68043879e-03
      1.00865951e-02 1.53955501e-02 5.63899390e-02 3.06708694e-01
      2.47555971e-01 3.06708694e-01 1.65340707e-01 5.24860583e-02
      5.20584211e-02 2.06319429e-02 5.38344681e-03 2.75141224e-02
      3.06708694e-01 3.06708694e-01 1.69216946e-01 4.28297780e-02
      5.62232593e-03 6.34912308e-03 1.36197619e-02 9.36068222e-03
      3.26056406e-02 3.06708694e-01 3.06708694e-01 3.06708694e-01
      1.15103878e-01 1.52034080e-02 1.91828178e-03 1.00646047e-02
      1.06278136e-02 2.74275616e-02 2.64141440e-01 2.64141440e-01
      2.64141440e-01 1.78427830e-01 1.07209712e-01 3.71442400e-02
      3.06731462e-02 1.17230518e-02 3.36077362e-02 2.08453298e-01
      2.45129928e-01 2.64141440e-01 2.11016789e-01 1.52347505e-01
      9.46082473e-02 4.52770330e-02 2.48418339e-02 1.87004730e-02
      7.39599913e-02 2.25643098e-01 2.64141440e-01 1.87646776e-01
      2.64141440e-01 1.32334247e-01 4.36221920e-02 2.29657255e-02
      9.65177361e-03 2.51321215e-02 3.00147459e-02 1.01326719e-01
      2.50592500e-01 2.64141440e-01 2.64141440e-01 1.48109838e-01
      1.68203786e-02 1.46484645e-02 5.88183925e-02 1.78512320e-01
      3.08301896e-01 1.60082117e-01 1.81239352e-01 1.44674003e-01
      4.70407344e-02 1.80566683e-02 2.85781291e-03 2.42547095e-02
      1.08978957e-01 1.64478585e-01 2.32034758e-01 3.08301896e-01
      3.08301896e-01 1.19572297e-01 2.36145202e-02 3.99996862e-02
      1.15462802e-01 2.62364924e-01 3.08301896e-01 1.11118272e-01
      6.65359125e-02 4.85700704e-02 3.63017283e-02 2.56993677e-02
      6.30227849e-02 3.08301896e-01 3.08301896e-01 2.36391649e-01
      1.25430092e-01 1.27240151e-01 5.19550070e-02 3.57343033e-02
      6.67431056e-02 1.11051545e-01 2.20088765e-01 1.26376152e-01
      2.44018495e-01 9.06594321e-02 6.54752553e-02 4.74783182e-02
      6.23742156e-02 3.70194241e-02 1.40364468e-01 3.29210371e-01
      3.29210371e-01 5.90905249e-02 4.14751703e-03 9.00939200e-03
      9.44877136e-03 2.46212669e-02 9.23015624e-02 1.47727132e-01
      2.56835461e-01 9.20393392e-02 1.03438593e-01 2.43237227e-01
      2.28511021e-01 5.74626997e-02 7.55922571e-02 3.62426452e-02
      1.22223035e-01 3.29210371e-01 3.29210371e-01 3.29210371e-01
      1.16306677e-01 6.33006915e-02 1.13391289e-02 1.64794605e-02
      3.91961262e-02 5.13409115e-02 7.62238055e-02 7.41512850e-02
      9.70264450e-02 2.31376261e-01 2.90696949e-01 1.26735628e-01
      3.71490307e-02 2.57022530e-02 4.06992622e-02 1.32907018e-01
      2.90696949e-01 2.90696949e-01 2.12271348e-01 1.74834549e-01
      4.31597717e-02 1.65433586e-02 1.06172957e-01 1.03152007e-01
      7.49790519e-02 7.11222887e-02 9.07600895e-02 8.18228349e-02
      2.90696949e-01 2.54633963e-01 8.22521895e-02 1.42280966e-01
      2.21238405e-01 2.33788893e-01 2.90696949e-01 2.90696949e-01
      9.40896347e-02 1.57553837e-01 1.22853793e-01 6.85929283e-02</_>
    <_>
      2.84010242e-03 2.19468046e-02 3.16002458e-01 3.16002458e-01
      1.61648303e-01 1.08394055e-02 2.86085857e-03 4.66277031e-03
      3.21964966e-03 1.62159391e-02 4.31177393e-02 3.16002458e-01
      3.16002458e-01 2.27069691e-01 3.65379155e-02 7.80146336e-03
      7.07776612e-03 1.67039298e-02 2.10787426e-03 3.38733979e-02
      2.65073657e-01 3.16002458e-01 3.16002458e-01 4.39564958e-02
      3.28682959e-02 3.43257971e-02 9.93959885e-03 9.40054189e-03
      3.41342203e-02 1.70363396e-01 3.16002458e-01 1.70242652e-01
      1.58183143e-01 2.12046146e-01 1.00400843e-01 2.49593258e-02
      1.52837476e-02 4.09488380e-02 1.79142728e-01 3.55342776e-01
      3.55342776e-01 3.33472118e-02 4.18637693e-02 5.25529422e-02
      3.25281173e-02 3.44355367e-02 3.10305282e-02 8.86779651e-02
      1.49380729e-01 8.47544819e-02 1.33968323e-01 3.55342776e-01
      2.89640486e-01 7.90762752e-02 2.39451416e-02 3.27063538e-02
      9.92662013e-02 3.55342776e-01 3.55342776e-01 2.72871535e-02
      1.05070984e-02 2.41113510e-02 2.67979577e-02 6.30881712e-02
      3.91612537e-02 7.00124428e-02 6.68840334e-02 1.05127878e-01
      3.29854041e-02 2.67275959e-01 2.39741683e-01 8.49998593e-02
      1.58944428e-02 1.74613725e-02 3.27646732e-02 2.78356612e-01
      4.10414129e-01 1.31624967e-01 1.29768895e-02 5.64037496e-03
      1.06938407e-02 5.10182157e-02 7.32384175e-02 1.55815765e-01
      6.23564795e-02 1.77120686e-01 5.26457354e-02 7.97066018e-02
      5.23977540e-02 4.32874560e-02 4.24685478e-02 5.45387864e-02
      2.92114336e-02 9.62096602e-02 4.10414129e-01 3.79154563e-01
      5.95345274e-02 2.87060011e-02 2.93588899e-02 9.57748815e-02
      2.30065584e-01 4.10414129e-01 2.42494345e-01 1.33271024e-01
      7.08161145e-02 3.93218920e-02 2.34418940e-02 5.40719703e-02
      3.15725394e-02 5.95230348e-02 3.41216139e-02 7.00375512e-02
      2.80497998e-01 2.80497998e-01 9.59908664e-02 3.52472439e-02
      3.31939422e-02 5.72212227e-02 2.21778676e-01 2.80497998e-01
      2.80497998e-01 2.21890032e-01 9.51136425e-02 6.83973655e-02
      2.27826871e-02 3.81521657e-02 1.16666062e-02 1.77674573e-02
      1.65924076e-02 3.11750825e-02 2.80497998e-01 2.80497998e-01
      2.80497998e-01 7.71033615e-02 1.90930888e-02 1.89682636e-02
      6.59437552e-02 8.21628422e-02 2.80497998e-01 2.80497998e-01
      2.42126584e-01 2.49467462e-01 8.93170238e-02 3.48971076e-02
      2.11636145e-02 6.45325985e-03 1.09923463e-02 1.48397526e-02
      1.28325939e-01 2.42605165e-01 2.42605165e-01 2.34648332e-01
      5.60776889e-02 6.58125058e-02 6.09198734e-02 1.56744257e-01
      2.42605165e-01 2.42605165e-01 1.37222007e-01 2.42605165e-01
      2.41401732e-01 1.30929202e-01 1.08183689e-01 5.51894642e-02
      4.82297316e-02 1.50160333e-02 7.03927130e-02 6.06036000e-02
      2.14072987e-01 2.42605165e-01 1.55953228e-01 2.42605165e-01
      2.00911000e-01 2.33577266e-01 2.28957325e-01 1.06842786e-01
      1.34672457e-02 1.02368198e-01 2.42605165e-01 2.42605165e-01</_>
    <_>
      4.28451300e-02 8.65998864e-02 3.04390788e-01 3.04390788e-01
      2.24313006e-01 1.32055476e-01 2.09378880e-02 1.71199515e-02
      2.08418574e-02 4.08538170e-02 5.19210473e-02 1.23382680e-01
      3.08491345e-02 3.04390788e-01 3.04390788e-01 1.47260085e-01
      2.78760102e-02 3.11873332e-02 2.03026198e-02 2.61807833e-02
      2.58048594e-01 3.04390788e-01 3.04390788e-01 1.10053763e-01
      2.35450249e-02 7.93903042e-03 1.13555035e-02 1.72164347e-02
      1.12008983e-02 4.88831773e-02 1.42628044e-01 3.04390788e-01
      3.04390788e-01 1.70250848e-01 2.35445444e-02 1.60826668e-02
      3.70166004e-02 1.66982748e-02 1.79467693e-01 2.88479984e-01
      2.88479984e-01 1.47506908e-01 8.41971934e-02 5.40232025e-02
      3.74360345e-02 1.46594942e-02 2.58298102e-03 2.78949719e-02
      1.79236025e-01 2.88479984e-01 2.51524150e-01 1.55922577e-01
      1.73188508e-01 3.80822830e-02 5.69158681e-02 3.67865637e-02
      9.53774303e-02 1.92862287e-01 2.88479984e-01 1.74346253e-01
      1.23307586e-01 2.88479984e-01 1.04616210e-01 2.29892544e-02
      9.45125986e-03 7.20998226e-03 4.26992550e-02 1.62809134e-01
      1.96754158e-01 2.88479984e-01 2.88479984e-01 1.42330140e-01
      4.57855053e-02 4.34614643e-02 4.17305343e-02 1.64342195e-01
      2.95639485e-01 7.50866309e-02 6.33354113e-02 1.96381718e-01
      8.42174515e-02 3.55597772e-02 3.17841731e-02 3.29046920e-02
      4.85490747e-02 1.59033954e-01 2.66092509e-01 2.95639485e-01
      2.95639485e-01 1.13858804e-01 3.07742562e-02 4.91891988e-02
      7.73079321e-02 2.14300439e-01 2.95639485e-01 2.19696507e-01
      5.54770492e-02 2.21793950e-02 3.13053578e-02 3.82299982e-02
      1.94784492e-01 2.95639485e-01 2.95639485e-01 2.54007667e-01
      1.79930434e-01 1.50013641e-01 3.78875881e-02 3.86079624e-02
      1.65398568e-02 4.72506396e-02 1.24946080e-01 1.14340670e-01
      2.92839855e-01 3.01236391e-01 6.66004196e-02 1.48685463e-02
      2.14720387e-02 1.84528120e-02 1.49414390e-01 3.01236391e-01
      3.01236391e-01 7.72136375e-02 2.74468213e-02 1.38686197e-02
      5.22601092e-03 1.93185844e-02 2.20930837e-02 3.39941047e-02
      1.36054710e-01 1.01902343e-01 2.16241121e-01 3.01236391e-01
      2.60716826e-01 2.47075036e-02 2.84811910e-02 1.64254457e-02
      4.27311398e-02 3.01236391e-01 3.01236391e-01 3.01236391e-01
      2.37116173e-01 6.51745647e-02 9.53738671e-03 1.99103914e-02
      1.96515508e-02 7.30454177e-03 2.30498742e-02 2.68691499e-02
      1.09200157e-01 2.87755340e-01 2.87755340e-01 1.07016079e-01
      3.38001363e-02 4.28758413e-02 1.98045727e-02 5.74320890e-02
      1.72500700e-01 2.87755340e-01 2.73481607e-01 1.54620901e-01
      7.46393502e-02 4.80869822e-02 5.31218685e-02 1.48012759e-02
      1.12890406e-02 1.53564308e-02 5.39965630e-02 1.70765296e-01
      2.87755340e-01 2.87755340e-01 1.60898775e-01 1.49721324e-01
      1.47224903e-01 1.28382966e-01 1.55793145e-01 2.87755340e-01
      8.98220763e-02 1.67506859e-01 2.87755340e-01 2.58999169e-01</_>
    <_>
      9.32640024e-03 5.96840307e-02 3.19016993e-01 3.19016993e-01
      4.25518751e-02 7.57571263e-03 5.47804171e-03 2.77000014e-03
      5.02741896e-03 5.19487597e-02 1.95590258e-01 3.19016993e-01
      3.19016993e-01 9.75335017e-02 3.36506739e-02 1.43597489e-02
      1.81199200e-02 3.24942321e-02 1.21202404e-02 5.30772544e-02
      3.19016993e-01 3.19016993e-01 1.49417728e-01 4.78980020e-02
      3.98943014e-02 2.41179876e-02 8.73041619e-03 2.63422895e-02
      7.00994506e-02 3.19016993e-01 3.19016993e-01 2.23445371e-01
      1.77396148e-01 7.43118897e-02 3.31212245e-02 2.02495158e-02
      3.96846943e-02 5.78526780e-02 2.90685982e-01 2.90685982e-01
      2.90685982e-01 9.53405276e-02 9.23652425e-02 5.83617724e-02
      5.65032735e-02 3.19708250e-02 3.64099778e-02 1.09164454e-01
      9.60826501e-02 2.04253271e-01 2.90685982e-01 2.88188845e-01
      2.21806586e-01 5.39432727e-02 5.31653836e-02 1.36450669e-02
      6.35542274e-02 2.90685982e-01 2.90685982e-01 7.88366124e-02
      9.65743810e-02 6.89134449e-02 9.28702578e-02 5.44978827e-02
      6.57625310e-03 1.78839508e-02 3.84074450e-02 7.86821321e-02
      1.51402414e-01 2.90685982e-01 2.90685982e-01 1.47311240e-01
      2.50046831e-02 9.62200016e-03 6.46487400e-02 3.67876321e-01
      3.67876321e-01 4.12742347e-02 6.29436672e-02 3.58512104e-02
      3.83126512e-02 4.91042286e-02 5.10056913e-02 1.19750522e-01
      1.01995520e-01 1.41955912e-01 6.04866110e-02 2.37851933e-01
      2.10078433e-01 1.16746560e-01 3.96524072e-02 1.22330330e-01
      8.08143839e-02 2.51030862e-01 3.67876321e-01 1.25889555e-01
      6.71990961e-02 3.70171294e-02 3.27935256e-02 7.10012317e-02
      3.67876321e-01 3.67876321e-01 8.39152485e-02 1.02048256e-01
      3.48388106e-02 4.95510437e-02 2.00069156e-02 5.46003431e-02
      6.40301555e-02 1.90153316e-01 1.12071104e-01 8.31372440e-02
      2.90373713e-01 2.01421261e-01 1.38614699e-01 1.01707220e-01
      5.83362952e-02 6.32282048e-02 2.90373713e-01 2.90373713e-01
      8.21178108e-02 1.45388052e-01 4.68257442e-02 1.82241816e-02
      2.27110647e-02 3.91118191e-02 4.86484356e-02 9.14313868e-02
      7.96411484e-02 1.17737353e-02 1.99978232e-01 2.90373713e-01
      2.90373713e-01 1.61141217e-01 4.93726507e-02 3.24532092e-02
      2.20254585e-01 2.61287421e-01 1.40858993e-01 2.90373713e-01
      2.90373713e-01 1.07121080e-01 4.19334322e-02 2.55941655e-02
      3.07253022e-02 1.10867536e-02 1.92781482e-02 9.32693016e-03
      8.56401920e-02 2.53977746e-01 2.53977746e-01 1.62481248e-01
      8.59560817e-02 8.62834454e-02 6.24533296e-02 7.47625381e-02
      2.37902120e-01 2.53977746e-01 2.53977746e-01 1.61879182e-01
      1.07797004e-01 1.26959667e-01 1.39240593e-01 9.51037779e-02
      7.72098079e-02 3.87688018e-02 1.31368756e-01 1.72370136e-01
      2.23310858e-01 1.69959679e-01 2.12273821e-01 2.53977746e-01
      2.53977746e-01 1.56681255e-01 2.49885961e-01 2.08144531e-01
      6.78067356e-02 7.61436373e-02 1.68559775e-01 2.53977746e-01</_>
    <_>
      6.70148581e-02 1.61356598e-01 1.93787560e-01 3.74431796e-02
      1.06661528e-01 3.17020535e-01 3.17020535e-01 4.31739762e-02
      5.47549799e-02 1.22860707e-02 9.51132365e-03 4.21733595e-03
      8.17006268e-03 1.39920488e-01 3.17020535e-01 3.17020535e-01
      5.71353026e-02 9.60234180e-03 9.41557959e-02 1.64572716e-01
      1.17114060e-01 1.00384556e-01 2.00812414e-01 2.83828288e-01
      1.91420183e-01 1.31159592e-02 1.12201041e-02 3.25074270e-02
      4.35810275e-02 5.66557534e-02 7.13476315e-02 2.34693274e-01
      3.17020535e-01 3.17020535e-01 2.90061198e-02 9.69499536e-03
      3.85841988e-02 6.18178882e-02 6.28891513e-02 6.15180992e-02
      1.84442356e-01 1.28931090e-01 3.01164180e-01 2.30679870e-01
      2.59846654e-02 2.35399976e-02 2.35375538e-02 4.83145975e-02
      5.47440350e-02 2.44990870e-01 3.08499753e-01 2.39769474e-01
      1.54908270e-01 2.07766276e-02 2.74225380e-02 1.66041451e-03
      3.39745404e-03 4.73730639e-03 5.22412881e-02 9.87654328e-02
      3.08499753e-01 3.08499753e-01 1.45328149e-01 1.26405694e-02
      3.83323641e-04 2.92791333e-03 4.97340085e-03 1.74164534e-01
      3.08499753e-01 3.08499753e-01 3.08499753e-01 6.56332076e-02
      2.34232843e-02 5.50024258e-03 1.73601396e-02 2.95681749e-02
      1.15033031e-01 9.03812945e-02 1.75207138e-01 3.03226799e-01
      9.75465775e-02 5.51244663e-03 7.09156389e-04 1.34041989e-02
      1.16143294e-01 3.03226799e-01 3.03226799e-01 3.03226799e-01
      2.74139911e-01 3.54191177e-02 3.27941813e-02 7.82057270e-02
      2.88015783e-01 1.52693897e-01 1.49222568e-01 4.16674875e-02
      3.93320955e-02 4.53559533e-02 2.34958343e-02 6.15765993e-03
      6.08639456e-02 3.03226799e-01 3.03226799e-01 3.03226799e-01
      2.29397908e-01 4.08684462e-02 1.29136378e-02 6.80643879e-03
      4.67428714e-02 1.40747681e-01 3.27908516e-01 1.71817571e-01
      2.97270063e-02 1.22005597e-03 3.86025617e-03 7.25974748e-03
      1.85277611e-02 5.61879855e-03 1.00545891e-01 3.27908516e-01
      3.27908516e-01 1.31529972e-01 5.29524405e-03 0. 0. 4.72160708e-03
      3.90169173e-02 1.13336317e-01 3.27908516e-01 2.96921134e-01
      2.23446667e-01 6.51015863e-02 4.12614308e-02 1.89080127e-02
      1.93333477e-02 3.86334956e-03 4.53433990e-02 3.27908516e-01
      3.27908516e-01 3.27908516e-01 5.02090119e-02 3.66286724e-03
      1.36198592e-03 3.85462609e-03 3.38357091e-02 2.96816118e-02
      1.35874003e-01 2.22139806e-01 2.67499298e-01 1.84779003e-01
      1.30588815e-01 1.56275362e-01 8.25542957e-02 1.01711443e-02
      2.25246865e-02 1.90369889e-01 2.67499298e-01 2.67499298e-01
      1.12436987e-01 7.44714215e-03 9.81218740e-03 1.74706336e-02
      2.01326951e-01 1.09865129e-01 1.47172600e-01 1.56482145e-01
      1.61614522e-01 1.28302291e-01 1.27712756e-01 2.67499298e-01
      2.67499298e-01 1.43347234e-01 1.95724636e-01 2.67499298e-01
      2.67499298e-01 2.03862995e-01 7.37380385e-02 7.39744958e-03
      4.89607751e-02 1.68139353e-01</_>
    <_>
      2.28692740e-02 5.82400635e-02 3.03669155e-01 3.03669155e-01
      1.66378990e-01 3.09330411e-02 1.21240094e-02 1.16491234e-02
      1.90932415e-02 3.75179499e-02 7.89655745e-02 3.02068502e-01
      3.03669155e-01 2.38255978e-01 1.08876191e-01 2.54092645e-02
      2.47556958e-02 3.50035504e-02 1.96860339e-02 3.33811156e-02
      3.03669155e-01 3.03669155e-01 1.99971616e-01 7.40661323e-02
      5.55026680e-02 5.78059219e-02 5.13381958e-02 2.37774793e-02
      3.48308645e-02 1.55155048e-01 2.56578177e-01 1.73757449e-01
      1.94887683e-01 2.46423393e-01 2.29837567e-01 5.70707805e-02
      5.28447889e-02 3.09976786e-02 3.00485134e-01 3.00485134e-01
      2.85443813e-01 3.36707011e-02 6.21465743e-02 8.53632763e-02
      9.75820273e-02 7.03984275e-02 1.93813331e-02 8.60068426e-02
      8.52518976e-02 6.31225035e-02 1.39119923e-01 3.00485134e-01
      3.00485134e-01 1.46083981e-01 5.22934347e-02 3.32369171e-02
      1.74198061e-01 3.00485134e-01 3.00485134e-01 2.87513696e-02
      2.51205731e-02 4.35959212e-02 5.80743030e-02 8.10639560e-02
      4.29134332e-02 6.69907331e-02 1.09055772e-01 1.25117868e-01
      1.76258653e-01 2.60524333e-01 2.99635440e-01 1.15982734e-01
      2.43496485e-02 3.21050733e-02 4.64039557e-02 3.17290425e-01
      3.36205691e-01 4.10012044e-02 2.62461919e-02 3.03943884e-02
      1.52198439e-02 7.12277889e-02 1.07179396e-01 2.65046895e-01
      2.02410549e-01 1.51973724e-01 1.16023846e-01 6.40185848e-02
      5.95489964e-02 3.87385711e-02 9.99174938e-02 1.52068317e-01
      1.13782644e-01 1.70166031e-01 3.36205691e-01 2.56344646e-01
      7.81930462e-02 9.19401124e-02 2.66899467e-02 1.51297912e-01
      3.36205691e-01 3.36205691e-01 2.79204428e-01 5.06587811e-02
      8.68585333e-03 2.16548033e-02 3.99144217e-02 3.86203565e-02
      6.47332370e-02 9.19497460e-02 1.09769776e-01 8.85293186e-02
      1.96265936e-01 3.07344079e-01 1.77403867e-01 8.76660496e-02
      2.40061395e-02 6.48630634e-02 1.92322180e-01 3.07344079e-01
      3.07344079e-01 1.60870507e-01 4.38525751e-02 2.03180294e-02
      1.61480475e-02 2.02450249e-02 3.17211337e-02 2.04061773e-02
      5.45527637e-02 7.40104467e-02 1.65306449e-01 3.07344079e-01
      3.07344079e-01 8.42974186e-02 4.17731777e-02 3.69675085e-02
      3.86372991e-02 1.90504655e-01 3.07344079e-01 3.07344079e-01
      2.34274223e-01 1.07136331e-01 4.00153510e-02 4.08722125e-02
      8.44511688e-02 3.38167325e-02 3.72130238e-02 1.43305631e-02
      7.29173496e-02 2.57208437e-01 2.57208437e-01 1.70160562e-01
      1.39369562e-01 1.68987677e-01 1.31037667e-01 2.31099561e-01
      2.57208437e-01 2.57208437e-01 1.17887802e-01 1.25886187e-01
      1.05292179e-01 1.46356165e-01 2.06517443e-01 1.12820037e-01
      6.76823333e-02 8.78424104e-03 4.79900800e-02 1.02150708e-01
      2.08526462e-01 1.91498294e-01 2.57208437e-01 2.57208437e-01
      2.57208437e-01 2.22261429e-01 1.20848708e-01 9.24681574e-02
      5.35162259e-03 4.44518588e-02 1.25477910e-01 2.57208437e-01</_>
    <_>
      1.70386191e-02 6.80417418e-02 3.09944183e-01 3.09944183e-01
      6.42866269e-02 1.00497296e-02 1.04405470e-02 5.23029966e-03
      1.04338415e-02 5.37160635e-02 1.50804147e-01 3.09944183e-01
      3.09944183e-01 3.09944183e-01 1.23384185e-01 2.89602615e-02
      3.11194081e-02 2.28093825e-02 3.75499167e-02 7.06985295e-02
      3.09944183e-01 3.09944183e-01 1.38030320e-01 3.69962417e-02
      2.52810977e-02 2.48360857e-02 2.84214169e-02 2.49568932e-02
      7.93561041e-02 2.89679885e-01 3.09944183e-01 2.18978554e-01
      6.96202442e-02 4.13351431e-02 2.91427504e-02 2.67999526e-02
      1.02842622e-01 9.58264470e-02 2.65486270e-01 2.89079428e-01
      2.30596915e-01 4.75995615e-02 9.04898345e-02 1.62541494e-01
      9.17970315e-02 2.53731124e-02 3.89677174e-02 1.21311538e-01
      1.69960186e-01 1.65869683e-01 1.27545625e-01 2.89079428e-01
      2.89079428e-01 4.81552370e-02 1.00476012e-01 1.34027287e-01
      7.71610066e-02 2.89079428e-01 2.89079428e-01 1.06907832e-02
      8.41286927e-02 1.86767921e-01 1.22882277e-01 5.11234961e-02
      4.83966842e-02 2.45806184e-02 1.27594145e-02 8.31171349e-02
      1.24527939e-01 2.89079428e-01 2.89079428e-01 1.10612370e-01
      5.20367138e-02 1.02684028e-01 8.45156908e-02 3.00107330e-01
      3.00107330e-01 5.77578954e-02 5.90741858e-02 5.90641126e-02
      6.27612770e-02 4.91726883e-02 4.94787917e-02 5.84218949e-02
      1.87063962e-01 2.77057827e-01 1.15971394e-01 3.00107330e-01
      2.68790811e-01 8.17067474e-02 4.36232872e-02 7.03167245e-02
      1.22950815e-01 1.88536555e-01 3.00107330e-01 2.03707844e-01
      7.22413510e-02 2.13885400e-02 4.27660011e-02 4.92663868e-02
      7.88357258e-02 3.00107330e-01 3.00107330e-01 2.81744838e-01
      6.13978580e-02 9.22300741e-02 2.30364278e-02 4.70958948e-02
      5.68734407e-02 1.08323649e-01 1.71366930e-01 7.04757720e-02
      1.83281332e-01 2.08292514e-01 6.97004274e-02 5.51963151e-02
      3.41805257e-02 4.78230529e-02 1.29284889e-01 3.20754260e-01
      3.20754260e-01 4.41021472e-02 1.63024534e-02 1.59091763e-02
      1.20092183e-02 2.41270028e-02 6.65077493e-02 1.02102645e-01
      1.83757231e-01 1.38447344e-01 1.26107126e-01 3.20754260e-01
      3.15842062e-01 1.55354023e-01 3.82980369e-02 4.31975462e-02
      1.05276406e-01 3.20754260e-01 3.20754260e-01 2.99332619e-01
      1.03900976e-01 4.03653868e-02 2.56912187e-02 1.25050806e-02
      5.00817187e-02 3.75688821e-02 4.94627021e-02 8.90676379e-02
      1.47301748e-01 2.51553953e-01 2.51553953e-01 1.65554270e-01
      8.05929452e-02 5.73366731e-02 5.77351525e-02 1.45584211e-01
      2.51553953e-01 2.51553953e-01 1.88392907e-01 7.62614533e-02
      4.86243293e-02 5.75860702e-02 1.83626086e-01 5.94169758e-02
      3.20525207e-02 3.94097827e-02 6.62985891e-02 1.75068364e-01
      2.51553953e-01 2.51553953e-01 2.51553953e-01 2.51553953e-01
      1.90430313e-01 1.94490150e-01 2.51553953e-01 2.29351342e-01
      8.74151140e-02 5.41203916e-02 9.41039473e-02 2.49550432e-01</_>
    <_>
      2.32101437e-02 8.28504562e-02 3.10738146e-01 3.10738146e-01
      2.71513879e-01 3.40787023e-02 1.57117490e-02 5.74386027e-03
      1.85571462e-02 1.91007350e-02 4.50716726e-02 1.17894500e-01
      1.79113731e-01 3.10738146e-01 3.10738146e-01 3.85921970e-02
      2.35112943e-03 1.57000311e-02 1.36851287e-02 6.83054328e-02
      3.00339490e-01 3.10738146e-01 2.04631791e-01 6.08010590e-02
      3.44045758e-02 1.55099863e-02 2.80146729e-02 5.24835801e-03
      1.60525795e-02 1.04038946e-01 1.81661800e-01 3.10738146e-01
      3.10738146e-01 3.09502147e-02 1.99364196e-03 7.21494295e-03
      2.16039531e-02 4.34312299e-02 1.26747787e-01 2.05277100e-01
      2.03442320e-01 2.28700176e-01 1.95564419e-01 8.98908451e-02
      4.33944911e-02 4.08517476e-03 3.82528990e-03 6.59331828e-02
      1.28231734e-01 2.81765342e-01 2.81765342e-01 1.33606493e-01
      5.50722480e-02 2.68945452e-02 5.10884151e-02 1.16395662e-02
      5.51562272e-02 6.90756291e-02 1.09462097e-01 2.36964986e-01
      2.81765342e-01 2.81765342e-01 1.44350797e-01 4.52547055e-03 0.
      6.53389981e-03 9.06736851e-02 2.81765342e-01 2.81765342e-01
      2.81765342e-01 2.81765342e-01 9.66852903e-02 3.45546864e-02
      4.00122628e-03 3.38717438e-02 1.28624678e-01 1.27768323e-01
      7.07305670e-02 1.29960448e-01 2.24268347e-01 9.17521864e-02
      5.44139463e-03 0. 8.17721803e-03 3.57850522e-01 3.57850522e-01
      2.38713756e-01 2.01452568e-01 2.09271401e-01 4.09548432e-02
      1.36562064e-02 1.51360454e-02 1.37065813e-01 3.57850522e-01
      2.05441430e-01 2.41540689e-02 2.14485489e-02 1.84120126e-02
      1.82473678e-02 7.32709514e-03 2.27251416e-03 1.75525799e-01
      3.57850522e-01 3.57850522e-01 4.94989008e-02 2.07287949e-02
      1.45268235e-02 9.33648366e-03 2.12961473e-02 5.57956845e-02
      2.91429847e-01 3.60364199e-01 6.20637611e-02 3.98665667e-04
      8.96732695e-03 8.59364681e-03 1.12448167e-02 4.73517505e-03
      7.38329533e-03 3.13064307e-01 3.60364199e-01 9.18446109e-02 0.
      2.81687564e-04 9.41352846e-05 3.40080308e-03 2.72346716e-02
      7.26585984e-02 3.36693436e-01 3.60364199e-01 1.99602917e-01
      2.28106137e-02 2.25451384e-02 2.16189232e-02 1.85271967e-02
      3.36231804e-03 7.99629651e-03 2.78228849e-01 3.60364199e-01
      1.98004842e-01 4.77542263e-03 6.07833383e-04 9.85201332e-05
      2.55713356e-03 1.50660910e-02 2.07500365e-02 1.08340949e-01
      2.86033303e-01 2.86033303e-01 1.30969942e-01 1.00980192e-01
      3.41235287e-02 1.44193722e-02 2.76762550e-03 2.34164298e-03
      1.09348066e-01 2.86033303e-01 2.86033303e-01 2.16359198e-02
      2.56797834e-03 8.39961576e-04 2.57871021e-03 1.16207011e-01
      1.36027381e-01 2.86033303e-01 2.86033303e-01 2.86033303e-01
      1.51702002e-01 2.05070481e-01 1.44466877e-01 1.28924459e-01
      2.43515912e-02 7.55406022e-02 2.86033303e-01 2.86033303e-01
      2.56616652e-01 1.98339149e-02 2.99723377e-03 4.30983724e-03
      9.83125530e-03</_>
    <_>
      6.54816031e-02 1.06045581e-01 3.23866069e-01 2.32618332e-01
      4.68674190e-02 1.82965621e-01 1.55901864e-01 5.02614975e-02
      2.74256058e-02 3.85302678e-02 4.20142114e-02 6.31630272e-02
      7.36692967e-03 1.89527944e-01 3.23866069e-01 3.23866069e-01
      5.38521931e-02 2.07748823e-02 5.02450243e-02 7.07256645e-02
      3.23866069e-01 2.27975979e-01 1.58897638e-01 1.44129083e-01
      1.59543186e-01 2.04657931e-02 2.66919695e-02 2.54223738e-02
      1.42796040e-02 2.46428680e-02 6.44409144e-03 2.30082139e-01
      3.23866069e-01 3.23866069e-01 3.34307887e-02 1.78787913e-02
      1.09000839e-01 7.11632669e-02 1.23842046e-01 1.27419978e-01
      2.29965940e-01 8.18519369e-02 1.06408969e-01 7.42554888e-02
      8.89401734e-02 1.63803175e-02 4.36723419e-03 4.55061067e-03
      2.04964401e-03 2.83597201e-01 2.83597201e-01 2.62400031e-01
      8.97692069e-02 3.11641097e-02 2.83597201e-01 7.23453239e-02
      3.09616532e-02 1.52186444e-02 5.92931025e-02 6.93747103e-02
      2.43475005e-01 2.64254898e-01 2.68334121e-01 2.87988186e-02
      1.31166272e-03 8.24361705e-05 4.24595270e-03 2.83597201e-01
      2.83597201e-01 2.83597201e-01 2.83597201e-01 8.00859332e-02
      1.59788072e-01 4.19797674e-02 2.49061417e-02 6.36566058e-02
      5.60433902e-02 6.79628477e-02 1.62818640e-01 1.24411009e-01
      1.16660334e-01 1.79082751e-02 1.75051484e-03 1.59326158e-02
      2.94059157e-01 3.25509518e-01 3.25509518e-01 2.96374053e-01
      1.23624615e-01 3.44313271e-02 5.00444546e-02 1.28663823e-01
      2.72159934e-01 2.42067412e-01 7.15092123e-02 5.69423698e-02
      6.40312880e-02 2.91562900e-02 2.62056403e-02 9.08977352e-03
      4.84012328e-02 3.25509518e-01 3.25509518e-01 3.25509518e-01
      9.91381407e-02 4.66030948e-02 8.28366913e-03 8.53771064e-03
      3.48875001e-02 1.83231711e-01 3.24577779e-01 1.92083627e-01
      3.74079160e-02 1.60292406e-02 2.70568840e-02 1.99858006e-02
      2.67608240e-02 5.89792710e-03 8.74757469e-02 3.24577779e-01
      3.24577779e-01 9.37304422e-02 0. 0. 6.89518856e-05 4.73940093e-03
      2.68250890e-02 9.57036763e-02 2.89878339e-01 2.51090854e-01
      3.20908308e-01 8.63237306e-02 4.33079042e-02 2.72177327e-02
      2.81201228e-02 4.36208677e-03 4.72971052e-02 3.24577779e-01
      3.24577779e-01 3.22163910e-01 3.75398099e-02 7.02490378e-03
      7.12807814e-04 4.12558299e-03 3.30830440e-02 2.79369708e-02
      8.53650719e-02 2.05005750e-01 2.73934007e-01 1.51489183e-01
      1.09247021e-01 7.37497360e-02 3.51369120e-02 8.59931856e-03
      1.47429705e-02 1.27875850e-01 2.73934007e-01 2.73934007e-01
      6.18822388e-02 1.18351998e-02 2.10527889e-03 4.91911313e-03
      2.73934007e-01 1.61502779e-01 2.34634757e-01 1.94798663e-01
      2.02672243e-01 6.89034984e-02 1.17507644e-01 2.39845484e-01
      2.73934007e-01 1.50476977e-01 1.71279266e-01 2.73934007e-01
      2.73934007e-01 2.61547387e-01 2.18632314e-02 3.83114046e-03
      3.10271233e-03 3.82744335e-02</_>
    <_>
      6.12325072e-02 1.61925390e-01 2.81069130e-01 2.81069130e-01
      1.69417098e-01 1.62822962e-01 7.44517222e-02 1.99042596e-02
      2.75678374e-02 4.32526805e-02 5.05042896e-02 7.39482194e-02
      9.93582830e-02 2.81069130e-01 2.81069130e-01 2.81069130e-01
      2.38604434e-02 2.79510543e-02 5.14920540e-02 8.38267505e-02
      1.91173166e-01 2.81069130e-01 2.75019497e-01 9.93242040e-02
      9.21325907e-02 3.14278007e-02 2.85423398e-02 2.42121182e-02
      2.76063643e-02 6.79153129e-02 2.81069130e-01 2.81069130e-01
      2.81069130e-01 1.56096667e-01 2.47556902e-02 1.55283930e-02
      4.55189720e-02 4.37306464e-02 1.06987327e-01 2.81682879e-01
      2.30288103e-01 1.30199790e-01 1.91776812e-01 5.89209571e-02
      4.82325815e-02 1.47511326e-02 1.13139106e-02 6.50235936e-02
      1.84241876e-01 2.81682879e-01 2.21335024e-01 2.24727765e-01
      1.23529099e-01 5.30690849e-02 2.02389345e-01 6.08242303e-02
      1.09799981e-01 1.91747665e-01 1.40657634e-01 9.83765349e-02
      2.24807143e-01 2.06907213e-01 2.47394368e-01 1.03800245e-01
      1.13835232e-02 1.29544809e-02 1.68722179e-02 6.17436767e-02
      1.53989315e-01 2.81682879e-01 2.81682879e-01 2.81682879e-01
      2.55356967e-01 8.52242261e-02 9.30793062e-02 2.30141804e-01
      2.80761600e-01 1.93300266e-02 5.69062233e-02 1.31199852e-01
      2.20354512e-01 1.70292318e-01 3.32557671e-02 2.56011114e-02
      2.68469658e-02 1.07295737e-01 5.16388901e-02 3.01736891e-01
      3.01736891e-01 3.01736891e-01 5.83027266e-02 3.07694916e-02
      4.94064353e-02 1.40203506e-01 3.01736891e-01 2.97086626e-01
      7.83416163e-03 8.95071961e-03 3.57513875e-02 6.47137687e-02
      2.58262008e-02 8.21838155e-02 1.57099485e-01 3.01736891e-01
      5.27763590e-02 1.78934321e-01 1.45916343e-01 7.26841688e-02
      4.54155803e-02 1.62889734e-02 3.69910561e-02 1.42291542e-02
      2.96195388e-01 2.96195388e-01 4.42732833e-02 1.79159753e-02
      3.88395377e-02 7.93252140e-02 5.10609299e-02 1.31991714e-01
      2.60519475e-01 2.96195388e-01 2.15221904e-02 2.38217134e-02
      1.07978722e-02 5.90385310e-02 1.14213094e-01 4.93822359e-02
      2.94339359e-02 3.12251737e-03 2.96195388e-01 2.96195388e-01
      2.96195388e-01 1.11606017e-01 1.00820363e-01 2.08328366e-01
      1.97493747e-01 2.96195388e-01 2.96195388e-01 2.06445366e-01
      2.16972660e-02 8.57265666e-02 5.39803095e-02 1.18049629e-01
      5.28268740e-02 2.50588059e-02 9.69295390e-03 1.90417911e-03
      2.94762105e-02 3.13607007e-01 3.13607007e-01 2.51642913e-01
      1.06063627e-01 1.02393471e-01 1.04546376e-01 1.65787876e-01
      2.11577073e-01 1.50959119e-01 1.37056317e-02 1.28374115e-01
      2.11313576e-01 1.26014367e-01 1.93579830e-02 5.70316706e-03
      2.15329533e-03 1.78037013e-03 1.09099001e-02 1.29592061e-01
      3.13607007e-01 3.13607007e-01 1.46521211e-01 1.26178443e-01
      1.12881094e-01 1.03469960e-01 1.61454558e-01 9.99525115e-02
      6.06046943e-03 1.41055807e-01 3.13607007e-01 3.13607007e-01</_>
    <_>
      1.80816036e-02 6.26729056e-02 2.95382082e-01 2.95382082e-01
      2.10023090e-01 2.51344174e-01 7.94867873e-02 2.23878156e-02
      1.60877630e-02 7.52233062e-03 1.46334507e-02 3.89691666e-02
      4.52168956e-02 2.95382082e-01 2.95382082e-01 2.13215485e-01
      1.14507321e-02 6.33159466e-03 2.21069865e-02 1.02336764e-01
      2.87582338e-01 2.77129501e-01 1.89981624e-01 1.77451611e-01
      6.76427335e-02 7.74825551e-03 2.00888794e-02 7.90175050e-03
      2.97885407e-02 6.52176738e-02 1.66303322e-01 2.95382082e-01
      2.95382082e-01 1.71642169e-01 1.67665235e-03 7.18072383e-03
      3.54665816e-02 1.44060612e-01 1.80783808e-01 1.84577346e-01
      1.64850593e-01 8.78510773e-02 1.24790214e-01 1.92401633e-01
      5.14475070e-02 7.73877697e-03 5.43481261e-02 9.03481543e-02
      1.91754192e-01 2.97990412e-01 2.97990412e-01 1.67569667e-01
      1.19500875e-01 2.89215036e-02 6.66637570e-02 7.57822990e-02
      7.14199990e-02 3.49534862e-02 5.30044213e-02 7.73908645e-02
      2.97990412e-01 2.97990412e-01 1.59012333e-01 4.39279480e-03
      1.77621432e-02 2.09065378e-02 4.08841521e-02 2.19892144e-01
      2.97990412e-01 2.97990412e-01 2.97990412e-01 6.33101836e-02
      3.46442200e-02 2.19159145e-02 4.83678691e-02 4.14481573e-02
      7.06206635e-02 7.82920048e-02 1.69868961e-01 3.22454572e-01
      7.66731352e-02 6.18470693e-03 6.52922899e-04 1.88679958e-04
      1.39494851e-01 3.22454572e-01 3.22454572e-01 3.22454572e-01
      2.68183351e-01 2.45417133e-02 1.68368202e-02 2.57575940e-02
      1.29896164e-01 2.58426189e-01 1.89172253e-01 6.13183640e-02
      4.60177101e-02 4.97662649e-02 1.75393391e-02 7.86764175e-03
      7.49889994e-03 2.28381604e-01 3.22454572e-01 3.22454572e-01
      2.08015651e-01 6.15671277e-02 2.90411897e-02 8.50330573e-03
      3.01051158e-02 6.63021579e-02 2.75448054e-01 3.13290924e-01
      7.61455372e-02 2.00198628e-02 1.38917305e-02 7.97908567e-03
      1.48939230e-02 4.44840780e-03 1.58315469e-02 3.13419431e-01
      3.13419431e-01 2.29747593e-01 4.21923166e-03 7.45581056e-04
      5.88869916e-05 3.15695023e-03 4.20487784e-02 8.53582993e-02
      2.92167038e-01 3.13419431e-01 1.65130720e-01 1.20885953e-01
      6.19235002e-02 1.29030226e-02 2.03104410e-02 4.93973633e-03
      1.44769065e-02 3.13419431e-01 3.13419431e-01 3.13419431e-01
      1.64732069e-01 1.72164142e-02 1.85785175e-04 3.80955171e-03
      2.49942187e-02 2.20107250e-02 6.83095306e-02 1.18604735e-01
      1.88565895e-01 2.27864325e-01 1.98273271e-01 8.40218663e-02
      2.97269095e-02 8.13106820e-03 6.65321248e-03 5.76381721e-02
      2.72153586e-01 2.72153586e-01 2.72153586e-01 4.52205166e-02
      7.96414725e-03 8.70155264e-03 1.96338460e-01 8.23553130e-02
      6.72554150e-02 8.73385221e-02 1.16109617e-01 1.15011416e-01
      2.72153586e-01 2.72153586e-01 2.72153586e-01 1.83472484e-01
      1.58164024e-01 2.50482887e-01 2.72153586e-01 2.72153586e-01
      1.37844458e-01 2.86423899e-02 4.67048511e-02 1.30121768e-01</_>
    <_>
      3.53136025e-02 8.92730802e-03 8.12979862e-02 2.22073346e-01
      3.33845913e-01 3.33845913e-01 5.87445796e-02 1.33811636e-02
      2.02275701e-02 3.23692220e-03 3.19427752e-04 0. 2.97773426e-04
      1.92549258e-01 3.33845913e-01 1.85441911e-01 1.09822592e-02
      2.76850350e-03 9.74308793e-03 1.55301830e-02 5.90739325e-02
      2.10659564e-01 3.33845913e-01 3.33845913e-01 2.52022203e-02
      2.06329554e-04 9.89602879e-03 2.65126536e-03 0. 3.69534036e-03
      2.61188541e-02 3.25097740e-01 3.33845913e-01 1.99210837e-01
      5.48052276e-03 2.88688880e-03 1.09790890e-02 2.44856030e-02
      7.20180124e-02 2.12821469e-01 2.96383768e-01 1.66756600e-01
      9.07469019e-02 7.79270157e-02 5.49623854e-02 4.43844311e-03 0.
      8.00709892e-03 5.20357341e-02 2.96383768e-01 2.96383768e-01
      1.48599833e-01 4.07553352e-02 1.59058757e-02 3.73165943e-02
      2.46817544e-02 2.99661271e-02 7.51832947e-02 8.99676159e-02
      1.88876897e-01 2.84214854e-01 2.96383768e-01 2.47557878e-01
      6.12479961e-03 7.33161214e-05 2.71978392e-03 1.75895635e-02
      2.96383768e-01 2.96383768e-01 2.96383768e-01 2.47628853e-01
      5.43460920e-02 3.06217056e-02 1.55987181e-02 1.44182751e-02
      2.86473408e-02 1.35669112e-01 2.74908334e-01 1.48743168e-01
      2.07122684e-01 1.35559052e-01 4.89862170e-03 3.75867472e-04
      3.61584971e-04 1.29357213e-02 3.39758128e-01 3.39758128e-01
      1.88346833e-01 1.28211275e-01 3.00353337e-02 1.94078200e-02
      1.61385275e-02 6.65387213e-02 2.08303913e-01 2.89311916e-01
      2.15578809e-01 3.97134908e-02 1.71093773e-02 2.35037692e-02
      5.28072193e-03 5.02232462e-03 7.15210512e-02 3.39758128e-01
      3.39758128e-01 3.39758128e-01 2.28646174e-02 6.07492542e-03
      7.02499039e-03 1.72957499e-02 4.78412472e-02 2.45860621e-01
      3.01973224e-01 1.44840464e-01 8.92051607e-02 2.37341113e-02
      8.99348222e-03 1.10524325e-02 3.84326256e-03 2.00230498e-02
      2.30730250e-01 3.01973224e-01 3.01973224e-01 4.19856720e-02
      1.05740083e-03 5.30803343e-04 2.38967407e-03 1.41709959e-02
      5.06946072e-02 3.01973224e-01 2.35100016e-01 1.83324024e-01
      2.39491969e-01 1.89158335e-01 4.83369119e-02 1.48652922e-02
      4.64533223e-03 2.05418076e-02 2.58487672e-01 3.01973224e-01
      3.01973224e-01 1.98976517e-01 8.64779726e-02 1.73434860e-03
      4.21501324e-03 1.62444655e-02 1.33081861e-02 6.85381889e-02
      5.11024892e-02 1.29214376e-01 2.52392501e-01 2.93659836e-01
      1.41608298e-01 1.90821849e-02 1.07386205e-02 1.18497610e-02
      6.04429580e-02 1.97040305e-01 2.93659836e-01 2.93659836e-01
      1.65528849e-01 2.94010602e-02 7.99570885e-03 6.65116534e-02
      4.20724899e-02 3.13786939e-02 2.16575842e-02 6.28076643e-02
      1.26954809e-01 2.93659836e-01 2.93659836e-01 1.89868689e-01
      1.12787843e-01 1.47548020e-01 1.96606994e-01 2.28768095e-01
      2.93659836e-01 1.95774302e-01 1.21815987e-01 1.76370084e-01
      1.62812173e-01</_>
    <_>
      1.95679404e-02 8.27689767e-02 3.14599127e-01 3.14599127e-01
      1.70593172e-01 1.40338674e-01 6.90666959e-02 2.25216113e-02
      2.34234966e-02 2.07473598e-02 5.10210842e-02 1.13664716e-01
      7.42235705e-02 3.14599127e-01 3.14599127e-01 1.75957948e-01
      2.82602627e-02 2.80894656e-02 3.75439711e-02 9.13878307e-02
      2.02477202e-01 3.14599127e-01 2.73188531e-01 8.94073844e-02
      3.53854634e-02 1.30486842e-02 2.63996180e-02 3.67277525e-02
      7.39834830e-02 6.70149177e-02 1.84878841e-01 3.14599127e-01
      3.14599127e-01 8.24518800e-02 7.90972169e-03 1.79600697e-02
      9.15837213e-02 1.70133516e-01 1.69426396e-01 2.52469778e-01
      2.52469778e-01 5.31123020e-02 7.10845143e-02 4.03268076e-02
      6.16318993e-02 9.44779366e-02 1.55108109e-01 1.15052916e-01
      1.71785340e-01 2.52469778e-01 2.52469778e-01 5.67109995e-02
      2.14236565e-02 3.92676517e-02 1.49136335e-01 1.46448001e-01
      1.52189299e-01 1.97889715e-01 1.41344503e-01 6.29802495e-02
      1.53828576e-01 2.52469778e-01 2.36987844e-01 8.29281583e-02
      4.72897701e-02 4.81690057e-02 1.81837957e-02 2.25824282e-01
      2.52469778e-01 2.52469778e-01 2.52469778e-01 2.33923525e-01
      1.09169148e-01 1.28257543e-01 9.56651047e-02 1.61254376e-01
      1.04705304e-01 1.95714664e-02 7.26611018e-02 2.81660289e-01
      2.20580757e-01 3.92384976e-02 1.37936613e-02 7.31601054e-03
      3.06738522e-02 2.09375054e-01 2.81660289e-01 2.81660289e-01
      2.81660289e-01 2.48959646e-01 4.04955558e-02 6.10636212e-02
      8.33489820e-02 2.02459931e-01 2.81660289e-01 6.50740117e-02
      2.86122561e-02 7.91097656e-02 6.42234981e-02 2.16895249e-02
      1.80165786e-02 9.67681110e-02 2.81660289e-01 2.81660289e-01
      2.81660289e-01 1.21390499e-01 1.60196736e-01 7.66664371e-02
      1.76484995e-02 2.05393471e-02 1.00446083e-01 1.74328700e-01
      2.42164686e-01 1.48558572e-01 3.84602435e-02 1.77784935e-02
      1.16021270e-02 1.16637964e-02 1.24516105e-02 2.75764823e-01
      3.51552963e-01 2.81627983e-01 3.49668488e-02 1.13016916e-02
      7.99789000e-03 9.07537900e-03 3.29018980e-02 3.43407691e-02
      1.08168535e-01 1.67107314e-01 2.00634941e-01 3.38015884e-01
      2.23904267e-01 5.86218350e-02 2.53334939e-02 1.53440181e-02
      2.07649358e-02 2.54557908e-01 3.51552963e-01 3.51552963e-01
      1.67764425e-01 1.65282004e-02 1.05439238e-02 1.05377967e-02
      2.84068547e-02 2.24257763e-02 3.39025557e-02 7.02787861e-02
      9.12685171e-02 1.68318719e-01 2.71123469e-01 2.04201713e-01
      4.45522256e-02 3.07083596e-02 4.05550487e-02 8.99324045e-02
      2.71123469e-01 2.71123469e-01 9.53813791e-02 4.38059047e-02
      6.94315434e-02 3.42991613e-02 1.27895489e-01 5.60126677e-02
      3.85977663e-02 3.61929759e-02 2.78957095e-02 4.05316874e-02
      2.71123469e-01 2.71123469e-01 2.71123469e-01 2.52870560e-01
      2.45651081e-01 2.33398706e-01 2.71123469e-01 2.27405667e-01
      8.23428109e-03 4.40657027e-02 1.91295445e-01 2.71123469e-01</_>
    <_>
      1.12815509e-02 5.08713052e-02 1.11089766e-01 3.22122842e-01
      3.04720342e-01 8.82971585e-02 2.90938336e-02 1.04262587e-02
      4.73683234e-03 2.00449266e-02 6.62246272e-02 8.75779986e-02
      2.32639894e-01 3.22122842e-01 3.22122842e-01 8.23679939e-02
      2.31243521e-02 1.49623724e-02 9.33453254e-03 1.29642459e-02
      3.08197830e-02 3.22122842e-01 3.22122842e-01 8.67532343e-02
      2.30963733e-02 3.69512313e-03 9.85134766e-03 1.73041169e-02
      2.00603381e-02 3.99241373e-02 2.51368582e-01 3.22122842e-01
      3.22122842e-01 6.63874075e-02 6.75023254e-03 1.79685950e-02
      2.43130494e-02 1.77620705e-02 5.96250147e-02 3.14088434e-01
      3.14088434e-01 4.84225862e-02 4.39564139e-02 2.65774727e-02
      3.03421505e-02 2.81132404e-02 3.32322828e-02 8.26363191e-02
      2.16262564e-01 3.14088434e-01 3.14088434e-01 9.15735364e-02
      4.14972939e-02 3.60986851e-02 7.81840384e-02 3.34604084e-02
      4.72478271e-02 3.14088434e-01 3.14088434e-01 3.26002724e-02
      5.59215173e-02 8.97724181e-02 9.41427499e-02 7.14626089e-02
      2.87979096e-02 3.77360731e-02 9.32324678e-02 1.35402650e-01
      2.18145341e-01 3.14088434e-01 3.14088434e-01 1.33526474e-01
      6.14214242e-02 2.98031177e-02 3.72337177e-02 3.36602420e-01
      3.36602420e-01 7.06621185e-02 1.71216168e-02 4.79367301e-02
      7.48764277e-02 6.98045343e-02 2.09372751e-02 2.46147942e-02
      8.79190415e-02 1.26954883e-01 1.48158059e-01 2.83797711e-01
      2.77777165e-01 1.41600177e-01 1.54075045e-02 7.56088598e-03
      2.32765786e-02 2.84003496e-01 3.36602420e-01 3.36602420e-01
      3.03090014e-03 4.86934604e-03 1.58970580e-02 2.67898496e-02
      8.33627209e-03 3.64854522e-02 2.58813471e-01 3.36602420e-01
      1.42949015e-01 7.75360838e-02 4.75121625e-02 4.28921245e-02
      5.97427133e-03 5.81469852e-03 1.10812010e-02 4.90727834e-02
      3.42665404e-01 3.42665404e-01 1.18064806e-02 4.84815333e-03
      6.79381518e-03 1.42708812e-02 1.45321414e-02 1.01864964e-01
      3.42665404e-01 2.63260275e-01 9.12440792e-02 1.31606227e-02
      5.47284307e-03 1.31944073e-02 1.27806943e-02 1.49579691e-02
      3.44072878e-02 2.71521676e-02 3.42665404e-01 3.42665404e-01
      1.44258484e-01 1.73621587e-02 1.57967713e-02 2.46221572e-02
      3.43944840e-02 2.39979684e-01 3.42665404e-01 1.75423145e-01
      2.72089601e-01 1.07334033e-01 2.10497547e-02 2.51080375e-02
      8.74462444e-03 6.11622399e-03 1.85312293e-02 1.68886892e-02
      2.58250713e-01 3.01423520e-01 3.01423520e-01 4.07062098e-02
      9.68129095e-03 1.64821111e-02 1.14435842e-02 8.83765668e-02
      1.55118003e-01 1.29188359e-01 3.01423520e-01 3.01423520e-01
      7.83476084e-02 1.88615471e-02 1.03941038e-02 2.33289506e-03
      5.38625335e-03 7.55832996e-03 7.78536201e-02 3.01423520e-01
      3.01423520e-01 1.58497334e-01 1.03735048e-02 4.20365669e-02
      2.52455771e-02 1.79067198e-02 4.15479690e-02 1.14750072e-01
      3.01423520e-01 3.01423520e-01 3.01423520e-01 7.43565038e-02</_>
    <_>
      7.60648996e-02 1.01373821e-01 3.06581229e-01 3.06581229e-01
      2.43169814e-01 1.69709295e-01 7.76311457e-02 4.79848422e-02
      3.44484784e-02 4.54298966e-02 4.51542288e-02 6.33269995e-02
      2.18934286e-02 3.06581229e-01 3.06581229e-01 1.77977264e-01
      4.87673245e-02 2.77961735e-02 3.49908099e-02 2.56016217e-02
      1.07505389e-01 3.06581229e-01 3.06581229e-01 1.98566154e-01
      6.64782524e-02 3.60880084e-02 3.02584060e-02 2.24705357e-02
      1.99724417e-02 8.76359195e-02 1.19857118e-01 3.06581229e-01
      3.06581229e-01 6.93558156e-02 2.00595539e-02 2.01170594e-02
      3.36441062e-02 6.40849546e-02 1.28211111e-01 2.87653059e-01
      2.87653059e-01 1.41465977e-01 7.18092471e-02 5.83123043e-02
      3.42036746e-02 2.15097535e-02 4.68440317e-02 1.79353550e-01
      2.09959880e-01 2.87653059e-01 2.67756671e-01 3.86555716e-02
      2.07756497e-02 2.01613735e-02 5.07775359e-02 7.02543929e-02
      1.15899779e-01 2.87653059e-01 2.87653059e-01 9.99604091e-02
      1.87318370e-01 1.43602341e-01 1.02467909e-01 1.80127807e-02
      1.90385990e-02 7.61974007e-02 1.10468805e-01 2.87653059e-01
      2.87653059e-01 2.87653059e-01 1.11536346e-01 5.03582656e-02
      8.09855089e-02 7.36946315e-02 7.81925917e-02 2.70372748e-01
      1.95501998e-01 6.02132455e-02 2.07708851e-01 1.55674130e-01
      1.51433855e-01 2.67508347e-02 9.76257212e-03 1.10445227e-02
      5.55446036e-02 2.54394382e-01 2.87921578e-01 2.87921578e-01
      1.72267050e-01 8.22316557e-02 6.88633844e-02 5.13214245e-02
      5.76500855e-02 1.94435015e-01 2.87921578e-01 5.63540682e-02
      1.17773876e-01 6.28492534e-02 8.23868141e-02 3.25036347e-02
      1.60843283e-02 3.66698727e-02 2.87921578e-01 2.87921578e-01
      2.87921578e-01 2.87921578e-01 8.04082006e-02 5.36950529e-02
      1.80373117e-02 1.35324979e-02 2.94973366e-02 1.62585333e-01
      3.67884368e-01 9.33619440e-02 2.33914405e-02 7.83442333e-03
      1.56602543e-02 1.37671558e-02 9.56297759e-03 4.42701355e-02
      3.67884368e-01 3.67884368e-01 9.39439535e-02 3.23021449e-02
      5.63462218e-03 1.32451365e-02 3.54827903e-02 2.26161089e-02
      3.36071849e-02 1.30792528e-01 2.94516802e-01 3.12445015e-01
      2.42543295e-01 4.99465615e-02 2.82561406e-02 2.12775283e-02
      1.40923122e-02 3.95039953e-02 3.67884368e-01 3.67884368e-01
      2.32045688e-02 1.38537707e-02 1.46727106e-02 1.68478452e-02
      4.40088548e-02 2.08688453e-02 2.15868149e-02 3.16164754e-02
      1.01596802e-01 1.58990130e-01 2.78835386e-01 2.78835386e-01
      1.60012692e-01 6.35465607e-02 6.23200499e-02 8.62206370e-02
      2.78835386e-01 2.78835386e-01 3.67657878e-02 1.57268699e-02
      1.30081296e-01 1.12238787e-01 1.01441786e-01 3.51833925e-02
      1.70504451e-02 1.23849278e-02 2.80395765e-02 2.97380872e-02
      1.71564713e-01 2.78835386e-01 2.78835386e-01 2.45837390e-01
      2.48366997e-01 1.68003350e-01 1.72822744e-01 2.50286490e-01
      1.58827361e-02 7.60785164e-03 2.34964386e-01 2.78835386e-01</_>
    <_>
      2.50178557e-02 3.16879228e-02 3.13746840e-01 3.13746840e-01
      1.31661624e-01 4.81444485e-02 1.97398104e-02 7.14099826e-03
      9.42085776e-03 3.59264351e-02 3.51575874e-02 1.75943315e-01
      1.78091675e-01 3.13746840e-01 3.13746840e-01 4.68213558e-02
      1.36703951e-02 1.35915987e-02 9.73323453e-03 2.10419968e-02
      2.56755054e-01 3.13746840e-01 3.13746840e-01 4.46034931e-02
      2.26855781e-02 9.17170197e-03 1.13035683e-02 1.01050697e-02
      1.58415884e-02 8.27025771e-02 2.08572567e-01 3.13746840e-01
      3.12239259e-01 2.69898698e-02 5.61123993e-03 1.02417218e-02
      2.09019352e-02 6.11154474e-02 1.59402773e-01 3.10536116e-01
      3.10536116e-01 4.87467609e-02 4.88502048e-02 2.56727878e-02
      3.07048894e-02 1.06073841e-02 4.73949127e-02 1.56122312e-01
      3.10536116e-01 3.10536116e-01 1.67512491e-01 1.97023507e-02
      1.14822509e-02 1.45457229e-02 5.11311851e-02 6.53575957e-02
      1.74429655e-01 3.10536116e-01 2.10387066e-01 5.99841103e-02
      1.51865974e-01 1.57355353e-01 7.72019252e-02 1.18532162e-02
      4.19515260e-02 1.78171396e-01 3.10536116e-01 3.10536116e-01
      1.29205167e-01 1.65564165e-01 1.14641227e-01 2.33955719e-02
      5.93107343e-02 4.32349816e-02 8.51409957e-02 2.41321951e-01
      1.38332754e-01 7.25670904e-02 1.98587552e-01 2.49416232e-01
      1.01439543e-01 9.66825243e-03 9.37438104e-03 3.58761325e-02
      1.17707968e-01 2.75880426e-01 2.75880426e-01 2.75880426e-01
      2.18397632e-01 3.57514918e-02 3.39045115e-02 2.54154895e-02
      6.69664592e-02 2.75880426e-01 2.45736480e-01 8.00708681e-02
      1.14809059e-01 1.13865875e-01 6.22098967e-02 9.01571754e-03
      3.71366786e-03 1.82921179e-02 2.75880426e-01 2.75880426e-01
      2.75880426e-01 2.75880426e-01 1.11927353e-01 2.83233952e-02
      3.54849244e-03 4.42635315e-03 8.97103772e-02 3.29013407e-01
      2.20613256e-01 1.92768313e-02 1.07716192e-02 5.77876857e-03
      6.29894529e-03 3.39899259e-03 1.11626601e-03 1.21100254e-01
      3.39344442e-01 3.39344442e-01 4.44496311e-02 1.93238407e-02
      3.51682771e-03 4.42452868e-03 4.80898283e-03 7.29721691e-03
      1.71415031e-01 3.39344442e-01 3.28384131e-01 4.64304239e-02
      4.55301702e-02 2.20568944e-02 9.68194753e-03 4.59797308e-03
      2.78511690e-03 3.09929550e-01 3.39344442e-01 3.39344442e-01
      2.69209733e-04 2.14310916e-04 1.47045951e-03 4.90766950e-03
      1.31769720e-02 1.56625751e-02 5.45711704e-02 2.48000115e-01
      3.01661223e-01 4.87564802e-02 1.64588898e-01 1.53929412e-01
      3.51765081e-02 5.48704155e-03 8.44002236e-03 1.26766279e-01
      3.01661223e-01 3.01661223e-01 0. 4.53800429e-03 1.76544823e-02
      9.04255360e-03 8.59888047e-02 8.29183906e-02 9.56063271e-02
      1.81548938e-01 2.82313198e-01 1.41778709e-02 2.27236494e-01
      3.01661223e-01 2.31306612e-01 6.30966499e-02 1.02074921e-01
      2.14222252e-01 3.01661223e-01 3.01661223e-01 0. 1.59700122e-02
      7.56208673e-02 8.61859024e-02</_>
    <_>
      1.53760556e-02 1.49931451e-02 1.09710515e-01 3.30479354e-01
      3.30479354e-01 6.83484301e-02 1.02168946e-02 4.73170495e-03
      2.31182389e-03 2.55198274e-02 1.92769002e-02 6.33756444e-02
      2.42174193e-01 3.30479354e-01 3.30479354e-01 5.68650290e-02
      9.40169394e-03 9.33717843e-03 4.53577284e-03 1.63240749e-02
      3.26287150e-02 3.30479354e-01 3.30479354e-01 6.36360049e-02
      5.07037761e-03 1.14618754e-02 4.49753832e-03 8.05456750e-03
      2.01335419e-02 3.58422808e-02 2.38182127e-01 3.30479354e-01
      2.87095964e-01 3.38852927e-02 9.33639426e-03 7.73718767e-03
      4.17257771e-02 7.02201724e-02 1.10698387e-01 2.96839803e-01
      2.96839803e-01 7.19638914e-02 2.36252770e-02 5.07218242e-02
      3.81251387e-02 2.75635161e-02 3.47058885e-02 3.41547988e-02
      1.58016875e-01 2.96839803e-01 2.96839803e-01 1.60203502e-01
      9.49102119e-02 3.45518552e-02 8.64887312e-02 9.88169014e-02
      1.60250008e-01 2.96839803e-01 2.96839803e-01 3.45084593e-02
      4.92939055e-02 1.15160339e-01 1.04061060e-01 5.52654900e-02
      3.51569019e-02 2.95463763e-02 2.73550861e-02 1.70660555e-01
      2.96839803e-01 2.96839803e-01 2.86963195e-01 1.06983982e-01
      3.52931321e-02 2.90762801e-02 4.51105051e-02 1.83442399e-01
      3.53500932e-01 1.07559688e-01 2.43280157e-02 4.12314236e-02
      4.53089401e-02 2.82088425e-02 1.72984023e-02 1.67183802e-02
      5.82234748e-02 3.53500932e-01 2.97261924e-01 2.24324405e-01
      1.09561302e-01 5.69452979e-02 1.44443233e-02 2.32589096e-02
      3.36728394e-02 6.10276759e-02 3.53500932e-01 2.24890396e-01
      2.35902220e-02 1.11850100e-02 1.13093536e-02 1.88056473e-02
      4.25095297e-02 2.91947216e-01 3.53500932e-01 3.53500932e-01
      1.14692084e-01 3.66763845e-02 1.06055336e-02 1.63370632e-02
      1.84168611e-02 5.21660820e-02 9.78488997e-02 6.44588247e-02
      2.96167105e-01 1.73637211e-01 4.07028161e-02 2.80228239e-02
      1.80360116e-02 2.11066436e-02 9.10076275e-02 2.96167105e-01
      2.96167105e-01 1.39343441e-01 3.95364836e-02 1.47294775e-02
      1.40923951e-02 1.73566826e-02 1.89909544e-02 5.29385842e-02
      1.21909432e-01 9.25040767e-02 2.96167105e-01 2.96167105e-01
      2.73053169e-01 7.44681656e-02 2.35199500e-02 1.58482846e-02
      7.11735487e-02 2.96167105e-01 2.96167105e-01 2.96167105e-01
      2.94628918e-01 1.18046232e-01 3.89590636e-02 1.93626583e-02
      6.90992922e-03 1.06918002e-02 2.99134627e-02 2.49418914e-02
      9.08445045e-02 2.83806741e-01 2.83806741e-01 1.27758369e-01
      1.48679353e-02 1.28810117e-02 2.01672614e-02 6.10953905e-02
      1.20877966e-01 2.83806741e-01 2.83806741e-01 2.40154073e-01
      1.19175166e-01 2.53117904e-02 2.15472504e-02 9.69795138e-03
      8.79153423e-03 2.83521507e-03 2.55362354e-02 1.79849178e-01
      2.83806741e-01 2.83806741e-01 7.17090666e-02 1.23810574e-01
      1.49304673e-01 1.31702811e-01 1.22063063e-01 2.83806741e-01
      1.60537943e-01 2.60479659e-01 2.83806741e-01 1.80591017e-01</_>
    <_>
      8.28953013e-02 6.50351942e-02 1.09830976e-03 1.85228570e-03
      3.23738664e-01 3.23738664e-01 1.41489729e-01 4.29357253e-02
      5.17198034e-02 2.04423303e-03 0. 0. 0. 2.37993464e-01
      3.23738664e-01 1.86854511e-01 2.92312540e-02 2.95112911e-03
      1.42364241e-02 2.01076996e-02 3.87298688e-02 5.86988106e-02
      3.23738664e-01 3.23738664e-01 3.04360509e-01 3.66796628e-02
      9.67572909e-03 3.15773720e-03 7.53493747e-04 4.40036034e-04
      3.60512524e-03 1.39895946e-01 3.23738664e-01 3.23738664e-01
      1.25777036e-01 3.21692624e-03 4.34792461e-03 6.26665130e-02
      1.50545105e-01 2.08038837e-01 2.87129611e-01 2.87129611e-01
      2.57880092e-01 2.97791287e-02 4.38226154e-03 3.05615645e-03
      1.31100668e-02 8.97296239e-03 4.36780602e-02 1.82215646e-01
      2.87129611e-01 2.87129611e-01 1.04995333e-01 3.34183779e-03
      8.33071489e-03 5.97022623e-02 1.21171020e-01 1.83894873e-01
      1.88012496e-01 1.66418910e-01 2.02213466e-01 2.87129611e-01
      8.95556733e-02 4.31723008e-03 1.48042515e-02 1.41626913e-02
      5.33362553e-02 1.90853655e-01 2.87129611e-01 2.87129611e-01
      1.76906958e-01 3.50588374e-02 7.77851650e-03 3.79975303e-03
