<?xml version="1.0"?>
<opencv_storage>
<opencv_ml_svm>
  <format>3</format>
  <svmType>C_SVC</svmType>
  <kernel>
    <type>LINEAR</type></kernel>
  <C>1.</C>
  <term_criteria><epsilon>1.0000000000000000e-03</epsilon></term_criteria>
  <var_count>900</var_count>
  <class_count>2</class_count>
  <class_labels type_id="opencv-matrix">
    <rows>2</rows>
    <cols>1</cols>
    <dt>i</dt>
    <data>
      0 1</data></class_labels>
  <sv_total>1</sv_total>
  <support_vectors>
    <_>
      7.17839658e-01 3.77212882e-01 2.32429374e-02 -5.57774305e-01
      -2.83627868e-01 2.30577104e-02 -2.45081708e-01 1.76147580e-01
      7.81781018e-01 4.69569206e-01 2.45821243e-03 4.19336528e-01
      3.82446975e-01 -1.01871562e+00 -9.80313003e-01 6.33364916e-01
      9.70987156e-02 3.88793141e-01 2.14696020e-01 9.69481841e-02
      4.24919315e-02 -4.39718664e-02 3.38102996e-01 -2.41748869e-01
      1.44213885e-01 5.08223534e-01 7.22710252e-01 2.00128019e-01
      2.97551721e-01 9.49790701e-02 8.95214915e-01 1.21958025e-01
      1.80711791e-01 -2.34735608e-01 1.81445941e-01 2.03427806e-01
      -6.12305462e-01 -3.78363848e-01 -8.93391222e-02 -7.83912361e-01
      -8.20215225e-01 -5.64463556e-01 1.14456601e-01 -7.96439588e-01
      -3.33487004e-01 -6.65471852e-01 2.73924824e-02 4.80693281e-01
      -3.47003758e-01 -2.92617768e-01 5.15724897e-01 -3.92255604e-01
      -6.77459478e-01 -6.18979037e-01 1.88237339e-01 1.12378113e-01
      -4.83929783e-01 1.87033743e-01 -3.94984722e-01 -5.14567457e-02
      -2.89531291e-01 -6.58011377e-01 -4.95147437e-01 3.45997065e-01
      2.80449092e-01 2.69244462e-01 -4.53421138e-02 2.04252496e-01
      4.15623277e-01 -3.83611947e-01 -1.95487067e-01 -4.04270887e-01
      -8.35321426e-01 -8.58692154e-02 -1.09392621e-01 -3.72491211e-01
      -9.76547718e-01 -1.62609592e-01 -3.02095562e-01 -4.14448172e-01
      -6.80914879e-01 -3.17935109e-01 1.48972645e-01 4.09810930e-01
      2.59871095e-01 -7.83002615e-01 2.44579703e-01 -1.19359784e-01
      -4.22939181e-01 -5.12127042e-01 -1.74996540e-01 -3.55593592e-01
      -6.01838939e-02 7.61539191e-02 -3.69643569e-01 -2.57868290e-01
      -1.93500221e-01 2.85608172e-01 -4.84668883e-03 -1.80083156e-01
      -1.30627885e-01 3.71916473e-01 1.97532818e-01 -1.83010444e-01
      -6.68068752e-02 2.59566128e-01 2.91895539e-01 1.79285407e-01
      -4.98451352e-01 1.54050186e-01 1.68199047e-01 -1.18019059e-01
      -6.45267665e-01 -2.84148335e-01 -1.08551955e+00 -4.53137964e-01
      -7.27629423e-01 -2.06095263e-01 -1.24997467e-01 -5.04340172e-01
      -3.89304370e-01 -6.12597167e-02 -1.02247179e-01 3.42775941e-01
      5.11282146e-01 -2.05725312e-01 3.27665806e-01 3.74189407e-01
      2.60824978e-01 -2.92798448e-02 3.12312126e-01 1.60641715e-01
      -5.06548107e-01 -3.01587880e-02 3.57988834e-01 5.22976816e-01
      8.90477300e-02 -3.91815454e-01 -2.98990875e-01 -2.34281704e-01
      2.51729280e-01 5.21668434e-01 2.39842966e-01 3.45223755e-01
      2.41197973e-01 6.01690948e-01 3.53108257e-01 -3.67658973e-01
      2.21797004e-01 -5.28442681e-01 -2.16977164e-01 4.31462139e-01
      -2.53515452e-01 4.49913114e-01 2.36017346e-01 5.82423769e-02
      1.40093088e-01 1.32475242e-01 -3.62210482e-01 -6.36960804e-01
      1.06211178e-01 -1.87940359e-01 3.93127471e-01 5.82001694e-02
      2.20677093e-01 -3.34367186e-01 -4.87912118e-01 -2.00474247e-01
      -2.74815019e-02 1.43781573e-01 2.44830802e-01 5.63481152e-01
      1.24941833e-01 4.30079140e-02 -1.66424930e-01 -1.63058043e-01
      -2.28600278e-01 -4.62233312e-02 5.92955768e-01 2.26768285e-01
      -1.13283627e-01 -7.95168653e-02 -5.29075921e-01 -2.54868746e-01
      3.25937778e-01 -1.67108387e-01 -1.37428150e-01 -1.22820772e-01
      -1.83873668e-01 3.43481362e-01 1.97133034e-01 -1.39443934e-01
      -5.15468158e-02 -2.84558713e-01 -2.57022858e-01 -1.53331906e-01
      3.41521800e-01 4.04950172e-01 -1.19541161e-01 1.00157864e-01
      -4.41350788e-01 5.19361440e-03 6.40067399e-01 -2.45157123e-01
      -6.51833415e-01 -4.02313143e-01 -3.52299362e-01 8.60606134e-01
      4.84703094e-01 2.22422108e-01 1.47111371e-01 -2.07837716e-01
      3.32768440e-01 4.02680606e-01 6.71614826e-01 6.31402671e-01
      7.18985915e-01 2.93842465e-01 -3.96497905e-01 -2.32003003e-01
      -1.48599416e-01 -6.34218574e-01 -4.58173126e-01 1.33569896e-01
      3.43119919e-01 1.13965742e-01 3.91424894e-02 2.82151103e-01
      -2.70895481e-01 -6.60978407e-02 -6.15748093e-02 -8.52333248e-01
      -8.14258084e-02 -1.85043544e-01 6.81107521e-01 1.05028637e-01
      5.26950546e-02 5.82026541e-01 -1.98645547e-01 -2.46950462e-01
      -2.77853347e-02 2.61118621e-01 2.38759667e-01 -8.07437599e-02
      2.97399983e-02 -8.19667056e-02 -4.28708643e-01 -3.78566422e-03
      2.41140708e-01 -4.39403921e-01 -8.70858505e-02 -2.85187215e-01
      -3.17740262e-01 -3.23069274e-01 -4.85154778e-01 -6.83476627e-01
      1.52491525e-01 -1.08159018e+00 -4.67831910e-01 -1.12237632e-01
      2.22383719e-02 1.61023796e-01 6.65677041e-02 4.37137410e-02
      -4.03948128e-01 3.16461846e-02 4.00886714e-01 9.12255198e-02
      -2.97508575e-02 3.75836730e-01 -4.91193175e-01 3.16808708e-02
      -3.18568021e-01 -3.13957006e-01 2.60151643e-02 -5.84844947e-01
      -4.05360967e-01 2.05452800e-01 -2.72972077e-01 -1.31752536e-01
      -1.61819868e-02 -3.56055617e-01 -4.02954638e-01 -6.72444850e-02
      3.27109247e-01 4.75211561e-01 2.63820529e-01 1.11352988e-01
      -1.05305567e-01 3.73416878e-02 -6.29319400e-02 -3.93626094e-01
      4.66808900e-02 1.98536962e-01 -3.59098941e-01 -3.44456956e-02
      1.75330028e-01 8.69175326e-03 -3.48041542e-02 -2.03333810e-01
      -4.31355685e-01 -1.68571025e-01 5.44802248e-01 1.90071672e-01
      -1.54799044e-01 -2.25478616e-02 -2.60697961e-01 -1.97103798e-01
      -1.53610155e-01 -9.45820153e-01 -2.59301543e-01 -2.32394740e-01
      -2.84473509e-01 -3.58881801e-01 -1.69826820e-01 -8.29404369e-02
      1.01637319e-01 1.36110976e-01 -6.73380733e-01 -6.40786290e-02
      2.23789476e-02 -1.50320813e-01 -2.98354506e-01 -4.82765138e-02
      3.28861266e-01 1.24875665e-01 6.73696876e-01 2.87697077e-01
      3.31631571e-01 3.68554413e-01 1.13057680e-01 -6.42237216e-02
      4.23754364e-01 4.17048186e-01 1.14615541e-03 8.69830921e-02
      1.86781049e-01 6.94020763e-02 1.55970365e-01 7.52200544e-01
      6.98629558e-01 3.06322843e-01 -1.24926016e-01 -1.69268787e-01
      -5.55883765e-01 4.28364217e-01 7.80061558e-02 1.34170100e-01
      3.46986830e-01 1.01756655e-01 1.70957118e-01 5.74998893e-02
      -2.69874185e-02 -5.57201982e-01 -4.53597866e-03 4.30836482e-03
      1.62395805e-01 5.52162349e-01 6.37926459e-01 3.07508949e-02
      -2.63266385e-01 -3.53976637e-02 -1.75560489e-01 -4.54720885e-01
      1.01843312e-01 -4.72298324e-01 -5.05152702e-01 -2.30107650e-01
      -2.72797525e-01 4.90902156e-01 -5.92905618e-02 -1.00414962e-01
      -1.75892696e-01 1.42297372e-01 9.97629285e-01 -6.83769956e-02
      2.10203111e-01 3.08241725e-01 -5.84024012e-01 -3.99470329e-01
      -4.06693220e-02 -8.58075500e-01 -2.01241881e-01 -1.60121262e-01
      5.89429103e-02 -2.64791071e-01 -1.18108511e-01 2.16529340e-01
      -5.35358973e-02 3.53607610e-02 -4.12621051e-01 3.40381801e-01
      3.80141318e-01 1.30433872e-01 7.97817260e-02 1.31744578e-01
      2.72021025e-01 -2.36194953e-01 -2.22732052e-01 -1.29653215e-01
      5.16259521e-02 5.79624474e-02 1.69068441e-01 -2.23858237e-01
      -1.01644948e-01 -1.81239381e-01 -3.15856516e-01 -3.14553797e-01
      -5.32812595e-01 3.71149749e-01 4.87883538e-01 2.07299516e-01
      -6.79704726e-01 -5.95092654e-01 3.01266342e-01 -1.56556293e-01
      -9.45986807e-02 -6.01361096e-01 1.43990917e-02 -2.44605437e-01
      -2.43441407e-02 1.86423376e-01 2.29022652e-01 -3.13713402e-01
      -4.41051811e-01 2.62873203e-01 -1.86529875e-01 4.58987683e-01
      3.05306435e-01 3.19188148e-01 1.15420893e-01 3.20501626e-02
      -7.54148364e-02 -1.20024599e-01 9.92240235e-02 1.45656511e-01
      2.08980162e-02 -4.66776580e-01 -1.01671204e-01 -3.43944013e-01
      -1.17049456e-01 2.50113755e-01 -6.75071850e-02 -1.07154846e-01
      6.82765841e-02 2.19393551e-01 6.38616681e-02 -1.17213003e-01
      -2.05731317e-01 2.27413103e-01 -3.07303995e-01 -2.04019025e-01
      3.78005654e-01 2.86808223e-01 -3.33609343e-01 -1.20992310e-01
      4.74481508e-02 -3.94457966e-01 -4.19793278e-01 5.32131732e-01
      -2.10738912e-01 -3.17372769e-01 -1.91983312e-01 -3.55984092e-01
      1.02753967e-01 2.79507279e-01 1.36516318e-01 4.15437013e-01
      -5.59896454e-02 -3.70160639e-01 -4.78350192e-01 -6.36094749e-01
      3.89813691e-01 3.25365248e-03 -9.24482867e-02 -4.86697733e-01
      -2.14614555e-01 -1.51406825e-01 -3.86085540e-01 -1.46707699e-01
      -4.83463973e-01 8.26584622e-02 -7.81904012e-02 3.94286774e-03
      -3.32568437e-01 -2.34005198e-01 3.09422284e-01 -1.18306361e-01
      4.39294092e-02 -3.75680387e-01 -5.39352931e-02 2.66622335e-01
      -1.79782793e-01 -1.32043168e-01 1.22080036e-01 2.36981437e-01
      -2.77636617e-01 -1.59974143e-01 -3.92384112e-01 3.61624599e-01
      -8.25517774e-02 -5.18107593e-01 -3.61269772e-01 1.44221276e-01
      -2.36739919e-01 -4.71840203e-01 -2.03822434e-01 -9.47806332e-03
      7.30994999e-01 -1.04410581e-01 8.84006500e-01 -2.60756060e-04
      -4.33337986e-02 -1.73607364e-01 -1.34177983e-01 1.55166119e-01
      5.82671702e-01 8.98398384e-02 -4.33436722e-01 8.05025578e-01
      1.35499045e-01 -1.84721589e-01 -7.49111250e-02 -1.66043147e-01
      4.16356064e-02 1.30388156e-01 7.88238525e-01 4.40975398e-01
      4.16872591e-01 -1.07219324e-01 -2.38482244e-02 2.51917075e-02
      1.90191001e-01 2.61362910e-01 2.68540084e-01 2.92065054e-01
      -4.45677698e-01 5.38032770e-01 -6.76274821e-02 -1.58682540e-01
      -6.26127779e-01 -1.11290254e-01 4.51161787e-02 -6.27076447e-01
      1.47869617e-01 -2.92185158e-01 -4.65478450e-01 -3.40273321e-01
      -5.20307183e-01 -2.33914271e-01 -1.54779658e-01 -1.73004996e-02
      -1.73029333e-01 1.74242511e-01 -1.29075712e-02 1.20703883e-01
      2.67756253e-01 -2.13737741e-01 -1.24092728e-01 -7.79543445e-03
      6.65501282e-02 -5.34791648e-01 2.73808479e-01 -3.79248112e-01
      -2.12970287e-01 1.86889805e-02 -3.70719284e-01 7.74467513e-02
      -2.09355310e-01 -2.81631239e-02 -4.96681303e-01 -6.63539097e-02
      -3.28424811e-01 -1.01303458e-02 4.07281071e-01 1.84782624e-01
      8.54719654e-02 -2.59585768e-01 -1.95730150e-01 1.43994480e-01
      4.05873992e-02 -2.24059001e-01 -1.50516406e-01 2.88809687e-01
      7.22971484e-02 -1.45309150e-01 -5.67920864e-01 -1.96359038e-01
      8.05280358e-02 -1.82213098e-01 2.47155070e-01 -6.13006949e-01
      -1.52934454e-02 -2.41863489e-01 3.13441366e-01 -1.77034244e-01
      1.37358531e-01 1.46159261e-01 -1.65563926e-01 -8.86944652e-01
      -2.06760734e-01 1.64696708e-01 -1.60182923e-01 -6.52661696e-02
      -5.18281758e-01 1.01766825e-01 -3.64744633e-01 -4.49366003e-01
      -3.68052088e-02 -2.54949123e-01 -1.82528764e-01 -4.04981136e-01
      -9.22555476e-02 -2.08535399e-02 3.44640166e-01 4.68400754e-02
      1.60828695e-01 -2.99754858e-01 -1.24938503e-01 -2.06925929e-01
      -3.66654545e-01 3.46142530e-01 3.24350655e-01 3.63202125e-01
      1.20629989e-01 -1.11955039e-01 2.09226921e-01 4.09238636e-02
      5.08772731e-01 4.04020458e-01 -5.85853040e-01 -3.53253961e-01
      -2.31008977e-01 -9.43792164e-01 -1.74981251e-01 -5.83525479e-01
      -7.52577305e-01 -5.25036395e-01 -6.23882890e-01 -1.79349676e-01
      -6.63589537e-02 2.21806154e-01 -2.77735740e-01 -2.34499797e-01
      -3.62489164e-01 4.87200059e-02 9.83779505e-02 -2.25883469e-01
      8.17724876e-03 2.03165218e-01 3.93330812e-01 2.19323650e-01
      2.62753129e-01 -4.47610021e-02 -2.10735485e-01 1.02572709e-01
      2.62772292e-01 1.75932795e-01 -3.15974131e-02 -2.35270299e-02
      -3.80132943e-02 1.17998533e-01 -7.59329647e-02 -4.08942789e-01
      -2.96525538e-01 1.45160094e-01 -1.70437738e-01 -2.59429365e-01
      1.20059453e-01 4.56185460e-01 1.01442926e-01 -3.20816673e-02
      -2.91465163e-01 3.00956666e-01 2.77473424e-02 -9.51583609e-02
      -3.05962890e-01 -1.08804941e-01 5.34892082e-01 2.94441909e-01
      -1.27473190e-01 4.48415950e-02 -3.08210582e-01 -2.04560086e-01
      -4.67213169e-02 -1.01264790e-02 7.08202198e-02 3.40786278e-01
      2.85638899e-01 7.46261060e-01 2.08128348e-01 -4.91023548e-02
      -2.28127047e-01 1.03612863e-01 7.08458722e-02 3.07735860e-01
      2.34462306e-01 -9.00198892e-02 -9.87669379e-02 -1.40872329e-01
      -3.93862903e-01 -5.51721193e-02 4.00695622e-01 -5.47982529e-02
      1.55859709e-01 4.92430441e-02 1.97568268e-01 2.59179950e-01
      2.65069246e-01 4.62540776e-01 1.76488295e-01 3.48108530e-01
      7.52326697e-02 1.88727781e-01 4.34021175e-01 1.80335239e-01
      3.68174732e-01 2.70074755e-01 4.55021143e-01 4.76427436e-01
      -1.42666325e-01 -2.68456429e-01 4.38885003e-01 -1.38374060e-01
      4.09970224e-01 -1.16011746e-01 -5.36127031e-01 -4.14743751e-01
      -1.81084201e-01 5.40044457e-02 -2.93284804e-01 2.54141480e-01
      -1.42558321e-01 1.71230778e-01 -1.59300953e-01 -2.68198520e-01
      4.63177234e-01 2.83069044e-01 5.56225061e-01 5.02548277e-01
      5.94569802e-01 -3.60231102e-01 -1.65615827e-01 -5.43201454e-02
      7.36663699e-01 -1.69553086e-01 2.01437265e-01 2.13218823e-01
      2.51543313e-01 1.34227490e-02 -3.32610752e-03 -1.98318839e-01
      1.44576043e-01 7.62695074e-02 3.82301092e-01 1.89111307e-01
      3.14117700e-01 1.51740566e-01 1.89293772e-01 4.60254252e-01
      -2.64892429e-01 1.30374981e-02 -2.08296552e-02 2.19202667e-01
      3.03258598e-01 1.54773042e-01 -9.09840222e-03 2.69330889e-01
      6.24677181e-01 -1.17086917e-01 -7.39990780e-03 -4.96714599e-02
      4.82017398e-02 3.26550826e-02 1.20899394e-01 -1.32447869e-01
      -4.18561399e-01 -3.62099171e-01 -8.90413046e-01 -3.25006157e-01
      -2.51124024e-01 1.08518742e-03 4.69520926e-01 9.77914780e-02
      2.61824727e-01 1.98868126e-01 -4.17907476e-01 -2.74167955e-01
      -4.34680253e-01 1.54343292e-01 6.03494227e-01 6.03776515e-01
      -1.61609784e-01 2.41561398e-01 -2.77175248e-01 -4.78202701e-01
      -5.66163957e-01 1.67674869e-01 -8.63298997e-02 -3.95408064e-01
      -5.46559930e-01 2.05097333e-01 -1.65570393e-01 -1.91274107e-01
      -4.57487524e-01 -2.10505486e-01 -2.37198398e-02 -6.83681592e-02
      -1.84443235e-01 1.11848906e-01 -4.53035116e-01 -2.87855536e-01
      -1.02742739e-01 -7.15572178e-01 -7.13747263e-01 -1.76307037e-01
      -4.97637510e-01 -1.74331129e-01 -5.83440661e-01 3.28974664e-01
      3.42796631e-02 6.41035557e-01 -2.04140358e-02 -2.43935660e-02
      -2.13557824e-01 -2.50093758e-01 -3.75018455e-02 1.43879026e-01
      7.95625448e-02 -2.42071420e-01 2.22400233e-01 3.51490438e-01
      -4.88488339e-02 -1.50100306e-01 -1.89444751e-01 -1.86300680e-01
      3.07713002e-01 2.67953873e-01 -1.90531626e-01 1.23795904e-01
      3.89267623e-01 1.23915404e-01 1.41068280e-01 -3.82166773e-01
      -1.09142825e-01 -2.12015584e-02 -2.08342761e-01 -6.88613653e-02
      2.40958720e-01 -9.42573100e-02 -3.85426164e-01 -5.61536670e-01
      4.59254049e-02 -6.53833598e-02 -2.19678998e-01 -2.27206394e-01
      -1.97063267e-01 7.42888302e-02 -3.79518390e-01 -1.57635123e-01
      5.42771928e-02 -2.67788619e-02 6.90297857e-02 1.27728172e-02
      4.27873194e-01 1.91583812e-01 1.07951976e-01 -5.89965820e-01
      3.45854104e-01 8.19048882e-02 -5.62482737e-02 -1.29875466e-01
      -2.90959459e-02 5.44787288e-01 2.12305427e-01 3.90754998e-01
      3.36856514e-01 -1.18703283e-02 -1.15737006e-01 2.26697534e-01
      2.91313738e-01 5.06831825e-01 1.37976184e-01 1.12680532e-01
      -4.75649647e-02 4.26783785e-03 6.29062355e-01 4.18988079e-01
      3.25433791e-01 -1.41821861e-01 9.16948617e-02 3.44127387e-01
      -1.88439652e-01 8.67304280e-02 -4.04861510e-01 1.75297737e-01
      6.09557390e-01 -1.93516500e-02 4.08463299e-01 4.28732663e-01</_></support_vectors>
  <uncompressed_sv_total>265</uncompressed_sv_total>
  <uncompressed_support_vectors>
    <_>
      2.90957931e-02 4.65232208e-02 6.52662888e-02 3.11475962e-01
      3.11475962e-01 1.63029104e-01 6.75525889e-02 4.13870364e-02
      3.95549946e-02 3.03307269e-02 4.27916721e-02 4.05366793e-02
      2.12093040e-01 1.98679596e-01 3.11475962e-01 2.74070024e-01
      8.08902308e-02 6.79954961e-02 1.65837985e-02 3.30999703e-03
      7.74035081e-02 3.11475962e-01 3.11475962e-01 7.52204135e-02
      3.87920141e-02 2.24850327e-02 1.40892453e-02 6.58367667e-03
      7.28291692e-03 3.05784754e-02 2.83414185e-01 3.11475962e-01
      3.11475962e-01 7.32960030e-02 6.03698753e-03 6.03141636e-03
      7.30221998e-03 6.98162150e-03 2.29104664e-02 8.28049853e-02
      3.15706521e-01 3.15706521e-01 2.29600117e-01 3.69232856e-02
      1.93948653e-02 1.92111023e-02 1.90897975e-02 4.32367139e-02
      9.44575295e-02 2.30077997e-01 3.15706521e-01 2.03748420e-01
      5.46494760e-02 1.02695115e-02 1.51541168e-02 3.33758816e-02
      3.25058028e-02 1.77688584e-01 3.15706521e-01 3.15706521e-01
      1.16931178e-01 1.91411749e-02 5.55002550e-03 5.98094389e-02
      6.78216964e-02 4.49119024e-02 1.03958130e-01 3.15706521e-01
      3.15706521e-01 2.04315305e-01 1.12406701e-01 6.87056854e-02
      3.45683992e-02 3.84287164e-02 5.43882363e-02 3.89432162e-02
      9.76309180e-02 1.94086641e-01 2.97552049e-01 1.68606535e-01
      1.81876905e-02 5.03490977e-02 4.84786257e-02 1.66130453e-01
      7.45257959e-02 1.64866701e-01 2.06496879e-01 2.97552049e-01
      1.23576291e-01 1.44203352e-02 5.43184057e-02 4.37539630e-02
      3.28901634e-02 3.92336622e-02 1.12178631e-01 1.82095796e-01
      2.97552049e-01 2.97552049e-01 1.49240986e-01 8.37596692e-03
      1.04843881e-02 2.77915727e-02 5.56516685e-02 2.97552049e-01
      2.97552049e-01 2.97552049e-01 2.97552049e-01 5.22610620e-02
      2.29417589e-02 2.00083833e-02 1.05347745e-01 5.67914881e-02
      1.67528152e-01 1.98435560e-01 1.43411696e-01 3.79080288e-02
      1.44295534e-02 5.30396355e-03 2.68783537e-03 9.19438805e-03
      1.04567647e-01 3.25664759e-01 3.25664759e-01 2.72782177e-01
      2.39715222e-02 8.90532602e-03 3.83796217e-03 6.86096726e-03
      2.69145109e-02 7.29757324e-02 3.25664759e-01 3.20113331e-01
      1.69670820e-01 3.79731655e-02 5.16858790e-03 1.43573096e-03
      4.12861770e-03 2.55850703e-02 3.25664759e-01 3.25664759e-01
      3.25664759e-01 1.69121444e-01 3.18778120e-02 1.56509131e-02
      9.31806397e-04 1.07401004e-03 1.24214112e-03 5.62694296e-02
      3.47075820e-01 3.47075820e-01 1.25216886e-01 7.24799791e-03
      1.25780667e-03 1.75217334e-02 7.82089494e-03 2.61464948e-03
      1.17383124e-02 2.23970309e-01 3.47075820e-01 4.58353013e-02
      8.92670229e-02 4.56560142e-02 8.48785712e-05 6.00244501e-04
      8.73166788e-03 2.11964965e-01 3.47075820e-01 3.47075820e-01
      1.46264717e-01 2.38104928e-02 1.38280168e-02 1.62869841e-02
      1.17745688e-02 3.43371136e-03 2.69322786e-02 3.47075820e-01
      3.47075820e-01 4.76151742e-02 1.69887170e-02 2.67208964e-02
      1.03430366e-02 3.87430249e-04 7.27635920e-02 3.39703619e-01
      3.39703619e-01 8.65625963e-02 3.18773813e-03 2.91613839e-03
      9.90712363e-03 6.95243245e-03 1.56367617e-03 5.16191609e-02
      2.88331836e-01 3.39703619e-01 2.17265800e-01 1.30729191e-02
      1.48923529e-04 7.38231000e-03 8.95385724e-03 1.60250333e-04
      1.00836372e-02 2.29972854e-01 3.39703619e-01 2.84449488e-01
      1.38499960e-02 1.48923529e-04 8.79228488e-03 7.18159555e-03
      3.52550705e-04 2.96238456e-02 1.36484176e-01 3.39703619e-01
      3.39703619e-01 6.37861565e-02 3.27631802e-04 6.82613533e-03
      8.49766657e-03 1.69945136e-02 3.64864953e-02 2.10837632e-01
      3.25720370e-01 3.25720370e-01 7.98603520e-02 8.79676081e-03
      1.92804867e-03 2.61172354e-02 3.53788733e-02 1.73825808e-02
      1.02326959e-01 3.25720370e-01 3.25720370e-01 1.42455906e-01
      5.80986589e-02 4.01817262e-02 1.48734520e-03 9.44402011e-04
      2.77812500e-02 1.57143325e-01 3.25720370e-01 3.25720370e-01
      8.16130862e-02 1.29412941e-03 9.72319162e-04 4.28038323e-03
      5.95300738e-03 1.57707296e-02 1.11722603e-01 3.25720370e-01
      3.25720370e-01 1.10060990e-01 1.76371429e-02 7.76084978e-03
      2.38459203e-02 2.37385910e-02 8.95694550e-03 4.29800935e-02
      2.42805898e-01 1.65463254e-01 1.70191467e-01 2.01327741e-01
      8.98874328e-02 4.31845756e-03 5.65116294e-03 3.30851064e-03
      4.23771851e-02 3.37457508e-01 3.37457508e-01 2.62518585e-01
      1.87161043e-01 3.56834009e-02 9.05833580e-03 1.08965728e-02
      1.13118533e-02 5.57326823e-02 3.37457508e-01 3.37457508e-01
      9.29336846e-02 8.84099230e-02 2.31118873e-02 3.84174474e-03
      5.84920868e-03 8.25226959e-03 3.60715389e-02 3.37457508e-01
      3.37457508e-01 9.82459933e-02 8.75574425e-02 1.25700645e-02
      2.64841062e-03 2.93615330e-02 5.15902527e-02 8.87543485e-02
      3.22947025e-01 3.22947025e-01 1.19516678e-01 4.16065454e-02
      4.43309080e-03 3.69148515e-03 3.72326076e-02 7.76731595e-02
      2.68752038e-01 3.22947025e-01 3.22947025e-01 1.64993867e-01
      9.54476744e-02 2.78287660e-02 1.36810606e-02 3.97103913e-02
      5.67688271e-02 5.04776649e-02 3.22947025e-01 3.22947025e-01
      4.27276231e-02 3.53132002e-02 3.47158015e-02 2.02803370e-02
      5.38193025e-02 7.16781765e-02 1.00931086e-01 3.22947025e-01
      2.45958984e-01 1.31060526e-01 1.03784651e-01 6.00754134e-02
      3.88504326e-04 3.04217148e-03 1.00454725e-02 1.01597540e-01
      3.41830820e-01 3.41830820e-01 1.20584734e-01 5.75934723e-02
      1.82838570e-02 5.98775363e-03 5.48975077e-03 3.76023306e-03
      2.47890241e-02 3.41830820e-01 3.41830820e-01 2.79599819e-02
      6.43919129e-03 8.50277673e-03 2.22783699e-03 4.84911911e-03
      7.02076824e-03 1.15081720e-01 3.41830820e-01 3.30672383e-01
      8.56587514e-02 4.72126231e-02 1.18314754e-02 2.11760844e-03
      1.27735652e-03 1.34707207e-03 1.25842258e-01 3.41830820e-01
      3.41830820e-01 1.40373679e-02 3.53549048e-03 2.44252593e-03
      6.20289706e-03 6.04405577e-05 3.91339697e-03 5.53898327e-02
      3.55459303e-01 3.55459303e-01 4.25158106e-02 3.40679253e-05
      5.82670048e-03 1.95420184e-03 1.32969231e-04 1.22389980e-02
      4.08726782e-02 3.55459303e-01 3.55459303e-01 7.44952559e-02
      7.49494357e-05 1.12656876e-03 3.17649497e-03 0. 3.83052090e-03
      1.88126653e-01 3.55459303e-01 3.18559438e-01 2.80492492e-02 0.
      3.17649497e-03 1.38166314e-03 0. 1.12387529e-02 1.62870049e-01
      3.55459303e-01 2.45594293e-01 3.65470946e-02 0. 1.38166314e-03
      2.27109267e-04 2.03745745e-04 6.94248592e-03 6.87797070e-02
      3.60276312e-01 3.01189959e-01 3.72805260e-02 4.68146056e-04
      1.30925153e-04 1.98260066e-04 1.16800575e-03 8.92817136e-03
      1.39243454e-01 3.60276312e-01 3.60276312e-01 2.04070769e-02
      3.15892021e-03 1.35886658e-04 4.36477683e-04 3.15313716e-03
      6.36407407e-03 1.39640033e-01 3.60276312e-01 2.22517014e-01
      1.72214918e-02 1.59339549e-03 1.58376724e-03 0. 1.36732291e-02
      1.74028035e-02 2.82937616e-01 3.60276312e-01 2.83597767e-01
      1.30250044e-02 9.13317781e-03 5.91222197e-03 6.17095444e-04
      1.73133973e-03 5.90195833e-03 9.16360691e-02 3.75872523e-01
      3.00452262e-01 1.56299733e-02 7.70615786e-03 6.97334355e-04
      8.82476510e-04 1.66439079e-03 3.87790496e-03 4.54454310e-02
      3.75872523e-01 3.75872523e-01 1.36569794e-02 6.37451140e-03
      1.43812981e-03 0. 6.63678348e-03 1.55065386e-02 2.51736790e-01
      3.75872523e-01 1.90871328e-01 1.76072232e-02 1.38822496e-02
      6.92130812e-03 1.00589154e-04 1.38375291e-03 1.10612838e-02
      1.93303689e-01 3.75872523e-01 2.23988667e-01 1.14028361e-02
      8.66080634e-03 3.86768417e-03 1.61904078e-02 1.57233253e-02
      1.83466934e-02 4.44731116e-02 3.72181952e-01 3.72181952e-01
      1.44534213e-02 1.11165559e-02 1.87663231e-02 2.09852159e-02
      1.94503721e-02 3.38150822e-02 1.32426128e-01 3.72181952e-01
      1.60268784e-01 2.70744972e-02 2.62121838e-02 2.68897563e-02
      1.24789570e-02 5.23906201e-03 1.72607806e-02 1.46900982e-01
      3.72181952e-01 3.72181952e-01 1.05505791e-02 5.86492941e-03
      7.20740901e-03 1.82437897e-02 1.66224651e-02 6.89950958e-02
      2.12376922e-01 3.72181952e-01 2.03002080e-01 9.72155388e-03
      6.55310741e-03 1.57863721e-02 2.07115663e-03 1.72269926e-03
      1.12100430e-02 1.73169211e-01 3.93979877e-01 2.17747465e-01
      1.15189208e-02 7.95361958e-03 3.71070881e-03 6.62213366e-04
      9.21313112e-05 6.71352958e-04 1.68536529e-01 3.93979877e-01
      2.46239245e-01 1.43828546e-03 3.27637215e-04 7.00568082e-04
      3.64265172e-03 8.81481078e-03 3.62232849e-02 2.00558126e-01
      3.93979877e-01 2.54340917e-01 3.46034626e-03 6.24519307e-04
      8.73807818e-03 1.33266766e-03 9.74035298e-04 4.50893026e-03
      2.24483013e-01 3.93979877e-01 2.27085426e-01 1.39673916e-03
      4.38445422e-05 2.70389696e-03 3.53161478e-03 0. 2.90588592e-04
      1.29091457e-01 3.90013635e-01 3.07535976e-01 4.70001856e-03
      3.07832051e-05 3.53161478e-03 7.04247085e-03 0. 1.44672440e-03
      1.23416297e-01 3.90013635e-01 1.20138429e-01 1.41136749e-02
      1.33393900e-04 7.04247085e-03 9.44689102e-03 4.21287073e-03
      1.83389336e-02 3.85219716e-02 3.90013635e-01 3.90013635e-01
      5.43626100e-02 5.90164156e-04 7.37489248e-03 1.48962513e-02
      2.10824632e-03 7.29288720e-03 7.25220516e-02 3.90013635e-01
      2.79795587e-01 7.27729425e-02 3.92714934e-03 1.48962513e-02
      9.05278884e-03 6.72668545e-03 1.42124593e-02 1.82003558e-01
      3.57998610e-01 1.73240900e-01 2.03261431e-02 1.65062561e-03
      9.97529551e-03 2.88349669e-02 2.82597709e-02 6.97650984e-02
      3.04729998e-01 3.57998610e-01 2.34581798e-01 2.09743157e-02
      2.02163421e-02 3.70213985e-02 1.46494200e-02 6.21695770e-03
      2.45805588e-02 2.45726749e-01 3.57998610e-01 1.98991194e-01
      7.44611770e-02 4.45641624e-03 1.95855275e-02 6.79401085e-02
      5.49829118e-02 1.05448663e-01 3.29164088e-01 3.57998610e-01
      1.49991974e-01 4.56613339e-02 2.70404965e-02 6.30702823e-02
      2.48226207e-02 2.45463476e-02 7.02620149e-02 3.10729802e-01
      3.10729802e-01 1.87418923e-01 3.79777737e-02 7.44225606e-02
      5.35804518e-02 9.37872380e-03 1.40020410e-02 3.62384282e-02
      3.10729802e-01 3.10729802e-01 2.06578821e-01 3.37895006e-02
      5.48967682e-02 3.22719701e-02 1.59825727e-01 1.38626933e-01
      1.40464902e-01 1.94710925e-01 2.68773794e-01 6.48496747e-02
      2.60426886e-02 9.44310948e-02 1.44152731e-01 1.71619713e-01
      1.73512116e-01 1.53425187e-01 3.10729802e-01 3.10729802e-01
      6.82027116e-02 3.12357694e-02 7.11776838e-02 1.18142687e-01
      4.70817089e-03 3.32620065e-03 1.22034792e-02 2.40172043e-01
      3.04279655e-01 3.04279655e-01 7.17606246e-02 4.33248095e-02
      3.55212167e-02 1.20035140e-02 1.64713990e-02 6.38160408e-02
      2.36599132e-01 3.04279655e-01 1.85656250e-01 6.00575991e-02
      5.33232912e-02 6.37166947e-02 5.13896197e-02 7.90380761e-02
      1.21783331e-01 3.04279655e-01 3.04279655e-01 1.42301872e-01
      1.04872957e-01 5.75150512e-02 4.95710783e-02 2.68795118e-02
      3.00315879e-02 2.81357408e-01 3.04279655e-01 3.04279655e-01
      1.18219376e-01 9.81543213e-02 8.12968090e-02 7.42964819e-02
      6.95919339e-03 1.09468494e-02 5.67783862e-02 3.29663962e-01
      3.29663962e-01 1.24279849e-01 7.06487475e-03 1.13554541e-02
      3.06384806e-02 2.03547557e-03 1.36638223e-03 2.03069597e-02
      3.28255296e-01 3.29663962e-01 1.62882745e-01 2.41887476e-03
      1.51660608e-03 7.15688430e-03 9.94683523e-03 8.28381069e-03
      2.31218964e-01 3.29663962e-01 3.29663962e-01 8.06080252e-02
      1.66836344e-02 2.33587250e-02 3.36288586e-02 2.02547736e-03
      3.52598203e-04 6.99625537e-02 3.29663962e-01 3.29663962e-01
      1.18786879e-01 9.56548005e-03 3.31351277e-03 6.98013557e-03
      7.50094187e-03 7.41997315e-03 2.91532744e-02 6.07359670e-02
      2.95314670e-01 2.95314670e-01 1.85110360e-01 6.21269736e-03
      4.45684046e-03 1.18684461e-02 5.07979561e-03 2.54665036e-02
      1.81836203e-01 2.95314670e-01 2.95314670e-01 9.53328162e-02
      3.94680537e-03 8.34274106e-03 7.54866283e-03 5.75169362e-03
      1.66938230e-02 1.70084551e-01 2.95314670e-01 2.95314670e-01
      2.04943165e-01 1.30685540e-02 9.01593920e-03 2.90280152e-02
      4.75195199e-02 1.98106840e-01 2.95314670e-01 2.95314670e-01
      2.95314670e-01 1.23654202e-01 1.40597885e-02 2.71732267e-02
      1.18207615e-02 7.86431786e-03 4.76926789e-02 3.21174353e-01
      3.21174353e-01 1.20332353e-01 4.27597910e-02 5.97394211e-03
      1.63074974e-02 7.54582286e-02 1.11543879e-01 1.19842291e-01
      3.21174353e-01 3.21174353e-01 5.66275269e-02 2.83377226e-02
      1.50003508e-02 4.54780050e-02 1.68420225e-02 3.61160263e-02
      2.40438595e-01 3.21174353e-01 3.21174353e-01 7.73691386e-02
      2.28863861e-02 5.74599672e-03 1.21927224e-02 3.67857851e-02
      9.42372456e-02 1.91247657e-01 3.21174353e-01 3.21174353e-01
      1.89025775e-02 6.81189122e-03 1.19101470e-02 1.53201418e-02
      2.46906191e-01 2.46906191e-01 2.46906191e-01 1.68733537e-01
      1.23218253e-01 1.86640397e-02 1.59872826e-02 4.22095805e-02
      1.36564016e-01 2.46906191e-01 2.46906191e-01 2.46906191e-01
      2.46906191e-01 1.43483624e-01 1.95074305e-02 2.01772097e-02
      4.33104448e-02 1.64376155e-01 1.37051970e-01 2.46906191e-01
      2.46906191e-01 2.32101083e-01 1.63000509e-01 1.93245616e-02
      7.27556273e-03 4.05368470e-02 4.69317362e-02 2.46906191e-01
      2.46906191e-01 2.32831776e-01 1.07319683e-01 9.30774882e-02
      2.63894834e-02 1.98124852e-02 7.19315112e-02 1.66833431e-01
      1.51765630e-01 1.85234204e-01 2.04478338e-01 2.41579577e-01
      1.20832533e-01 3.36719677e-02 3.88896912e-02 3.88114415e-02
      1.06373042e-01 5.90394065e-02 1.85569137e-01 2.83686846e-01
      2.83686846e-01 2.20954731e-01 4.29741144e-02 3.81605327e-02
      3.59863229e-02 6.44496977e-02 2.79697120e-01 2.72655487e-01
      1.57789335e-01 4.83793840e-02 2.09704023e-02 1.90139953e-02
      2.50325054e-02 1.03726014e-01 2.37747744e-01 9.49368849e-02
      2.83686846e-01 2.83686846e-01 2.83686846e-01 1.96943790e-01
      2.57109031e-02 1.35604991e-02 5.35086319e-02 1.08011320e-01
      9.21139307e-03 4.02479023e-02 3.37833166e-01 3.37833166e-01
      3.14253539e-01 3.73301134e-02 8.91826674e-03 7.56727299e-03
      9.58977826e-03 4.82177781e-03 2.23335763e-03 5.89370541e-02
      3.37833166e-01 3.37833166e-01 4.19715159e-02 7.45994551e-03
      3.45112686e-03 4.29564901e-03 7.70093547e-03 6.92818686e-02
      2.57668763e-01 3.37833166e-01 2.49024794e-01 1.00191226e-02
      8.27079290e-04 2.62684975e-04 3.47630848e-04 1.28283799e-02
      1.76968686e-02 1.23996258e-01 3.37833166e-01 2.34620124e-01
      6.75308239e-03 1.26859359e-03 2.32056924e-03 9.27900337e-03</_>
    <_>
      1.39887258e-01 1.32834136e-01 9.18406472e-02 2.39337459e-01
      2.98602790e-01 1.42098770e-01 1.08623691e-01 5.87447248e-02
      4.96840030e-02 7.82401338e-02 4.86432090e-02 2.88959779e-02
      7.25242347e-02 2.19277844e-01 3.22279036e-01 3.19113433e-01
      9.36758518e-02 5.75081855e-02 1.66577008e-02 3.73143591e-02
      4.25719544e-02 3.22279036e-01 3.22279036e-01 1.12148657e-01
      6.21738434e-02 2.14778725e-02 1.36132278e-02 9.31491982e-03
      3.05785555e-02 2.40791291e-02 9.66153964e-02 3.22279036e-01
      3.22279036e-01 1.95100158e-01 3.31657752e-02 1.42617263e-02
      3.71723389e-03 7.14006135e-04 1.01846969e-02 1.24754213e-01
      3.47854286e-01 3.47854286e-01 1.58824265e-01 2.82431021e-02
      1.12501532e-02 2.66887117e-02 7.56964227e-03 2.47247424e-02
      9.09740925e-02 2.56036401e-01 2.21251771e-01 2.13532671e-01
      1.00574404e-01 2.91059408e-02 1.63160004e-02 1.28168771e-02
      2.68963892e-02 7.20279068e-02 3.47854286e-01 3.47854286e-01
      1.13852166e-01 1.13430908e-02 5.51729323e-03 7.14162961e-02
      3.60260643e-02 7.33827129e-02 1.12954088e-01 2.94841260e-01
      2.90878117e-01 2.35558897e-01 1.35206699e-01 2.53910404e-02
      5.39949648e-02 3.38881351e-02 8.32089931e-02 5.99283725e-02
      1.21279605e-01 1.49690807e-01 3.01595837e-01 1.65830582e-01
      5.50655276e-02 6.64731413e-02 5.91557473e-02 2.52699226e-01
      2.07385525e-01 2.01276004e-01 2.08585501e-01 1.71879694e-01
      4.82852720e-02 3.32628749e-02 5.70515059e-02 2.64806747e-02
      5.80006875e-02 6.69902638e-02 9.16706547e-02 2.85418808e-01
      3.01595837e-01 3.01595837e-01 3.59090082e-02 1.26488637e-02
      1.46888709e-02 8.22817981e-02 9.55937877e-02 3.01595837e-01
      3.01595837e-01 3.01595837e-01 1.33744076e-01 8.85288231e-03
      2.80461870e-02 1.76461749e-02 8.19165334e-02 9.54134911e-02
      1.53923333e-01 2.47948691e-01 1.20027095e-01 6.22560829e-02
      7.16084940e-03 5.55549376e-03 2.30622990e-03 1.07989227e-02
      1.06842376e-01 3.38375479e-01 3.38375479e-01 2.59269863e-01
      5.54742105e-02 1.27303344e-03 6.16813311e-03 4.43162955e-03
      3.15572098e-02 8.03799480e-02 2.64281124e-01 3.04441512e-01
      1.13101840e-01 3.85327190e-02 2.55626836e-03 1.72914553e-03
      9.25147673e-04 1.48828691e-02 2.97151953e-01 3.38375479e-01
      3.38375479e-01 2.47284651e-01 4.83787097e-02 9.96685121e-04
      2.30760383e-03 8.98048922e-04 5.80550171e-03 4.30329107e-02
      3.60920817e-01 3.60920817e-01 1.01962626e-01 1.17660118e-02
      2.94964015e-03 3.77567634e-02 1.19435992e-02 1.08525567e-02
      3.18350247e-03 2.61508793e-01 2.70413458e-01 3.47609185e-02
      6.75248429e-02 6.77751005e-02 8.33468977e-04 7.38234492e-04
      5.08738682e-03 1.51859865e-01 3.60920817e-01 3.60920817e-01
      1.47539005e-01 9.22149513e-03 6.80255471e-04 4.02628332e-02
      2.20394768e-02 1.22405076e-02 1.06906053e-02 3.60920817e-01
      3.60920817e-01 2.90189944e-02 1.21117998e-02 2.25062054e-02
      1.46389687e-02 1.48286726e-02 1.29435547e-02 3.21772665e-01
      3.21772665e-01 3.73948663e-02 4.52666217e-03 1.45248137e-02
      1.79366320e-02 4.39393613e-03 2.24975944e-02 4.55799364e-02
      2.46566981e-01 3.21772665e-01 3.21772665e-01 1.84588470e-02
      1.94218419e-02 9.45456233e-03 2.19815206e-02 2.48133484e-03
      1.16585745e-02 2.79442251e-01 3.21772665e-01 6.69445023e-02
      3.63730011e-03 1.38985338e-02 2.49531716e-02 1.12038497e-02
      2.28990950e-02 1.16733789e-01 3.21772665e-01 3.21772665e-01
      3.21772665e-01 5.56599088e-02 1.26945172e-02 1.28571708e-02
      6.99994154e-03 1.04801226e-02 5.38768396e-02 1.71380252e-01
      3.17734540e-01 3.17734540e-01 4.13596556e-02 7.77206384e-03
      1.59792800e-03 4.22341265e-02 3.25274095e-02 6.06015362e-02
      1.00649670e-01 2.80588150e-01 2.42059782e-01 9.77833048e-02
      1.08043998e-01 2.50622556e-02 7.42063159e-03 2.50366069e-02
      1.21191569e-01 3.17734540e-01 3.17734540e-01 3.17734540e-01
      9.58149731e-02 1.38716036e-02 5.06429048e-03 2.55089197e-02
      2.05128826e-02 6.13471866e-02 1.64923221e-01 3.17734540e-01
      3.17734540e-01 1.12178639e-01 9.99713391e-02 2.68494096e-02
      3.28359492e-02 1.92969423e-02 2.23767683e-02 3.80609855e-02
      8.53741467e-02 1.58572555e-01 2.53606319e-01 2.89229184e-01
      4.43374105e-02 2.71429215e-03 1.64500042e-03 2.42492114e-03
      2.51812842e-02 2.63047725e-01 2.99820751e-01 2.89875001e-01
      1.56799391e-01 1.24019412e-02 3.30296531e-02 1.70768518e-02
      2.76122913e-02 7.91730210e-02 2.99820751e-01 2.99820751e-01
      1.47987068e-01 2.86290765e-01 4.95255776e-02 8.10730830e-03
      7.49202259e-03 1.23915346e-02 4.10176441e-02 2.99820751e-01
      2.99820751e-01 1.84987068e-01 1.78866848e-01 1.61378216e-02
      6.08621165e-03 1.19485436e-02 2.64622830e-02 1.03595443e-01
      3.00924271e-01 3.00924271e-01 8.61346573e-02 1.76585373e-02
      2.42441054e-03 5.92330005e-03 1.25593944e-02 3.15011591e-02
      3.00924271e-01 3.00924271e-01 3.00924271e-01 1.67027920e-01
      3.14780585e-02 2.58443761e-03 4.55131270e-02 4.91610691e-02
      7.61440545e-02 1.16070583e-01 3.00924271e-01 3.00924271e-01
      5.32953218e-02 2.95295101e-02 2.25876141e-02 5.41838221e-02
      5.15695289e-02 8.26678053e-02 1.73516959e-01 3.00924271e-01
      3.00924271e-01 2.19084978e-01 1.06752589e-01 5.14922738e-02
      4.12901893e-04 9.58347518e-04 2.89773825e-03 1.02397107e-01
      3.40125024e-01 3.40125024e-01 1.29186183e-01 1.56034166e-02
      5.84207010e-04 9.12394095e-03 5.12509327e-03 6.44118944e-03
      1.18154408e-02 3.40125024e-01 3.40125024e-01 3.36931795e-02
      2.40558060e-03 4.29954054e-03 4.83940030e-03 3.94771434e-03
      6.80250209e-03 5.09463698e-02 3.40125024e-01 3.40125024e-01
      1.81420401e-01 6.07826449e-02 1.49455285e-02 3.11467471e-03
      7.53409695e-05 2.71863211e-03 3.47628556e-02 3.40125024e-01
      3.40125024e-01 3.79137062e-02 7.43446965e-03 3.67701030e-03
      1.04502747e-02 0. 3.29607632e-03 7.42443278e-02 3.70340765e-01
      1.72170162e-01 8.30073468e-03 8.60265549e-03 1.54142166e-02
      1.26313521e-02 2.63295174e-02 6.42794520e-02 1.86470941e-01
      3.70340765e-01 3.70340765e-01 1.04376532e-01 1.75374709e-02
      2.02578995e-02 7.32590910e-03 0. 2.91131262e-04 4.47207969e-03
      3.70340765e-01 2.79743314e-01 4.15061507e-03 6.22357568e-03
      1.10532138e-02 1.34994434e-02 9.94387642e-03 1.46803679e-02
      4.59361486e-02 3.70340765e-01 3.70340765e-01 6.78969771e-02
      1.52609218e-02 2.01159064e-02 8.52519274e-03 2.32337546e-02
      5.52599877e-02 1.12595037e-01 3.44834983e-01 3.44834983e-01
      6.40774742e-02 8.69893190e-03 6.29026163e-03 6.79175276e-03
      8.69407970e-03 3.27386595e-02 7.14759231e-02 3.44834983e-01
      3.36019337e-01 4.62001748e-02 2.25943122e-02 4.96220170e-03
      4.44765855e-03 1.16169881e-02 1.75199732e-02 9.08056647e-02
      3.44834983e-01 3.44834983e-01 4.37810495e-02 3.28212953e-03
      3.23091308e-03 1.46917033e-03 4.85949172e-03 1.53488489e-02
      1.03050910e-01 3.44834983e-01 3.44834983e-01 1.41702155e-02
      1.82948809e-03 5.93774719e-04 5.65044396e-03 3.74607043e-03
      1.26083344e-02 3.31732631e-02 3.68015379e-01 2.82990187e-01
      4.26983573e-02 5.44033125e-02 6.59269281e-03 3.24458675e-03
      3.46553791e-03 5.87312877e-03 3.16221677e-02 3.68015379e-01
      3.68015379e-01 3.95970158e-02 3.37811522e-02 3.10493587e-03 0.
      6.52099770e-05 5.06617082e-03 6.30736053e-02 3.68015379e-01
      2.84457177e-01 8.54279753e-03 2.98929540e-03 2.81267712e-04
      9.22208885e-04 1.65035564e-03 2.33988580e-03 9.30536464e-02
      3.68015379e-01 3.68015379e-01 6.75940653e-03 1.96530763e-03
      9.07542184e-04 5.00852577e-02 2.92935316e-02 3.69281135e-02
      7.05273896e-02 3.61406475e-01 3.61406475e-01 2.45520566e-02
      3.02271303e-02 3.62686887e-02 6.10425659e-02 2.88135316e-02
      3.82429473e-02 1.14412837e-01 3.61406475e-01 2.09106848e-01
      1.07134447e-01 9.70494822e-02 6.74061179e-02 1.98611505e-02
      2.26591174e-02 1.38796102e-02 1.02977209e-01 3.61406475e-01
      3.61406475e-01 1.02664698e-02 1.30846668e-02 1.60962604e-02
      2.26436350e-02 2.22270619e-02 1.76489651e-02 2.19767913e-01
      3.61406475e-01 2.20805645e-01 2.11021341e-02 2.08803248e-02
      1.99238732e-02 4.94890241e-03 1.94232562e-03 3.06706643e-03
      1.13277167e-01 4.01331663e-01 2.22201288e-01 6.68896139e-02
      3.56606282e-02 1.30740795e-02 9.03642445e-04 0. 4.86167526e-04
      9.11857113e-02 4.01331663e-01 3.07874948e-01 1.36455335e-02
      3.14974645e-03 1.27493229e-03 1.58900034e-03 1.11581245e-03
      1.67257129e-03 1.85632244e-01 4.01331663e-01 2.37596378e-01
      5.02170995e-03 2.91996216e-03 1.66282488e-03 6.75078074e-04 0. 0.
      1.46004423e-01 4.01331663e-01 2.60747761e-01 2.60256813e-04
      2.81568937e-05 6.80912461e-04 9.16694663e-03 0. 5.17230656e-04
      3.86481583e-02 4.10377026e-01 2.18226522e-01 7.23353680e-03
      2.68279249e-03 9.28535964e-03 1.86264385e-02 1.47357956e-03
      1.40921725e-02 8.07537735e-02 4.10377026e-01 3.70654523e-01
      4.47232090e-02 7.72650680e-03 1.86142642e-02 8.58619343e-03
      2.72064609e-03 8.26054625e-03 1.01796687e-01 4.10377026e-01
      1.48590595e-01 1.15837725e-02 1.07791927e-02 8.58619343e-03
      1.92116592e-02 6.76892372e-03 2.91093811e-02 1.80302501e-01
      4.10377026e-01 2.39735723e-01 3.61082479e-02 1.49689643e-02
      1.92116592e-02 2.56865867e-03 3.79200629e-03 1.32460957e-02
      1.44182175e-01 3.76693219e-01 2.83219308e-01 1.67242512e-02
      1.07387616e-03 2.24635331e-03 1.58968818e-04 6.42039860e-03
      1.11280121e-02 2.03974217e-01 3.76693219e-01 2.16011092e-01
      5.02245547e-03 1.68161030e-04 0. 5.05384197e-03 6.62406115e-03
      2.02551484e-02 2.04204217e-01 3.76693219e-01 2.59576797e-01
      1.54477721e-02 5.23399096e-03 1.25554521e-02 5.54537214e-03
      1.75139308e-02 3.06423027e-02 2.81511605e-01 3.76693219e-01
      2.15403423e-01 2.89388355e-02 1.51565745e-02 2.70385221e-02 0.
      9.77622252e-03 9.49958526e-03 1.58701941e-01 3.82417679e-01
      1.79706201e-01 4.01452649e-03 5.73501457e-04 0. 5.35396393e-05
      7.44937081e-03 6.93095988e-03 1.85973704e-01 3.82417679e-01
      2.77226955e-01 2.30871141e-03 7.49483588e-04 4.33715235e-04
      4.67488635e-03 3.48637290e-02 3.69970053e-02 2.66429693e-01
      3.82417679e-01 1.34015828e-01 2.89484970e-02 2.43893452e-02
      2.65971962e-02 2.43277824e-03 2.47348770e-02 2.52943449e-02
      3.41231436e-01 3.82417679e-01 1.71545520e-01 2.82813739e-02
      1.54327163e-02 1.09165385e-02 5.24966652e-03 1.22512244e-02
      1.56010035e-02 1.46937773e-01 3.54852498e-01 3.36744964e-01
      5.37981885e-03 4.27083904e-03 3.24481819e-03 6.75118295e-03
      1.72710493e-02 4.79518957e-02 2.60279208e-01 3.54852498e-01
      1.41523704e-01 8.48051347e-03 7.32332794e-03 2.71344720e-03
      2.28037545e-03 9.90057271e-03 2.34967899e-02 2.10097536e-01
      3.54852498e-01 3.07266831e-01 9.34095830e-02 4.25744876e-02
      1.35556264e-02 9.98350605e-03 2.14873925e-02 8.94959420e-02
      2.92127222e-01 3.54852498e-01 1.14722431e-01 8.06018189e-02
      5.10185733e-02 2.56018434e-02 7.80235627e-04 5.11860661e-03
      2.03467887e-02 1.69773161e-01 3.81041855e-01 2.16215178e-01
      3.66101367e-03 3.75996344e-03 4.40413278e-05 7.89947982e-04
      9.66936233e-04 2.86369468e-03 1.50212213e-01 3.81041855e-01
      1.96783438e-01 7.87299126e-04 8.24408780e-04 7.43108511e-04
      6.24583242e-03 1.06247300e-02 6.64245263e-02 3.53649914e-01
      3.81041855e-01 8.18241388e-02 2.55078655e-02 1.80374496e-02
      1.24290204e-02 2.29152199e-03 2.02606409e-03 2.39325706e-02
      3.29821348e-01 3.81041855e-01 1.76608235e-01 6.51558954e-03
      3.86347855e-03 3.47800436e-03 1.00199720e-02 6.14036247e-03
      1.89889148e-02 3.06195896e-02 3.41421336e-01 2.38781214e-01
      1.44772455e-02 1.92975439e-02 1.03554046e-02 1.29515082e-02
      1.19985146e-02 3.75568569e-02 1.10544600e-01 3.41421336e-01
      3.14884514e-01 3.71659659e-02 2.24839300e-02 1.33827794e-02
      1.24745341e-02 6.13913732e-03 2.81943567e-02 1.52708478e-02
      3.41421336e-01 3.41421336e-01 5.08668311e-02 1.55329313e-02
      1.39280763e-02 6.82715466e-03 1.12321740e-02 7.85436556e-02
      3.28920811e-01 3.41421336e-01 3.41421336e-01 6.00603893e-02
      2.04321742e-02 8.69599450e-03 7.78868934e-03 8.99845734e-03
      2.81006135e-02 2.17076033e-01 3.12380075e-01 3.12380075e-01
      2.30841972e-02 1.18793482e-02 1.89685877e-02 2.55305525e-02
      2.89541371e-02 5.29524907e-02 2.88668305e-01 3.12380075e-01
      2.09534362e-01 4.22033109e-02 3.54953520e-02 6.35223091e-02
      7.44631933e-03 1.03151407e-02 6.36098236e-02 3.12380075e-01
      3.12380075e-01 2.82701492e-01 2.91361753e-02 2.05131955e-02
      1.21366456e-02 5.97700365e-02 1.20086335e-01 8.23000744e-02
      3.11566472e-01 3.12380075e-01 1.07243590e-01 3.34007181e-02
      3.61413546e-02 4.88968045e-02 1.00202739e-01 9.88181457e-02
      7.76375011e-02 2.81532824e-01 2.81532824e-01 1.07025832e-01
      5.64776026e-02 7.46602416e-02 1.43698931e-01 7.65421391e-02
      1.01791523e-01 9.18628275e-02 2.81532824e-01 2.81532824e-01
      1.64597914e-01 6.25537112e-02 4.15627733e-02 6.22005872e-02
      2.81532824e-01 2.81532824e-01 1.30125374e-01 1.18517809e-01
      1.34843975e-01 1.98208988e-02 2.79940031e-02 4.17876057e-02
      1.21735029e-01 2.41571426e-01 2.81532824e-01 2.37522125e-01
      2.81532824e-01 2.17957005e-01 3.98265570e-02 2.73808688e-02
      2.67310608e-02 5.39045930e-02 7.35447090e-03 2.96438672e-02
      4.39272635e-02 2.50646472e-01 2.82734126e-01 2.82734126e-01
      1.60281256e-01 6.19802848e-02 1.18790437e-02 2.03791317e-02
      2.37379093e-02 1.28319994e-01 2.82734126e-01 2.82734126e-01
      1.55867949e-01 1.53621778e-01 7.93514550e-02 4.91290502e-02
      3.72512192e-02 1.93321139e-01 2.49186113e-01 2.21464649e-01
      1.88579172e-01 1.33207232e-01 7.31995851e-02 3.73626538e-02
      1.42494701e-02 2.24269498e-02 1.77701175e-01 2.82734126e-01
      2.82734126e-01 2.82734126e-01 1.32472321e-01 7.31400549e-02
      4.30832393e-02 3.45883705e-02 1.33490227e-02 9.06430837e-03
      1.43910587e-01 3.27278823e-01 3.27278823e-01 5.16797677e-02
      4.37365547e-02 2.82441396e-02 2.91846357e-02 3.05463257e-03
      1.13530725e-03 5.89571372e-02 3.27278823e-01 3.27278823e-01
      1.29898950e-01 1.35323303e-02 5.09959692e-03 5.90335950e-03
      8.01248942e-03 3.47965918e-02 2.69399464e-01 3.27278823e-01
      3.27278823e-01 8.38118792e-02 2.11881250e-02 1.41261891e-02
      1.34064807e-02 2.77393498e-03 4.30276245e-03 5.84912300e-02
      3.27278823e-01 3.27278823e-01 8.21409002e-02 1.06864814e-02
      2.84842867e-03 3.10823089e-03</_>
    <_>
      1.17775843e-01 1.17141128e-01 1.22116268e-01 3.14558417e-01
      3.14558417e-01 7.74848834e-02 5.06740287e-02 5.92857376e-02
      5.76762110e-02 1.02071844e-01 5.49814031e-02 4.34778035e-02
      9.12617519e-02 1.64930895e-01 3.14558417e-01 3.11772555e-01
      1.53299034e-01 8.20073485e-02 2.58983243e-02 1.98348109e-02
      6.01390339e-02 3.14558417e-01 3.14558417e-01 8.76055658e-02
      2.69195121e-02 1.68097578e-02 1.08298790e-02 2.67462842e-02
      1.93339530e-02 3.00418064e-02 1.56298801e-01 3.14558417e-01
      3.14558417e-01 1.63236558e-01 3.70006040e-02 1.01102432e-02
      9.01726168e-03 1.13789819e-03 1.19223287e-02 1.07160665e-01
      3.30444276e-01 3.30444276e-01 1.83052421e-01 5.08929975e-02
      1.58436913e-02 1.16876895e-02 1.05873719e-02 3.26055065e-02
      1.37908667e-01 2.85020649e-01 2.44692415e-01 1.21702760e-01
      2.01616138e-02 8.40693060e-03 5.75480564e-03 1.79931079e-03
      1.88614633e-02 1.15557224e-01 3.30444276e-01 3.30444276e-01
      1.05899297e-01 9.97080840e-03 3.23725794e-03 2.33059861e-02
      1.02905948e-02 5.85511327e-02 2.48321354e-01 3.30444276e-01
      3.30444276e-01 1.50719091e-01 5.09950854e-02 2.49428377e-02
      3.30990888e-02 5.33925295e-02 4.42906208e-02 6.71131909e-02
      2.04156145e-01 2.85937488e-01 3.03439200e-01 5.19338101e-02
      2.49992255e-02 4.68832888e-02 7.03361332e-02 1.26926094e-01
      1.84272274e-01 2.27138594e-01 2.33802721e-01 1.65004417e-01
      4.21803817e-02 2.91697085e-02 3.71294506e-02 2.35370360e-02
      4.54280078e-02 1.69955641e-01 1.12551190e-01 2.50294894e-01
      3.03439200e-01 2.30566278e-01 5.14320992e-02 1.56576838e-02
      2.46084351e-02 7.18815476e-02 1.38872907e-01 2.83286363e-01
      3.03439200e-01 3.03439200e-01 1.68430865e-01 1.55707709e-02
      2.27957461e-02 2.93480475e-02 6.69052005e-02 1.25095069e-01
      1.18197791e-01 2.13329479e-01 1.37253284e-01 4.22358662e-02
      2.00206917e-02 7.21700909e-03 8.96479003e-03 7.47698639e-03
      5.63843586e-02 3.39891374e-01 3.39891374e-01 3.22782576e-01
      3.78731787e-02 1.14998613e-02 7.82000273e-03 1.75150968e-02
      4.05911319e-02 1.08688876e-01 2.41446257e-01 3.39891374e-01
      1.57901168e-01 3.00430097e-02 1.06830858e-02 3.02952342e-03
      7.39820441e-03 6.37990236e-03 1.62631184e-01 3.39891374e-01
      3.39891374e-01 2.87706971e-01 1.95583161e-02 7.43394298e-03
      9.58745077e-04 6.54894917e-04 1.40873063e-03 2.73614861e-02
      3.47325116e-01 3.47325116e-01 1.22981630e-01 7.52587104e-03
      9.58745077e-04 1.58274416e-02 3.02827079e-03 4.02307231e-03
      2.15172358e-02 2.80956745e-01 3.45516533e-01 9.15029570e-02
      8.28799978e-02 2.74482705e-02 1.36451228e-04 0. 1.10587198e-03
      1.15459256e-01 3.47325116e-01 3.47325116e-01 1.53338179e-01
      1.37578556e-03 1.36451228e-04 1.42018078e-02 5.89779811e-03
      1.54009962e-03 5.34782335e-02 3.47325116e-01 3.47325116e-01
      2.81284023e-02 1.95354279e-02 2.48344913e-02 1.58047210e-02
      4.56772139e-03 3.78908813e-02 3.30890775e-01 3.30890775e-01
      4.58264984e-02 4.33261413e-03 1.58514525e-03 1.53610343e-02
      7.78066134e-03 8.65486544e-03 3.09783127e-02 2.42050901e-01
      3.30890775e-01 3.30890775e-01 2.15752404e-02 2.36095535e-03
      7.21604703e-03 1.99687835e-02 8.69612582e-03 3.04777045e-02
      3.30890775e-01 3.30890775e-01 6.33877367e-02 1.05557097e-02
      7.19026430e-03 1.81293543e-02 4.02647676e-03 1.15798078e-02
      7.00467378e-02 3.30890775e-01 3.30890775e-01 2.12175801e-01
      1.92512590e-02 1.21367034e-02 2.69068917e-03 2.84503633e-03
      1.53718039e-03 1.83665734e-02 1.55956715e-01 3.17702532e-01
      3.17702532e-01 1.50604984e-02 3.28752794e-03 2.47513154e-03
      1.37245459e-02 1.61375534e-02 3.21565680e-02 1.57585815e-01
      3.17702532e-01 3.06208372e-01 4.97610010e-02 3.83792706e-02
      2.09365040e-02 3.14962259e-03 2.15646997e-03 5.71329594e-02
      3.17702532e-01 3.17702532e-01 3.17702532e-01 1.15885800e-02
      7.13044358e-03 1.68577000e-03 1.36106592e-02 1.49876671e-02
      3.72964144e-02 1.79578990e-01 3.17702532e-01 3.17702532e-01
      2.52728239e-02 3.86502706e-02 1.77862458e-02 2.10561417e-02
      2.78326962e-02 2.81645451e-02 9.21163484e-02 1.07892133e-01
      1.23015836e-01 2.93536276e-01 1.71442375e-01 4.72743101e-02
      5.14646061e-03 5.54951373e-03 4.33709100e-03 3.21201868e-02
      2.29449421e-01 3.06031734e-01 3.06031734e-01 1.37428328e-01
      1.69376712e-02 2.31734421e-02 3.47943641e-02 4.30458896e-02
      1.02250405e-01 3.06031734e-01 3.06031734e-01 2.11336732e-01
      1.63276300e-01 6.08996786e-02 9.60703287e-03 1.21057751e-02
      1.56939402e-02 5.11070229e-02 3.06031734e-01 3.06031734e-01
      3.06031734e-01 1.41261041e-01 3.50130983e-02 1.44412660e-03
      3.35362717e-03 1.14750201e-02 6.59899116e-02 3.06191146e-01
      3.06191146e-01 1.42814294e-01 1.34712420e-02 8.97734542e-04
      1.39647920e-03 4.76840278e-03 2.09857486e-02 2.98943728e-01
      3.06191146e-01 3.06191146e-01 8.95771235e-02 2.13655550e-03
      8.74817197e-04 1.17857419e-02 1.57959256e-02 6.58881888e-02
      9.50345844e-02 3.06191146e-01 3.06191146e-01 1.29339740e-01
      1.26348315e-02 1.95156829e-03 1.64696053e-02 3.38467173e-02
      1.02825135e-01 2.64903128e-01 3.06191146e-01 3.06191146e-01
      1.04053035e-01 1.77463796e-02 4.22010245e-03 6.24340755e-05
      4.96424036e-04 4.04955260e-03 1.77191958e-01 3.40769410e-01
      3.40769410e-01 6.96548149e-02 1.83819060e-03 4.03431477e-05
      6.24703383e-03 1.84912293e-03 1.00096152e-03 3.98654006e-02
      3.40769410e-01 3.40769410e-01 2.09802743e-02 1.58951012e-03
      5.49654476e-03 1.70910510e-03 5.25734341e-03 1.23385629e-02
      1.10931449e-01 3.40769410e-01 3.40769410e-01 1.16171673e-01
      2.60282569e-02 6.21968822e-04 2.11902894e-03 2.17627487e-04
      7.37598515e-04 3.31283808e-02 3.40769410e-01 3.40769410e-01
      3.65653187e-02 1.12593481e-02 1.29794108e-03 1.29607255e-02
      1.32510019e-02 2.15540901e-02 1.20563366e-01 3.68575454e-01
      1.22441262e-01 3.51096205e-02 1.95552949e-02 7.37167010e-03
      5.84497442e-03 1.21284500e-02 5.10270149e-02 2.34187067e-01
      3.68575454e-01 3.68575454e-01 8.87024552e-02 4.51592654e-02
      1.15058909e-03 5.84698701e-03 5.67453448e-03 9.56532639e-03
      4.21554781e-02 3.68575454e-01 1.96861625e-01 6.48630559e-02
      2.30059270e-02 3.38554359e-03 6.84931502e-03 5.83094312e-03
      1.95617545e-02 7.08010420e-02 3.68575454e-01 3.68575454e-01
      1.67764783e-01 5.11528812e-02 3.53242573e-03 3.94412875e-03
      2.54409341e-03 4.01855148e-02 1.88426346e-01 3.46608877e-01
      2.74369121e-01 2.78154947e-02 8.71618558e-03 1.43521698e-03
      8.56850576e-03 5.11670811e-03 2.73602437e-02 1.13642454e-01
      3.46608877e-01 3.40977579e-01 1.77438483e-02 1.65139865e-02
      6.17345516e-03 5.66358212e-03 2.89838854e-03 1.90314893e-02
      1.00592256e-01 3.46608877e-01 3.46608877e-01 7.67881870e-02
      9.84743517e-03 1.79076008e-03 6.79355767e-03 2.86224228e-03
      1.51498588e-02 1.18168212e-01 3.46608877e-01 3.46608877e-01
      3.14978100e-02 4.85042250e-03 1.89680164e-03 4.91278898e-03
      6.94843708e-03 1.45275658e-02 3.73918824e-02 3.76378745e-01
      2.51651973e-01 5.99737614e-02 2.95551252e-02 1.66148338e-02
      1.72242627e-03 3.11531383e-03 7.39015173e-03 2.64221895e-02
      3.76378745e-01 3.76378745e-01 1.02926798e-01 2.32567322e-02
      1.15548596e-02 1.26442302e-03 5.49911289e-04 3.03466641e-03
      4.19904068e-02 3.76378745e-01 2.67436117e-01 6.75289566e-03
      1.36210793e-03 1.69644388e-03 0. 2.28221877e-04 1.07320049e-03
      4.19608988e-02 3.76378745e-01 3.61829817e-01 1.06551964e-02
      5.38771681e-04 1.12463150e-03 1.11487284e-02 1.58927497e-02
      5.23439832e-02 6.31758124e-02 3.88255745e-01 3.88255745e-01
      5.66169992e-02 1.14811109e-02 4.12818836e-03 2.02732980e-02
      4.03347425e-02 7.58302957e-02 8.30915347e-02 2.65675485e-01
      2.55526245e-01 1.20115384e-01 3.07045430e-02 9.08201467e-03
      8.20795633e-03 1.41867865e-02 1.77452806e-02 6.64325207e-02
      3.88255745e-01 3.88255745e-01 2.50177421e-02 1.37936445e-02
      3.84025765e-03 1.55421626e-02 2.74141766e-02 3.36822979e-02
      1.17749371e-01 3.88255745e-01 1.96170956e-01 7.02587739e-02
      2.47768126e-02 8.38975515e-03 2.74544815e-03 7.27442559e-03
      8.35205987e-03 6.95955530e-02 3.62440735e-01 3.06375653e-01
      1.03667632e-01 2.52649989e-02 1.35075767e-03 5.82778477e-04
      3.91021313e-05 1.30748725e-04 8.75716209e-02 3.62440735e-01
      3.62440735e-01 2.77987439e-02 9.42334067e-03 5.82778477e-04
      2.14076741e-03 4.26024804e-03 6.17300440e-03 1.58406749e-01
      3.62440735e-01 2.42391542e-01 4.01250459e-02 5.65563515e-03
      1.24295871e-03 2.64135801e-04 0. 3.58471909e-04 1.54783279e-01
      3.62440735e-01 3.33499968e-01 8.54837149e-03 7.08441483e-04
      2.64135801e-04 3.56834824e-03 0. 1.24153160e-02 4.84004281e-02
      4.04420674e-01 2.20187739e-01 4.15481776e-02 9.14566312e-03
      3.56834824e-03 4.61134128e-03 1.98155438e-04 9.65635665e-03
      5.65663688e-02 4.04420674e-01 4.04420674e-01 8.26059952e-02
      1.80987623e-02 4.21818020e-03 3.52962269e-03 3.54210410e-04
      1.35238338e-02 9.93721187e-02 4.04420674e-01 1.98735476e-01
      1.12964129e-02 7.24071288e-04 3.52962269e-03 7.20646419e-03
      4.55413392e-04 1.10569131e-02 1.30417168e-01 4.04420674e-01
      2.18036577e-01 1.99503452e-02 1.29402557e-03 7.20646419e-03
      1.50211633e-03 3.63316038e-04 1.00951851e-03 1.03559434e-01
      3.99631649e-01 2.89383978e-01 3.24416459e-02 4.01007384e-03
      7.81258859e-04 6.84728264e-04 2.82579160e-04 4.37458046e-03
      2.10541829e-01 3.99631649e-01 2.13759273e-01 1.56989377e-02
      3.52246757e-03 1.24061378e-04 2.42941245e-03 5.64606453e-04
      3.38496384e-03 1.59037143e-01 3.99631649e-01 1.73538551e-01
      6.28897408e-03 2.58008600e-03 2.35748640e-03 3.66016314e-03
      2.33736448e-03 1.77393034e-02 3.04624170e-01 3.99631649e-01
      1.49937674e-01 1.06840786e-02 1.15245497e-02 3.26027442e-03 0.
      1.17977746e-04 6.48764148e-03 1.45410672e-01 3.89630526e-01
      1.50898486e-01 2.19332264e-03 1.07536442e-03 0. 0. 1.51685657e-04
      6.06031297e-03 1.47479370e-01 3.89630526e-01 2.24342421e-01
      1.06341660e-03 0. 0. 3.86309787e-03 2.53714412e-03 4.63377014e-02
      2.92101622e-01 3.89630526e-01 8.85301381e-02 1.05850287e-02
      9.65673104e-03 3.26853315e-03 1.94316648e-03 1.97314005e-03
      5.11787906e-02 3.89630526e-01 3.89630526e-01 1.50810480e-01
      5.31309610e-03 4.54278942e-03 1.58469880e-03 7.57951336e-03
      9.78050753e-03 9.33614373e-03 1.36423007e-01 3.55447233e-01
      3.39381248e-01 5.56745473e-03 4.87064989e-03 2.87588988e-03
      1.24495029e-02 1.28477318e-02 1.81105677e-02 1.24729142e-01
      3.55447233e-01 1.44235581e-01 1.09014185e-02 6.52816379e-03
      6.27521053e-03 5.72297536e-03 5.35762217e-03 1.44929271e-02
      3.55447233e-01 3.55447233e-01 3.13010573e-01 1.13565987e-02
      8.51685181e-03 7.26949656e-03 1.26031768e-02 1.02739548e-02
      1.73167549e-02 2.60949671e-01 3.55447233e-01 1.60626993e-01
      1.59069374e-02 9.24882106e-03 1.14259869e-02 1.90531835e-03
      1.50827446e-03 5.81471715e-03 1.50881395e-01 3.71640325e-01
      2.06354737e-01 3.07114562e-03 7.00217264e-04 1.03862979e-03
      5.66402043e-04 8.52010344e-05 7.65120320e-04 1.96039110e-01
      3.71640325e-01 2.59256363e-01 2.61017150e-04 0. 4.49673331e-04
      5.45760989e-03 4.24092030e-03 1.76526029e-02 3.28610659e-01
      3.71640325e-01 9.90886018e-02 2.44076829e-03 6.70394627e-04
      1.47966004e-03 2.24484829e-03 1.27801544e-03 7.08068768e-03
      3.71640325e-01 3.71640325e-01 1.28184482e-01 1.71104053e-04 0.
      4.93918429e-04 5.56009542e-03 1.46411615e-03 8.25013593e-03
      2.89774053e-02 3.86131436e-01 2.57261753e-01 9.64894425e-03 0.
      5.56009542e-03 7.24686217e-03 1.88243517e-03 1.18583860e-02
      9.15816054e-02 3.86131436e-01 1.97501436e-01 1.25559205e-02 0.
      7.24686217e-03 1.13487244e-02 1.13875710e-03 7.28583336e-03
      5.96018322e-03 3.86131436e-01 3.86131436e-01 1.69503111e-02
      2.72389967e-04 1.13487244e-02 1.10021885e-03 1.46411615e-03
      3.04014143e-02 2.06640095e-01 3.86131436e-01 3.01235348e-01
      2.41335165e-02 4.08584950e-03 1.10021885e-03 4.66455845e-03
      3.03260749e-03 6.52985135e-03 1.41077682e-01 3.46023023e-01
      1.99523032e-01 3.26372171e-03 2.49812845e-03 4.26591467e-03
      1.38529046e-02 1.22816181e-02 3.40734385e-02 2.78081745e-01
      3.46023023e-01 1.66797757e-01 1.25968019e-02 1.79763567e-02
      1.45550184e-02 2.18417542e-03 5.95641695e-03 2.83649769e-02
      3.46023023e-01 3.46023023e-01 2.63402134e-01 4.78549767e-03
      1.98321138e-03 1.80957397e-03 3.68441828e-02 3.93119343e-02
      5.02019525e-02 3.46023023e-01 3.46023023e-01 1.84327230e-01
      1.55172236e-02 1.90304071e-02 2.69022249e-02 4.21083234e-02
      1.96330044e-02 8.88148025e-02 3.04332346e-01 3.04332346e-01
      1.12460449e-01 3.55469882e-02 4.14187945e-02 4.34626713e-02
      3.41894552e-02 2.22808346e-02 9.88175422e-02 3.04332346e-01
      3.04332346e-01 1.35436714e-01 2.52400059e-02 2.92416569e-02
      3.40269245e-02 1.83457330e-01 1.89071015e-01 8.45917836e-02
      1.87712863e-01 2.95895278e-01 7.14436397e-02 4.05816659e-02
      5.60006127e-02 9.65454951e-02 1.93107218e-01 2.89468348e-01
      1.76068515e-01 3.04332346e-01 3.04332346e-01 4.56667654e-02
      2.41899714e-02 3.95873152e-02 7.99108595e-02 1.08254347e-02
      9.28094145e-03 2.96101533e-02 2.96594054e-01 2.96594054e-01
      2.83423901e-01 6.22356050e-02 5.84751256e-02 4.22382131e-02
      1.80722866e-02 1.52787864e-02 3.84604111e-02 2.96594054e-01
      2.96594054e-01 1.85383126e-01 6.45287186e-02 6.38449639e-02
      4.49167043e-02 5.50645404e-02 1.08977333e-01 1.35336965e-01
      2.84515798e-01 2.96594054e-01 1.47871092e-01 6.94664046e-02
      7.50757307e-02 6.50685057e-02 3.05408034e-02 3.73677611e-02
      2.09322110e-01 2.96594054e-01 2.96594054e-01 1.77493006e-01
      7.81738609e-02 8.29825476e-02 5.22428378e-02 5.57186268e-03
      4.95747756e-03 5.09995073e-02 3.35491627e-01 3.35491627e-01
      5.95218875e-02 9.91318654e-03 1.37102334e-02 5.28334919e-03
      1.87378295e-03 8.24752846e-04 4.28370535e-02 3.35491627e-01
      3.35491627e-01 1.25488967e-01 3.32777482e-03 2.14825221e-03
      9.04735411e-04 1.16871316e-02 9.42923315e-03 1.70111716e-01
      3.35491627e-01 3.31896216e-01 1.08739063e-01 1.87947080e-02
      2.51975674e-02 9.96591151e-03 1.76626176e-03 0. 8.14585984e-02
      3.35491627e-01 3.35491627e-01 1.60138309e-01 1.06970537e-02
      4.08520829e-03 2.11921334e-03</_>
    <_>
      2.24093478e-02 8.68000835e-02 1.53692439e-01 3.30147773e-01
      3.30147773e-01 2.50957400e-01 4.32558656e-02 1.18341101e-02
      1.03914067e-02 7.46721476e-02 1.46424159e-01 1.43419489e-01
      2.98002273e-01 1.22695401e-01 1.55814886e-01 9.31383297e-02
      9.21088383e-02 8.19701850e-02 2.42314264e-02 1.19753387e-02
      2.24328905e-01 3.30147773e-01 3.27434063e-01 1.41904652e-01
      5.91864847e-02 3.01062986e-02 1.65067576e-02 2.31028609e-02
      4.01124209e-02 1.04787260e-01 3.30147773e-01 2.31330618e-01
      1.03440978e-01 5.28531671e-02 3.05896476e-02 1.42045943e-02
      3.42875905e-02 3.65014710e-02 2.42557693e-02 5.10793589e-02
      2.60009497e-01 3.34460437e-01 1.77494779e-01 1.06607102e-01
      5.63436747e-02 4.88416431e-03 2.29421929e-02 4.25978787e-02
      1.86222568e-01 3.34460437e-01 3.34460437e-01 6.84059560e-02
      2.75979657e-02 1.11629041e-02 1.38756717e-02 2.12038420e-02
      4.50270511e-02 1.16765566e-01 3.34460437e-01 3.34460437e-01
      6.72734380e-02 2.90200673e-02 9.07583628e-03 3.61913331e-02
      7.20954016e-02 6.29865527e-02 1.29151762e-01 3.34460437e-01
      3.34460437e-01 3.14848721e-02 2.64698677e-02 3.23555805e-02
      2.28343159e-02 6.50712848e-02 8.65377486e-02 2.16273576e-01
      2.71804750e-01 2.21044481e-01 1.18143514e-01 8.36849287e-02
      4.75713015e-02 2.67475434e-02 2.75146347e-02 5.22314087e-02
      9.91337374e-02 1.96994349e-01 2.71804750e-01 2.16710493e-01
      1.22139767e-01 4.16622497e-02 9.58527178e-02 1.61560491e-01
      1.09479830e-01 1.58423185e-01 2.71804750e-01 2.71804750e-01
      1.38911173e-01 2.20426068e-01 1.27483174e-01 3.68222110e-02
      4.19206657e-02 3.28357741e-02 4.52048518e-02 2.35781312e-01
      2.71804750e-01 2.71804750e-01 2.71804750e-01 1.19358644e-01
      9.92606208e-03 1.14222309e-02 7.11089820e-02 1.54769346e-01
      2.45490640e-01 2.46950552e-01 1.12437189e-01 6.76488802e-02
      1.09623009e-02 1.19351040e-04 2.10718624e-02 8.12797546e-02
      1.49340659e-01 2.97418952e-01 2.97418952e-01 2.21908897e-01
      4.98090051e-02 6.83632959e-03 1.86630036e-03 1.85892195e-03
      1.21298423e-02 3.78350243e-02 2.97418952e-01 2.97418952e-01
      2.55863547e-01 2.97418952e-01 4.28836793e-02 3.70557624e-04
      7.43733905e-03 4.12423238e-02 2.02948347e-01 2.97418952e-01
      2.97418952e-01 1.23676866e-01 4.13705297e-02 5.18278359e-03 0.
      2.00494123e-03 1.47308828e-02 6.71453401e-02 3.13975751e-01
      3.19405884e-01 1.43586710e-01 1.03907501e-02 1.00703130e-03
      3.41091352e-03 3.84758110e-03 8.53810553e-03 4.30524535e-02
      3.19405884e-01 3.19405884e-01 9.65753049e-02 2.04789848e-03
      4.93005011e-03 9.50151225e-05 1.46553235e-03 3.05445064e-02
      2.74402857e-01 3.19405884e-01 3.19405884e-01 1.12502150e-01
      1.33076906e-02 4.97619330e-04 1.65160606e-03 6.81308389e-04
      2.36105714e-02 2.19121009e-01 3.19405884e-01 3.19405884e-01
      9.82999653e-02 4.06113314e-03 1.72701816e-03 2.00429279e-02
      9.78472829e-03 2.60185957e-01 3.58987391e-01 3.04170340e-01
      2.66530756e-02 1.96663402e-02 1.45186586e-02 1.15557071e-02
      1.38308536e-02 3.58041450e-02 1.01074077e-01 3.58987391e-01
      3.00399333e-01 4.80290763e-02 5.47604375e-02 1.46074072e-02
      8.82997643e-03 1.24987615e-02 4.71947016e-03 1.14237674e-01
      3.58987391e-01 3.58987391e-01 4.90457267e-02 9.45854094e-03
      3.43698473e-03 1.50949396e-02 1.64493006e-02 1.88221894e-02
      6.11834154e-02 1.80242375e-01 3.58987391e-01 1.57433480e-01
      6.44865558e-02 1.28514189e-02 2.10877899e-02 6.76885061e-03
      2.42991466e-02 1.16456293e-01 1.98988989e-01 3.09986800e-01
      1.87844545e-01 2.93844286e-02 6.87197829e-03 3.34649300e-03
      2.66916454e-02 5.95371015e-02 9.84180868e-02 1.79761454e-01
      3.09986800e-01 3.09986800e-01 3.11665293e-02 7.29650492e-03
      1.45107117e-02 2.08685305e-02 5.60087822e-02 1.13457933e-01
      2.39875212e-01 3.09986800e-01 2.80324191e-01 7.28772804e-02
      1.49899311e-02 1.13164550e-02 3.09397392e-02 7.65457228e-02
      1.27384812e-01 3.02918613e-01 3.09986800e-01 3.09986800e-01
      9.79984701e-02 1.35882581e-02 5.87581703e-03 4.35932241e-02
      7.33434409e-02 4.46495451e-02 8.74889717e-02 2.93823570e-01
      3.03768069e-01 6.51440099e-02 1.38706416e-01 6.17676824e-02
      2.04722695e-02 2.81837434e-02 1.11155743e-02 3.27504948e-02
      1.97833061e-01 2.34473586e-01 2.80834585e-01 3.03768069e-01
      7.23690018e-02 1.59157012e-02 3.48461680e-02 4.33180109e-02
      1.30599454e-01 3.03768069e-01 3.03768069e-01 8.81998241e-02
      4.67880517e-02 2.37697158e-02 1.16003947e-02 1.91897005e-02
      1.28721409e-02 7.42727220e-02 3.03768069e-01 3.03768069e-01
      2.62169957e-01 1.57431379e-01 3.85907143e-02 2.18865299e-03
      2.15116004e-03 2.54175323e-03 1.22854766e-02 3.35577458e-01
      3.35577458e-01 2.28428766e-01 2.20868245e-01 2.07058080e-02
      3.57985287e-03 7.68199656e-03 7.43144378e-02 1.07221484e-01
      3.35577458e-01 2.18666151e-01 4.04122993e-02 1.20711094e-02
      3.63029027e-03 3.09686828e-03 4.34719678e-03 7.23722111e-03
      7.02426285e-02 3.35577458e-01 3.35577458e-01 2.14947417e-01
      7.76377544e-02 1.00831455e-02 6.84910966e-03 1.15064681e-02
      9.54051539e-02 9.87650231e-02 3.35577458e-01 2.67776102e-01
      6.14449717e-02 2.74731107e-02 1.00550028e-02 1.47840625e-03
      4.54370538e-03 7.24426135e-02 2.49020636e-01 3.28128397e-01
      2.79252529e-01 1.05563022e-01 2.91104726e-02 2.10700464e-03
      2.24598008e-03 1.40062170e-04 1.64226592e-02 1.80078745e-01
      3.28128397e-01 3.28128397e-01 1.50452748e-01 4.56516668e-02
      3.25960759e-03 7.30770407e-03 6.21902151e-03 7.54672363e-02
      9.13177282e-02 2.70816833e-01 2.66133428e-01 1.53540760e-01
      6.33687004e-02 1.27146579e-02 6.25897339e-03 2.12845072e-04
      7.00281980e-03 1.06223337e-01 3.28128397e-01 3.28128397e-01
      1.99116409e-01 8.06652457e-02 1.06777903e-02 2.49387510e-02
      1.91013352e-03 6.61596516e-03 2.09655181e-01 4.13549036e-01
      1.76139981e-01 2.06968258e-03 1.99430017e-03 2.55982578e-02
      4.32494842e-02 7.46659376e-03 1.16304187e-02 7.72117451e-02
      4.13549036e-01 2.43500188e-01 3.84568907e-02 1.70611534e-02
      4.88904603e-02 2.96547022e-02 2.59824586e-03 0. 4.38829400e-02
      4.13549036e-01 3.33834112e-01 9.55420267e-03 0. 2.44995076e-02
      6.28745630e-02 9.10793152e-03 1.71026622e-04 3.64241749e-02
      4.13549036e-01 1.99130252e-01 3.31573598e-02 1.45491827e-02
      5.20837158e-02 2.16386560e-02 3.02140824e-02 3.53722051e-02
      1.11193940e-01 3.21721107e-01 2.89895266e-01 6.14160523e-02
      3.08371764e-02 1.89357176e-02 2.08688136e-02 4.80436608e-02
      6.57688007e-02 2.15861872e-01 3.21721107e-01 3.21721107e-01
      1.04950711e-01 3.09887808e-02 1.11514563e-02 2.12511644e-02
      1.51750688e-02 2.11494062e-02 1.33298233e-01 3.21721107e-01
      2.68730611e-01 3.15919481e-02 2.08802074e-02 1.88473780e-02
      2.96576824e-02 3.52135524e-02 6.00768253e-02 3.21721107e-01
      3.21721107e-01 3.21721107e-01 5.40396385e-02 1.70419011e-02
      2.30177213e-02 4.74415626e-03 1.10998349e-02 1.96793489e-02
      9.27281827e-02 3.64102334e-01 3.01660568e-01 6.33414686e-02
      5.37076686e-03 4.16995352e-03 1.68496300e-03 4.03282838e-03
      7.73413898e-03 5.30044511e-02 3.64102334e-01 3.14847231e-01
      5.43015637e-02 6.66455086e-03 3.73738236e-03 9.98606067e-03
      9.83571820e-03 2.30404716e-02 2.27978781e-01 3.64102334e-01
      3.17209601e-01 2.95717698e-02 2.56356481e-03 7.13071879e-03
      3.92003590e-03 4.66527324e-03 6.95917895e-03 1.77968308e-01
      3.64102334e-01 2.66073734e-01 7.10488250e-03 2.64216820e-03
      7.95428350e-04 7.31206732e-04 2.60603405e-03 4.71922429e-03
      8.24673548e-02 3.84616345e-01 3.65751356e-01 5.20365424e-02
      4.12694598e-03 1.70494441e-03 1.05450135e-02 1.09600630e-02
      2.61776820e-02 5.66792414e-02 3.84616345e-01 1.98798507e-01
      4.86393943e-02 2.35030632e-02 1.14546409e-02 2.10907590e-03
      3.43888160e-03 5.31352591e-03 1.93913519e-01 3.84616345e-01
      3.22973073e-01 1.32352374e-02 1.69483421e-03 4.19862015e-04
      9.75883100e-03 1.22304661e-02 2.26730816e-02 1.20319739e-01
      3.84616345e-01 2.37025529e-01 2.37104930e-02 1.39438501e-02
      9.84098669e-03 1.39130475e-02 7.31085800e-03 1.98779609e-02
      7.53852874e-02 2.91212529e-01 1.66942284e-01 6.65625557e-02
      3.37653607e-02 1.51022039e-02 4.55844449e-03 2.26479970e-04
      9.82819474e-04 1.43977314e-01 3.91765535e-01 3.40336502e-01
      5.12497462e-02 2.06613000e-02 6.20232103e-03 9.98897292e-03
      9.37291887e-03 2.56298929e-02 1.79808021e-01 3.91765535e-01
      1.35388389e-01 2.06499044e-02 1.33782206e-02 1.15334559e-02
      1.97847304e-03 3.22753028e-03 1.25160404e-02 2.54074007e-01
      3.91765535e-01 3.91765535e-01 2.68435329e-02 9.68233508e-04
      2.20650434e-03 1.26699377e-02 5.39723376e-04 8.69674981e-03
      8.52343962e-02 4.10282582e-01 2.05173582e-01 2.06809640e-02 0.
      1.15990685e-02 1.89457200e-02 9.77072958e-03 1.95656531e-02
      6.42524809e-02 4.10282582e-01 1.10071622e-01 4.80829999e-02
      7.73484400e-03 1.65898073e-02 7.94693176e-03 2.12952655e-04
      1.50715858e-02 7.97464475e-02 4.10282582e-01 4.10282582e-01
      7.95097798e-02 8.74677557e-04 7.94693176e-03 8.63238424e-03
      7.09580770e-03 4.15108316e-02 5.63018471e-02 4.10282582e-01
      2.46958807e-01 7.12729543e-02 1.25613892e-02 8.63238424e-03
      1.58390608e-02 1.21569028e-02 2.15590820e-02 1.72084093e-01
      3.14364821e-01 1.50756523e-01 1.75030846e-02 1.01685151e-02
      8.26807320e-03 5.34204915e-02 2.03594007e-02 6.90462142e-02
      3.14364821e-01 3.14364821e-01 2.87874550e-01 3.19150798e-02
      1.57236587e-02 2.23439950e-02 1.84697118e-02 4.92167939e-03
      2.21729372e-02 1.27889574e-01 3.14364821e-01 2.58305550e-01
      1.07164986e-01 4.81943414e-02 2.13051047e-02 6.93224370e-02
      2.83707902e-02 9.50542614e-02 3.14364821e-01 3.14364821e-01
      3.14364821e-01 1.59973919e-01 1.29029870e-01 6.03818074e-02
      2.39489190e-02 1.57717895e-02 5.82908355e-02 3.22790027e-01
      3.22790027e-01 2.21923128e-01 2.37279385e-02 9.26870946e-03
      1.47610381e-02 9.14487988e-03 2.26333532e-02 2.56768037e-02
      3.22790027e-01 3.22790027e-01 1.43667027e-01 1.28128193e-02
      5.53213293e-03 9.67958942e-03 5.82780950e-02 5.48807047e-02
      1.22323498e-01 3.11710387e-01 3.22790027e-01 1.65099874e-01
      6.23871423e-02 6.51115999e-02 6.45551085e-02 7.81616718e-02
      8.41223001e-02 9.05499384e-02 3.19753587e-01 3.22790027e-01
      7.22922236e-02 2.69599464e-02 2.05251183e-02 8.36678445e-02
      5.28486632e-03 9.58053954e-03 9.54040699e-03 3.01710635e-01
      3.31122965e-01 2.83236533e-01 1.66401323e-02 6.80873031e-03
      3.01693287e-03 2.35661641e-02 1.33246705e-02 2.07587294e-02
      1.70271307e-01 3.31122965e-01 2.64126360e-01 3.96003611e-02
      3.00237313e-02 6.44539390e-03 3.58142853e-02 5.53098507e-02
      6.89425841e-02 3.14039528e-01 3.31122965e-01 2.09203422e-01
      5.10715879e-02 1.71471313e-02 2.63277721e-02 4.06048857e-02
      2.95798201e-02 4.00958769e-02 1.45093545e-01 3.31122965e-01
      2.78371513e-01 1.41326398e-01 7.68237337e-02 1.64242499e-02
      1.58702210e-02 2.00282224e-02 4.46895100e-02 2.74324536e-01
      2.92688966e-01 8.78674537e-02 2.82483380e-02 1.60875637e-02
      5.95073868e-03 1.90109899e-03 1.80998035e-02 5.41558303e-02
      3.61819595e-01 3.61819595e-01 2.09870607e-01 3.97687256e-02
      2.34904513e-03 2.42503919e-03 3.74762937e-02 3.24190892e-02
      1.14973865e-01 3.18518102e-01 2.47195110e-01 1.13178216e-01
      9.11274329e-02 4.05906886e-02 4.22212556e-02 1.32524166e-02
      1.86952967e-02 1.67886689e-01 3.61819595e-01 3.61819595e-01
      1.13848798e-01 7.59309307e-02 9.20302887e-03 3.38344350e-02
      9.61557962e-03 8.64840206e-03 1.50727211e-02 1.92129333e-02
      3.26014131e-01 3.26014131e-01 1.41195580e-01 7.42897205e-03
      7.76685309e-03 2.34664381e-02 5.79520594e-03 1.85970012e-02
      1.70579199e-02 3.26014131e-01 2.59090722e-01 8.12112018e-02
      2.89423298e-02 2.26452742e-02 9.59775969e-03 1.49640366e-02
      3.32317799e-02 5.38434573e-02 3.26014131e-01 3.26014131e-01
      3.26014131e-01 8.52691680e-02 7.46544264e-03 3.05641852e-02
      2.98964302e-03 5.36590889e-02 1.02841288e-01 2.29123369e-01
      3.26014131e-01 2.67822266e-01 6.85417876e-02 2.58226302e-02
      2.31542662e-02 3.86865018e-03 2.43348349e-02 2.03714639e-01
      3.15983951e-01 2.14688614e-01 1.19362481e-01 4.38753329e-02
      2.71809381e-02 4.48874459e-02 4.66671661e-02 8.51463377e-02
      3.15983951e-01 3.15983951e-01 2.93609440e-01 1.55433372e-01
      9.60830972e-02 4.09843251e-02 2.25941241e-02 3.93263530e-03
      1.20116390e-01 3.15983951e-01 2.64927953e-01 8.03041533e-02
      3.94873992e-02 1.96978711e-02 1.52239539e-02 3.26057523e-02
      7.01968819e-02 2.34489009e-01 3.15983951e-01 3.15983951e-01
      6.45806193e-02 2.16686372e-02 2.23769317e-03 3.50659690e-03
      1.40633360e-01 1.94973767e-01 1.82142183e-01 2.49885067e-01
      2.49885067e-01 1.37672007e-01 6.74871057e-02 6.32944033e-02
      7.88029432e-02 2.49885067e-01 2.49885067e-01 2.49885067e-01
      2.05951631e-01 2.35859275e-01 3.68907489e-02 1.98252182e-02
      2.12625191e-02 1.36049271e-01 1.27144352e-01 2.49885067e-01
      2.49885067e-01 2.49885067e-01 1.28107965e-01 3.67028043e-02
      1.67178083e-02 3.42480489e-03 2.97159776e-02 2.49885067e-01
      2.49885067e-01 2.49885067e-01 9.41358879e-02 1.17681704e-01
      2.10247822e-02 7.18475552e-03 1.04366373e-02 9.36446264e-02
      1.60441786e-01 2.48375699e-01 2.47308314e-01 2.48375699e-01
      2.48375699e-01 1.02244660e-01 4.84944358e-02 1.24417106e-02
      4.58745547e-02 4.90060002e-02 1.69534445e-01 2.13463143e-01
      2.41774261e-01 2.48375699e-01 1.83911204e-01 1.57913074e-01
      4.81447689e-02 2.25045811e-02 2.48375699e-01 2.48375699e-01
      1.90298587e-01 1.15707248e-01 1.19553529e-01 3.39849927e-02
      3.85028198e-02 5.65482862e-02 1.38719305e-01 1.97452798e-01
      2.48375699e-01 2.48375699e-01 1.78379998e-01 1.14751667e-01
      2.89729107e-02 8.60619247e-02 9.01192948e-02 1.26338124e-01
      2.80042011e-02 5.34698889e-02 2.98936486e-01 2.84151495e-01
      1.47433445e-01 4.96945158e-02 4.96404953e-02 1.40536996e-02
      3.88315320e-02 1.35198254e-02 1.09931026e-02 2.92899013e-01
      3.00719947e-01 3.00719947e-01 6.04215041e-02 2.81710383e-02
      3.05440021e-03 3.04151047e-02 3.98606397e-02 1.68564379e-01
      3.00719947e-01 2.98264652e-01 2.00159669e-01 2.00688131e-02
      1.62794441e-02 9.86442622e-03 1.72931217e-02 4.62832069e-03
      2.10214332e-02 2.99628049e-01 3.00719947e-01 3.00719947e-01
      2.94860918e-02 3.22006643e-04 4.63413271e-05 5.81742125e-03</_>
    <_>
      2.58703791e-02 8.00603256e-03 1.99052051e-01 3.79945576e-01
      3.79945576e-01 8.62292200e-02 6.95719048e-02 2.98587233e-02
      1.47811379e-02 9.11283679e-03 7.28482893e-03 6.32875711e-02
      3.79945576e-01 2.22573444e-01 5.52534871e-02 1.74158625e-02
      6.86291698e-03 1.47396019e-02 1.21928276e-02 6.22014794e-03
      2.45765761e-01 3.79945576e-01 3.79945576e-01 9.68990568e-03
      1.20676095e-02 3.49452649e-03 7.24110333e-03 6.45622145e-03
      2.22223974e-03 3.58731076e-02 2.33060405e-01 2.15870500e-01
      1.32851480e-02 2.07869359e-03 1.94604287e-03 6.45622145e-03
      7.05830427e-03 3.88530735e-03 9.26106144e-03 6.84427992e-02
      3.05744886e-01 3.38397563e-01 3.59278694e-02 6.52076816e-03
      1.32677704e-02 1.07588070e-02 2.20717806e-02 3.99813354e-02
      1.31135762e-01 3.38397563e-01 3.38397563e-01 5.48041314e-02
      7.90156017e-04 2.54584849e-03 5.33300219e-03 2.75223143e-03
      2.76221856e-02 2.08267599e-01 3.38397563e-01 1.47687659e-01
      8.13546404e-03 2.81391898e-03 5.33300219e-03 2.42663245e-03
      1.00560719e-02 6.44072220e-02 3.38397563e-01 3.38397563e-01
      3.38397563e-01 4.94741648e-02 6.49365888e-04 1.88835151e-03
      5.08644879e-02 8.31512734e-02 1.30509660e-01 1.55556992e-01
      2.85681188e-01 2.85681188e-01 6.33977726e-02 8.53721276e-02
      5.31305298e-02 4.96402644e-02 5.66743612e-02 8.76922831e-02
      6.26170337e-02 6.98741302e-02 8.31509680e-02 2.63116390e-01
      2.85681188e-01 1.35196716e-01 2.44439691e-02 4.04126495e-02
      1.09992839e-01 2.79385060e-01 2.85681188e-01 2.85681188e-01
      5.02006821e-02 3.30435410e-02 3.31536718e-02 4.93141152e-02
      4.69007120e-02 9.55852345e-02 1.20178275e-01 2.85681188e-01
      2.36960158e-01 2.28004754e-01 2.85681188e-01 1.04648009e-01
      6.65496476e-03 3.52838309e-03 3.98047781e-03 3.78966960e-03
      1.65347666e-01 2.83068478e-01 2.92001814e-01 2.92001814e-01
      4.28065769e-02 2.66673218e-04 9.25733126e-04 5.69937984e-03
      1.71484817e-02 2.90204853e-01 2.92001814e-01 9.10329297e-02
      4.16055471e-02 1.94137159e-03 1.24377841e-02 8.44794977e-03
      1.22286249e-02 1.38139734e-02 2.78456807e-01 2.92001814e-01
      2.92001814e-01 2.92001814e-01 3.68195251e-02 4.30931716e-04
      2.16732360e-03 2.90957093e-02 3.88161056e-02 2.92001814e-01
      2.92001814e-01 1.66572064e-01 3.78544703e-02 2.96495669e-03
      2.66198767e-04 8.46479728e-04 1.50702782e-02 1.09071098e-01
      3.64786237e-01 2.14230210e-01 3.87391672e-02 2.03062058e-03
      5.11279562e-04 1.82928552e-03 1.04407969e-04 8.42314959e-03
      1.82601497e-01 3.64786237e-01 3.64786237e-01 7.50574395e-02
      2.25779033e-04 1.84562418e-03 6.15028373e-04 3.56695545e-03
      6.61154911e-02 1.58541620e-01 2.89252460e-01 2.04140738e-01
      8.55387226e-02 1.24967592e-02 2.47863610e-03 2.86718505e-03
      8.23143637e-04 2.91776005e-02 1.76001295e-01 3.64786237e-01
      3.64786237e-01 1.95560053e-01 1.69461581e-03 2.99142557e-03
      1.48426918e-02 2.82041775e-03 1.92787543e-01 4.17663574e-01
      4.17663574e-01 3.64726298e-02 0. 0. 1.48426918e-02 3.85338552e-02
      1.09124305e-02 5.80763072e-02 1.59527242e-01 3.95501852e-01
      3.49249914e-02 3.71716432e-02 1.33754173e-02 3.89669463e-02
      2.22725030e-02 9.23767127e-03 4.59533073e-02 1.61334574e-01
      4.17663574e-01 1.45007819e-01 0. 0. 2.22725030e-02 3.38775516e-02
      2.45484188e-02 7.68264905e-02 2.36125328e-02 4.17663574e-01
      6.78973943e-02 5.61426692e-02 2.20646281e-02 3.54925320e-02
      1.25509314e-02 4.17142548e-03 2.28862409e-02 1.39312893e-01
      3.11414301e-01 1.92822576e-01 4.02788222e-02 1.24085806e-02
      1.34902839e-02 1.19108765e-03 1.95850786e-02 9.11078528e-02
      3.34052682e-01 3.34052682e-01 3.34052682e-01 5.15956618e-02
      7.83724524e-03 1.92169566e-03 1.26890829e-02 5.48101310e-03
      1.65150706e-02 4.05461788e-02 3.34052682e-01 2.76367694e-01
      5.95701709e-02 2.80127805e-02 1.61919184e-02 1.99560076e-03
      1.76460780e-02 7.90880844e-02 2.48200685e-01 3.34052682e-01
      3.34052682e-01 8.51745307e-02 2.90903542e-02 1.09820804e-02
      6.11731270e-03 1.80702340e-02 7.16245174e-02 2.62529314e-01
      3.52700144e-01 2.40289927e-01 2.43074615e-02 8.24992731e-03
      6.01909915e-03 1.88103337e-02 1.79628637e-02 3.17379311e-02
      9.74345207e-02 3.52700144e-01 2.52631426e-01 9.14740488e-02
      1.06750816e-01 3.17113698e-02 2.63314490e-04 1.17384009e-02
      6.46287724e-02 1.76894531e-01 3.52700144e-01 3.52700144e-01
      5.08795716e-02 1.95986647e-02 1.14230271e-02 2.56911945e-03
      2.54877331e-03 6.92446809e-03 7.30767250e-02 3.52700144e-01
      3.17643344e-01 2.47117914e-02 1.15094166e-02 1.09003996e-02
      5.45471022e-03 4.84685460e-03 6.28279429e-03 1.85585897e-02
      3.47833723e-01 3.47833723e-01 1.12903588e-01 6.75994158e-02
      1.26934266e-02 1.66397716e-03 2.09573167e-03 1.80869773e-02
      3.14921178e-02 3.47833723e-01 3.47833723e-01 7.45755509e-02
      1.29589364e-02 2.32726405e-03 1.16659235e-03 7.05570681e-04
      1.57043303e-03 8.12252387e-02 3.47833723e-01 3.41665834e-01
      1.61738098e-02 4.60564578e-03 4.16947063e-03 1.70813187e-03
      2.25469959e-03 1.51341353e-02 9.34251696e-02 3.47833723e-01
      3.34501594e-01 3.33804972e-02 2.84515368e-03 1.50736875e-03
      3.81533755e-03 5.15431678e-03 5.04782796e-02 7.88524598e-02
      2.60314196e-01 2.12367311e-01 1.01173945e-01 1.96012277e-02
      4.65048850e-03 2.46771239e-03 1.11681712e-03 1.75994318e-02
      1.26173794e-01 4.03616726e-01 4.03616726e-01 1.21460773e-01
      5.35207288e-03 2.43849703e-03 3.72273824e-03 5.68983098e-03
      2.86979266e-02 9.34850723e-02 4.03616726e-01 1.57430068e-01
      7.03018531e-02 9.50625073e-03 3.20146582e-03 2.47413735e-03
      1.44364731e-03 7.89600704e-03 2.68086910e-01 4.03616726e-01
      2.61364549e-01 3.59264612e-02 4.52055270e-03 2.35384353e-03
      1.13447290e-02 3.72386817e-03 1.11431908e-02 1.37078660e-02
      4.59606856e-01 2.56180882e-01 0. 0. 1.13447290e-02 6.84856623e-03
      1.41505292e-02 4.06602249e-02 1.75730733e-03 4.59606856e-01
      9.14229378e-02 1.46657806e-02 7.49434950e-03 6.91970764e-03
      5.17365336e-03 0. 0. 6.75034374e-02 4.59606856e-01 2.46992320e-01
      0. 0. 5.17365336e-03 9.49925091e-03 1.30464826e-02 3.46355550e-02
      1.37087367e-02 4.59606856e-01 7.72126690e-02 1.86290871e-02
      5.34340367e-03 7.85702281e-03 9.57525615e-03 6.36797212e-03
      1.56130213e-02 2.52157487e-02 3.51040125e-01 1.54595301e-01
      2.16596499e-02 9.98574402e-03 9.72279627e-03 6.90638553e-03
      2.76745926e-03 3.31645794e-02 1.65069655e-01 3.80830735e-01
      3.80830735e-01 4.45129052e-02 1.97104830e-02 1.60525441e-02
      1.30670369e-02 1.46137504e-02 3.53308879e-02 5.10220416e-02
      3.80830735e-01 7.84194991e-02 2.17319112e-02 5.30673889e-03
      9.66119859e-03 1.67210996e-02 9.54617187e-03 2.75557004e-02
      2.79805601e-01 3.80830735e-01 3.80830735e-01 1.92950871e-02
      8.08305852e-03 1.90278273e-02 1.43003440e-03 3.09489638e-04
      2.90347803e-02 1.19181305e-01 3.73838007e-01 3.73838007e-01
      3.54267396e-02 2.26730164e-02 1.64537597e-02 7.21618708e-04 0.
      4.50539123e-03 1.04468971e-01 3.73838007e-01 1.98793903e-01
      1.71457715e-02 6.10118452e-03 4.41367831e-03 1.33618303e-02
      4.85567795e-03 2.39175707e-02 2.77136594e-01 3.73838007e-01
      2.64742643e-01 1.45686306e-02 1.16413487e-02 2.14127339e-02
      1.26623455e-02 1.34762228e-02 4.30583581e-02 2.59222686e-01
      3.73838007e-01 1.04325861e-01 2.43851673e-02 1.29519217e-02
      9.21691582e-03 2.56332598e-04 0. 3.14671034e-03 2.05363363e-01
      3.73266250e-01 1.57415360e-01 6.71864348e-03 6.66447741e-04
      3.94427741e-04 1.14280288e-03 1.37373444e-03 2.26011183e-02
      1.93184584e-01 3.73266250e-01 2.15744942e-01 1.69789605e-02
      3.48048122e-03 1.47152331e-03 6.25628745e-03 9.05608386e-03
      3.70553583e-02 3.73266250e-01 3.73266250e-01 7.54894987e-02
      1.19407382e-02 5.03973942e-03 2.77739088e-03 2.12528533e-03
      8.92291963e-03 1.36462031e-02 3.36118668e-01 3.73266250e-01
      1.63752839e-01 1.98578592e-02 8.42739642e-03 6.72217133e-03
      1.69320300e-03 3.26218014e-03 3.96729894e-02 1.40696988e-01
      3.90319854e-01 1.08963221e-01 2.59650908e-02 1.09682903e-02
      2.47980468e-03 1.81896298e-03 9.26954381e-04 1.16562909e-02
      2.52382070e-01 3.90319854e-01 2.02778801e-01 6.91741705e-03
      4.19399329e-03 2.00048671e-03 4.45293728e-03 2.62517724e-02
      3.13526914e-02 2.58395314e-01 3.90319854e-01 1.16306104e-01
      2.32449025e-02 1.92282461e-02 1.10916365e-02 3.30817094e-03
      9.49719269e-03 2.66518313e-02 3.90319854e-01 3.90319854e-01
      1.06711380e-01 3.70156998e-03 4.86620143e-03 3.73693416e-03
      2.86651682e-03 0. 0. 9.19478461e-02 4.12293583e-01 1.86586812e-01
      9.29173268e-03 0. 2.86651682e-03 1.14626605e-02 8.74784961e-03
      2.95181368e-02 1.45336902e-02 4.12293583e-01 9.55206305e-02
      4.00683694e-02 7.31439749e-03 1.22014564e-02 2.25953013e-03
      7.39874784e-04 1.20880187e-03 2.99716666e-02 4.12293583e-01
      4.12293583e-01 8.03664923e-02 2.59164313e-04 2.25953013e-03
      1.26535790e-02 7.61334924e-03 3.34424712e-02 1.02026127e-02
      4.12293583e-01 2.76954502e-01 6.79544732e-02 5.98751986e-03
      1.37668122e-02 1.37317292e-02 1.18551003e-02 4.49140407e-02
      6.06730580e-02 3.49016935e-01 5.81403747e-02 3.23071256e-02
      1.04771825e-02 1.55208400e-02 1.88947283e-02 1.35973729e-02
      4.59716544e-02 3.14016342e-01 3.49016935e-01 3.49016935e-01
      3.29279378e-02 5.92102436e-03 2.00449768e-02 1.44354291e-02
      8.90054274e-03 5.33224605e-02 1.34652585e-01 3.49016935e-01
      5.85900582e-02 2.09006276e-02 5.53631922e-03 1.71312988e-02
      1.72466375e-02 1.52468234e-02 5.02360836e-02 3.49016935e-01
      3.49016935e-01 3.49016935e-01 3.68787125e-02 4.76046046e-03
      1.85972080e-02 2.23520566e-02 1.82579309e-02 6.05026707e-02
      2.95996279e-01 2.95996279e-01 2.80963928e-01 3.31597291e-02
      8.68051406e-03 2.18021534e-02 4.04690988e-02 5.20298369e-02
      9.77636576e-02 2.95996279e-01 2.95996279e-01 9.46421698e-02
      4.02937382e-02 3.29358317e-02 1.67790279e-02 6.96932897e-02
      7.20535219e-02 4.84028459e-02 2.94708639e-01 2.95996279e-01
      2.95996279e-01 6.30715638e-02 1.64513737e-02 2.99378615e-02
      2.94012338e-01 2.95996279e-01 8.95640105e-02 1.64752349e-01
      1.89995795e-01 6.83327392e-02 5.64458780e-02 3.65001447e-02
      3.90809402e-02 2.44514868e-02 3.86274084e-02 8.83128420e-02
      3.12569052e-01 3.12569052e-01 7.70703033e-02 1.99472308e-02
      1.28387865e-02 5.82088949e-03 5.37189981e-03 1.83364712e-02
      1.63746960e-02 3.12569052e-01 3.12569052e-01 2.26911336e-01
      6.47178665e-02 1.43676652e-02 1.91670917e-02 1.99213132e-01
      3.12569052e-01 1.14201136e-01 2.84547597e-01 3.12569052e-01
      5.53056486e-02 1.76105034e-02 1.57497898e-02 1.77811719e-02
      2.72215232e-02 9.91052315e-02 4.05086875e-02 2.12812632e-01
      3.12569052e-01 1.95347846e-01 7.33432621e-02 2.34584417e-02
      2.14367881e-02 9.46285482e-03 3.75344716e-02 2.35789604e-02
      2.12890461e-01 3.22038412e-01 1.11716978e-01 4.59874868e-02
      1.97874494e-02 2.59841233e-02 5.09741297e-03 1.43466461e-02
      3.16393599e-02 3.93563926e-01 3.93563926e-01 1.56878848e-02
      2.68625212e-03 3.36573855e-03 6.72930107e-03 1.24439085e-02
      1.71858259e-02 2.85905413e-02 2.37079963e-01 3.64433914e-01
      9.96676609e-02 6.37572408e-02 3.62634845e-02 2.78336946e-02
      8.52172915e-03 9.90483351e-03 3.36634405e-02 3.93563926e-01
      3.93563926e-01 1.45006469e-02 7.03258254e-03 1.16654346e-02
      1.15237860e-02 3.64811509e-03 6.86634285e-03 4.78339382e-02
      2.89350376e-02 3.26741189e-01 3.26741189e-01 1.35087937e-01
      7.19061180e-04 3.64811509e-03 4.98115877e-03 5.68218483e-03
      1.38927326e-02 1.76078826e-02 3.26741189e-01 2.92137623e-01
      9.50680152e-02 1.03203636e-02 5.41730504e-03 4.97063715e-03
      7.55929714e-03 7.45054409e-02 5.80547377e-02 3.24793756e-01
      3.26741189e-01 3.26741189e-01 7.75658339e-03 4.97063715e-03
      9.71637759e-03 1.58185624e-02 5.16402461e-02 8.14569890e-02
      2.36066043e-01 3.26741189e-01 2.41300583e-01 3.16199176e-02
      2.17042491e-02 6.69041462e-03 1.05860280e-02 4.69608009e-02
      2.87083030e-01 2.89896846e-01 4.70224731e-02 2.56998856e-02
      4.91214637e-03 7.02148676e-03 8.28940701e-03 3.76406088e-02
      1.33396283e-01 3.50752771e-01 3.50752771e-01 1.53856188e-01
      1.05351405e-02 3.10086831e-03 5.70033258e-03 9.12098493e-03
      2.35271025e-02 1.49860889e-01 3.50752771e-01 2.25623533e-01
      9.64085087e-02 3.56359594e-02 2.10955478e-02 1.82207897e-02
      5.15447371e-03 7.46775046e-02 3.42673331e-01 3.50752771e-01
      2.84103036e-01 2.05190480e-02 9.00955929e-04 1.92817999e-03
      2.38929549e-03 9.41498131e-02 2.45673046e-01 2.19288692e-01
      2.87476510e-01 2.87476510e-01 1.70958146e-01 3.12790722e-02
      1.40792383e-02 2.26581898e-02 2.87476510e-01 2.87476510e-01
      1.75331056e-01 4.38895002e-02 5.21875694e-02 2.32258551e-02
      2.72596963e-02 1.50745558e-02 3.40430737e-02 3.18896659e-02
      2.87456185e-01 2.87476510e-01 2.87476510e-01 1.63958922e-01
      2.17241496e-02 1.06211063e-02 4.64506214e-03 8.42447765e-03
      1.22469671e-01 2.87476510e-01 2.87476510e-01 1.25540376e-01
      6.49740621e-02 1.16944183e-02 1.74032226e-02 2.46105250e-02
      4.96814772e-02 2.78427541e-01 2.78427541e-01 1.79347739e-01
      1.55332059e-01 1.94389999e-01 1.46851474e-02 1.95008852e-02
      3.22765335e-02 4.44636606e-02 9.69676673e-02 2.25105852e-01
      1.06874056e-01 1.59638330e-01 2.78427541e-01 9.66259316e-02
      9.94071066e-02 7.99347907e-02 6.89103827e-02 1.84617311e-01
      2.78427541e-01 2.78427541e-01 7.46019185e-02 7.28923306e-02
      8.56500398e-03 3.25652212e-02 6.60004541e-02 1.01821676e-01
      2.78427541e-01 2.78427541e-01 1.83679357e-01 6.91639334e-02
      1.10932380e-01 3.79345641e-02 1.37562841e-01 2.01581091e-01
      2.38505989e-01 4.14634980e-02 4.71093282e-02 1.75693154e-01
      2.85133392e-01 2.26090819e-01 3.99939828e-02 4.50338796e-02
      3.77615318e-02 3.03517636e-02 1.34793464e-02 2.78351624e-02
      1.74337760e-01 3.45401108e-01 3.45401108e-01 1.40505703e-02
      4.16793395e-03 7.72498548e-03 8.83045699e-03 2.02933133e-01
      1.09199777e-01 2.46913314e-01 2.73619384e-01 1.50472313e-01
      2.20119543e-02 4.29603606e-02 7.26582333e-02 1.19703680e-01
      5.33037931e-02 4.47636917e-02 2.70930380e-01 3.45401108e-01
      3.45401108e-01 4.51637320e-02 6.93139387e-04 7.82589894e-03
      2.38526594e-02</_>
    <_>
      4.50906716e-02 1.78988986e-02 1.00326195e-01 3.65101904e-01
      3.65101904e-01 5.31995669e-02 3.62295061e-02 9.69641469e-03
      2.92711537e-02 8.28451961e-02 4.16674055e-02 1.33882940e-01
      2.27801800e-01 3.65101904e-01 4.02018353e-02 7.41239414e-02
      1.62908584e-02 5.91112077e-02 5.16600795e-02 1.05510755e-02
      7.50552565e-02 3.65101904e-01 3.65101904e-01 6.70230687e-02
      3.93960439e-02 1.06858816e-02 5.26410677e-02 8.10094625e-02
      3.56228910e-02 1.02548636e-01 1.65473074e-01 3.65101904e-01
      9.70488340e-02 1.00346148e-01 2.06726566e-02 8.22707340e-02
      1.80096012e-02 2.24307217e-02 8.93263221e-02 1.41922683e-01
      3.35684747e-01 2.28943154e-01 2.35924087e-02 4.09559580e-03
      1.36054270e-02 8.07423145e-03 4.20876518e-02 7.97104388e-02
      1.66324660e-01 3.35684747e-01 3.35684747e-01 3.81770395e-02
      4.48397081e-03 9.64178797e-03 2.74482463e-02 4.51746024e-02
      1.40633494e-01 2.35672057e-01 3.35684747e-01 2.25419343e-01
      7.06298277e-02 1.33969476e-02 3.31049263e-02 1.76151562e-02
      4.28082533e-02 1.11709774e-01 2.03078106e-01 3.35684747e-01
      3.35684747e-01 8.54725391e-02 3.38790752e-02 3.85547802e-02
      2.81559620e-02 6.57666102e-02 7.18096644e-02 1.31219879e-01
      2.96353608e-01 2.96353608e-01 6.86571449e-02 6.05166741e-02
      4.50073257e-02 4.82330993e-02 3.00917327e-02 3.34155932e-02
      5.47085591e-02 1.87271535e-01 2.30992109e-01 2.52070218e-01
      2.96353608e-01 9.47199389e-02 1.93341393e-02 1.51449032e-02
      3.57880220e-02 1.15698330e-01 2.96353608e-01 2.96353608e-01
      6.39016107e-02 6.43790737e-02 3.58844660e-02 3.09337396e-02
      1.63320415e-02 3.25274467e-02 7.95295313e-02 2.96353608e-01
      2.96353608e-01 2.46327817e-01 2.77317703e-01 7.14814067e-02
      2.35965960e-02 1.24348479e-03 1.61703269e-03 1.41072087e-02
      3.06840271e-01 3.06840271e-01 2.51862615e-01 2.25063086e-01
      3.94385345e-02 6.18416397e-03 1.08720921e-02 1.18362680e-02
      5.70107028e-02 3.06840271e-01 2.94670731e-01 6.53952882e-02
      1.62617620e-02 1.83868525e-03 9.60228592e-03 3.23622092e-03
      6.42000139e-03 1.97832417e-02 3.06840271e-01 3.06840271e-01
      2.84010381e-01 1.64858103e-01 2.53277738e-02 2.53324546e-02
      3.69872004e-02 5.86141162e-02 7.42727965e-02 3.06840271e-01
      3.06840271e-01 8.06355104e-02 8.37741699e-03 7.90165388e-04
      5.47960121e-03 1.58289913e-02 3.14034820e-02 2.02989817e-01
      3.51553112e-01 1.97588593e-01 5.78472465e-02 3.69193824e-03
      4.06253967e-04 3.61288758e-03 2.89733824e-03 2.67381538e-02
      2.48528600e-01 3.51553112e-01 3.51553112e-01 1.39370739e-01
      6.82852976e-03 2.83702090e-03 3.93078960e-02 5.67462146e-02
      7.90521950e-02 1.29193202e-01 2.50454605e-01 2.07551941e-01
      8.60797763e-02 8.70591495e-03 4.03024489e-04 1.24476850e-02
      1.10588754e-02 1.72103029e-02 7.71647543e-02 3.51553112e-01
      3.51553112e-01 2.51816034e-01 2.71838792e-02 3.23940720e-03
      6.01316690e-02 1.31858513e-02 2.28738673e-02 8.98874551e-02
      3.98379058e-01 1.81232959e-01 1.53552815e-02 1.03328470e-02
      5.60842641e-02 1.33645684e-01 3.02359853e-02 5.77321835e-02
      5.88575229e-02 3.98379058e-01 2.55607814e-01 1.64013669e-01
      2.84421910e-02 1.28441870e-01 5.14741950e-02 1.90366954e-02
      6.31252723e-03 1.53021570e-02 3.98379058e-01 2.67010838e-01
      3.24111723e-04 2.04496514e-02 2.79313531e-02 1.28103092e-01
      3.68002802e-02 1.03363730e-01 1.99365150e-02 3.98379058e-01
      2.20912978e-01 1.04830317e-01 4.33659069e-02 1.05156742e-01
      2.32447926e-02 1.12925507e-02 3.91224213e-02 1.29699156e-01
      3.10333401e-01 2.86071151e-01 1.15218192e-01 3.03736553e-02
      5.70844151e-02 8.09056405e-03 9.55180824e-03 4.01253104e-02
      1.82141513e-01 3.10333401e-01 3.10333401e-01 1.03253588e-01
      6.89535886e-02 9.25748721e-02 1.96546130e-02 8.46645050e-03
      6.79026172e-02 9.71406773e-02 3.10333401e-01 3.10333401e-01
      1.06378667e-01 4.00430523e-02 5.73333949e-02 4.19587549e-03
      2.15868913e-02 9.52891186e-02 2.87526965e-01 3.10333401e-01
      3.10333401e-01 1.02734663e-01 7.43869767e-02 8.04639161e-02
      4.46196739e-03 2.47331383e-03 1.19801424e-02 6.86308593e-02
      3.61775607e-01 3.61775607e-01 4.32276875e-02 3.65819372e-02
      2.76845805e-02 6.04301086e-03 3.75436409e-03 1.01696840e-02
      3.03389542e-02 3.61775607e-01 3.08973253e-01 9.15480331e-02
      4.83381525e-02 1.51100298e-02 3.29066138e-03 1.19626541e-02
      3.71062793e-02 1.64134160e-01 3.61775607e-01 3.26952755e-01
      2.34892964e-02 2.01985855e-02 2.00264715e-02 2.12143571e-03
      1.50296686e-03 2.50914227e-03 4.48176377e-02 3.61775607e-01
      2.94249237e-01 1.72802843e-02 1.08457648e-03 2.39445106e-03
      1.99333648e-03 9.86224506e-04 3.29114846e-03 6.82835374e-03
      3.62892926e-01 3.62892926e-01 8.28307867e-02 2.69471537e-02
      5.48435049e-03 1.53366691e-02 1.72247440e-02 3.79348733e-02
      3.40686776e-02 3.62892926e-01 3.09965879e-01 3.04343123e-02
      1.29534425e-02 6.59509934e-03 9.99568612e-04 2.21205322e-04
      1.07055996e-03 3.47092338e-02 3.62892926e-01 3.57158512e-01
      1.17070535e-02 7.74427666e-04 1.15982466e-03 1.02743357e-02
      1.33506292e-02 1.85418241e-02 2.50652544e-02 3.62892926e-01
      3.14838886e-01 1.05990330e-02 1.77797303e-02 1.32069048e-02
      4.29882109e-02 5.00953272e-02 8.64000097e-02 6.71289042e-02
      2.04064399e-01 1.80271402e-01 8.15026835e-02 2.80922838e-02
      1.22250896e-02 1.26645491e-02 1.12352595e-02 1.78445447e-02
      8.50323588e-02 4.15696114e-01 4.15696114e-01 1.39377281e-01
      2.00139899e-02 3.57773644e-03 2.50901952e-02 3.53596918e-02
      5.35215214e-02 6.62418380e-02 4.00133878e-01 1.41363755e-01
      2.89614983e-02 3.56149450e-02 2.79465672e-02 7.20469421e-03
      7.29493145e-03 1.54144028e-02 2.89966047e-01 4.15696114e-01
      2.73278981e-01 1.99816786e-02 7.68177817e-03 6.20035268e-03
      1.81260332e-02 5.22020087e-03 8.53078847e-04 2.46589202e-02
      4.36433047e-01 2.88809896e-01 1.37294002e-03 3.63596156e-02
      1.90161448e-02 5.37926294e-02 3.20096500e-02 1.24454811e-01
      3.31172906e-02 4.36433047e-01 1.48325995e-01 2.45936047e-02
      5.25731705e-02 6.63488284e-02 5.91826858e-03 1.91001326e-03
      5.71548799e-03 1.32750973e-01 4.36433047e-01 2.00912282e-01
      1.06784224e-03 1.31722270e-02 9.07380506e-03 1.32212713e-02
      4.35261130e-02 1.40487626e-01 9.09467787e-02 4.36433047e-01
      8.94516855e-02 1.45890368e-02 2.00805366e-02 1.99118759e-02
      1.01722423e-02 1.61181483e-02 7.83336759e-02 7.59050474e-02
      3.45684141e-01 2.46067926e-01 4.42361720e-02 1.58390272e-02
      2.87047792e-02 6.99249469e-03 3.30426544e-02 9.33483616e-02
      2.44128674e-01 3.45684141e-01 3.45684141e-01 5.48091829e-02
      2.80426964e-02 3.76014039e-02 5.39909769e-03 1.51894372e-02
      5.63473888e-02 1.08272128e-01 3.45684141e-01 1.88647732e-01
      2.56219208e-02 1.86726376e-02 2.15251483e-02 1.57461260e-02
      1.70369707e-02 5.54250143e-02 2.46162191e-01 3.45684141e-01
      3.45684141e-01 5.43116443e-02 6.89535215e-02 7.02614114e-02
      4.00521606e-03 1.85876098e-02 4.11097556e-02 2.05844879e-01
      4.00394529e-01 2.87639260e-01 1.21581350e-02 8.96667968e-03
      1.26953572e-02 5.78142703e-03 1.87067746e-03 1.55201426e-03
      1.15818501e-01 4.00394529e-01 1.88265279e-01 7.72527710e-04 0.
      3.00161354e-03 1.04822246e-02 1.05656711e-02 4.10059951e-02
      2.42473915e-01 4.00394529e-01 2.33352929e-01 2.45006904e-02
      3.09617743e-02 3.20505761e-02 1.77350044e-02 1.41240815e-02
      2.02325415e-02 2.13778630e-01 4.00394529e-01 1.17568173e-01
      8.31759628e-03 3.82907852e-03 3.70584708e-03 3.71339335e-03
      4.10086883e-04 7.75073306e-04 1.07153192e-01 4.06355709e-01
      2.04520240e-01 6.34102500e-04 2.79337517e-04 1.97927351e-03
      8.33701715e-03 1.04273474e-02 2.12213434e-02 5.14329635e-02
      4.06355709e-01 2.74179012e-01 3.30856210e-03 5.98910032e-03
      6.86374400e-03 1.17017999e-02 8.91796313e-03 1.53359855e-02
      2.47271180e-01 4.06355709e-01 1.55851409e-01 3.78175895e-03
      1.58289343e-03 1.75028061e-03 4.11904510e-03 4.53674374e-03
      1.32871671e-02 1.64747059e-01 4.06355709e-01 3.00127506e-01
      1.15526812e-02 9.79206339e-03 1.92087470e-03 1.45027842e-02
      1.95362698e-02 5.55967279e-02 7.86521658e-02 3.49523962e-01
      1.43828377e-01 5.19824773e-03 8.51491839e-03 1.26583297e-02
      3.62341059e-03 3.42452084e-03 2.43785568e-02 2.06360564e-01
      3.49523962e-01 3.48294199e-01 2.05765180e-02 3.04899225e-03
      3.71898431e-03 7.63158593e-03 1.35222748e-02 9.42599103e-02
      1.65473700e-01 3.49523962e-01 1.97769091e-01 1.84440296e-02
      2.06604470e-02 4.82862024e-03 6.85771601e-03 2.52581779e-02
      1.35834336e-01 3.49523962e-01 3.49523962e-01 3.04334253e-01
      3.34680974e-02 2.23664269e-02 1.05800489e-02 4.97830007e-03
      3.28713073e-03 1.53653696e-02 9.26108062e-02 4.27568525e-01
      1.43620476e-01 1.39757700e-03 0. 4.97830007e-03 6.79298118e-03
      1.87354721e-02 7.59567469e-02 6.40586987e-02 4.27568525e-01
      5.86794056e-02 1.33427922e-02 3.57731618e-03 6.79298118e-03
      1.78902429e-02 5.33162151e-03 3.99133936e-02 1.85510311e-02
      4.27568525e-01 4.27568525e-01 2.41121631e-02 4.63601347e-04
      1.78902429e-02 7.23965047e-03 1.17295682e-02 9.26609412e-02
      2.98393257e-02 4.27568525e-01 1.41840473e-01 7.11462870e-02
      9.72574763e-03 8.56372714e-03 1.10892020e-02 4.49978560e-03
      3.51615511e-02 1.27876520e-01 3.48019212e-01 1.39405221e-01
      3.74730788e-02 2.19487362e-02 1.35478824e-02 3.30806971e-02
      2.34622862e-02 6.37185201e-02 2.86359310e-01 3.48019212e-01
      3.00629973e-01 8.30967203e-02 8.32469016e-02 3.88382897e-02
      1.41393449e-02 1.16300047e-03 2.02955045e-02 9.72681195e-02
      3.48019212e-01 1.49688467e-01 1.01427853e-01 1.72779057e-02
      1.06991651e-02 4.28115427e-02 4.04180847e-02 5.45493849e-02
      2.59904355e-01 3.48019212e-01 3.36883456e-01 2.11513862e-01
      5.93489446e-02 2.15645581e-02 3.12663652e-02 4.82091941e-02
      7.95269683e-02 3.41746271e-01 3.43785018e-01 1.85704947e-01
      4.89232615e-02 5.19772545e-02 3.91007513e-02 3.26416790e-02
      4.51033525e-02 6.48961961e-02 2.79315382e-01 3.43785018e-01
      1.10207580e-01 3.24460492e-02 3.38162892e-02 3.20706666e-02
      7.05235004e-02 1.02895819e-01 9.35797393e-02 2.99424320e-01
